{"type":"LSTM","options":{"inputSize":31,"inputRange":31,"hiddenLayers":[20,20],"outputSize":31,"decayRate":0.999,"smoothEps":1e-8,"regc":0.000001,"clipval":5,"maxPredictionLength":100,"dataFormatter":{"values":["my unit-tests failed.","software","tried the program, but it was buggy.","i need a new power supply.","hardware","the drive has a 2TB capacity.","unit-tests","program","power supply","drive"],"indexTable":{"2":24,"m":0,"y":1," ":2,"u":3,"n":4,"i":5,"t":6,"-":7,"e":8,"s":9,"f":10,"a":11,"l":12,"d":13,".":14,"o":15,"w":16,"r":17,"h":18,"p":19,"g":20,",":21,"b":22,"v":23,"T":25,"B":26,"c":27,"stop-input":28,"start-output":29,"unrecognized":30},"characterTable":{"0":"m","1":"y","2":" ","3":"u","4":"n","5":"i","6":"t","7":"-","8":"e","9":"s","10":"f","11":"a","12":"l","13":"d","14":".","15":"o","16":"w","17":"r","18":"h","19":"p","20":"g","21":",","22":"b","23":"v","24":"2","25":"T","26":"B","27":"c","28":null,"29":null,"30":null},"characters":["m","y"," ","u","n","i","t","-","e","s","f","a","l","d",".","o","w","r","h","p","g",",","b","v","2","T","B","c","stop-input","start-output","unrecognized"],"specialIndexes":[28,29,30]}},"input":{"rows":32,"columns":31,"weights":{"0":2.115849733352661,"1":-0.3749236762523651,"2":0.7713907957077026,"3":0.6781646609306335,"4":-0.04611621052026749,"5":3.9466540813446045,"6":3.671083927154541,"7":2.316110372543335,"8":-1.1482311487197876,"9":-0.2091238647699356,"10":-0.3772239685058594,"11":1.5234363079071045,"12":-1.5434250831604004,"13":-3.0031731128692627,"14":3.9331202507019043,"15":1.9091435670852661,"16":2.3465890884399414,"17":-2.9322986602783203,"18":1.9168473482131958,"19":1.7691997289657593,"20":0.4324837625026703,"21":-2.201509475708008,"22":0.2557995617389679,"23":-2.3736045360565186,"24":1.138029932975769,"25":-0.3955391049385071,"26":-0.7563409209251404,"27":-0.24662071466445923,"28":-1.2493480443954468,"29":0.15471835434436798,"30":-1.89614999294281,"31":0.7060096859931946,"32":-5.3773298263549805,"33":-1.360140323638916,"34":1.7494584321975708,"35":-2.3059589862823486,"36":1.9436590671539307,"37":1.2786920070648193,"38":3.645224094390869,"39":-5.949578762054443,"40":-7.097033977508545,"41":-8.824068069458008,"42":2.2177481651306152,"43":0.9993789792060852,"44":-5.809759140014648,"45":3.3761651515960693,"46":0.7581827640533447,"47":4.626553535461426,"48":0.6621922254562378,"49":0.39331889152526855,"50":-2.0795788764953613,"51":0.13069365918636322,"52":0.6468692421913147,"53":3.695422410964966,"54":-1.8830406665802002,"55":-1.4635497331619263,"56":-2.15328049659729,"57":3.741305351257324,"58":-3.1970908641815186,"59":-4.722634792327881,"60":-2.156710386276245,"61":-2.632580280303955,"62":1.548824667930603,"63":-0.7967913746833801,"64":-0.683276355266571,"65":-0.6002485752105713,"66":-4.448160171508789,"67":-0.5981934070587158,"68":-2.727656841278076,"69":1.5676195621490479,"70":2.1167685985565186,"71":-0.17569534480571747,"72":-2.0352349281311035,"73":-4.391435623168945,"74":-3.5838117599487305,"75":-1.148452877998352,"76":0.04438944160938263,"77":-4.909764289855957,"78":-3.8825438022613525,"79":1.6280158758163452,"80":0.27167415618896484,"81":-1.7432054281234741,"82":-1.5105717182159424,"83":-3.026567220687866,"84":4.632350444793701,"85":1.7367931604385376,"86":1.263698697090149,"87":0.07819172739982605,"88":-1.0844064950942993,"89":0.1963067501783371,"90":3.2147457599639893,"91":-0.26711025834083557,"92":-2.4163408279418945,"93":-8.12939167022705,"94":3.9267654418945312,"95":-0.2669886648654938,"96":0.6128552556037903,"97":3.0042567253112793,"98":-1.2866744995117188,"99":1.2446237802505493,"100":-2.422224283218384,"101":5.755430221557617,"102":0.012992256321012974,"103":-0.40283116698265076,"104":-2.36144757270813,"105":2.9607362747192383,"106":2.539409875869751,"107":-3.351346969604492,"108":-1.8484904766082764,"109":-1.1067874431610107,"110":-1.1849644184112549,"111":3.447606086730957,"112":4.3468780517578125,"113":-3.331760883331299,"114":1.375028371810913,"115":-1.0222365856170654,"116":0.6857072114944458,"117":2.7929372787475586,"118":3.211768865585327,"119":-1.6238441467285156,"120":2.195465087890625,"121":1.3451085090637207,"122":0.04516110196709633,"123":2.5742294788360596,"124":-3.0626208782196045,"125":4.155590057373047,"126":0.9698261618614197,"127":1.9200527667999268,"128":-3.213361978530884,"129":-0.9659073352813721,"130":-2.6019959449768066,"131":-0.964387834072113,"132":9.492531776428223,"133":1.3121840953826904,"134":0.869221031665802,"135":-3.411862850189209,"136":0.03423887491226196,"137":1.793692946434021,"138":-3.1650402545928955,"139":0.247926726937294,"140":0.48494118452072144,"141":-2.1986682415008545,"142":-1.704872965812683,"143":4.775995254516602,"144":-1.3606016635894775,"145":1.7711127996444702,"146":-1.5106233358383179,"147":0.9747456908226013,"148":-0.38890883326530457,"149":-3.260423421859741,"150":-2.45365571975708,"151":-1.7780065536499023,"152":-0.47799041867256165,"153":0.2564256191253662,"154":2.3981544971466064,"155":-3.2894186973571777,"156":0.48801666498184204,"157":-5.787978649139404,"158":2.0862011909484863,"159":-3.615609645843506,"160":-0.10690697282552719,"161":0.1848001331090927,"162":2.126157760620117,"163":2.303738594055176,"164":-0.023800604045391083,"165":-2.3821535110473633,"166":-1.264870524406433,"167":-1.5779216289520264,"168":2.5574207305908203,"169":-3.552539110183716,"170":-7.585002899169922,"171":7.301179885864258,"172":-4.9649200439453125,"173":2.101952314376831,"174":-6.6260528564453125,"175":2.6907026767730713,"176":-0.7486927509307861,"177":0.889692485332489,"178":-1.1248247623443604,"179":4.957476615905762,"180":0.598677396774292,"181":0.6855267286300659,"182":-0.026987416669726372,"183":2.647728204727173,"184":-4.9825520515441895,"185":2.2380857467651367,"186":-0.20866462588310242,"187":-1.1568074226379395,"188":5.607572078704834,"189":1.0459256172180176,"190":0.24613861739635468,"191":-0.6592557430267334,"192":-4.526322364807129,"193":0.008606376126408577,"194":0.4064065217971802,"195":3.153010129928589,"196":4.2295403480529785,"197":-0.1484581083059311,"198":0.7433158755302429,"199":-3.059319496154785,"200":-0.5112988352775574,"201":1.141943335533142,"202":1.7618566751480103,"203":1.6934807300567627,"204":-1.3436753749847412,"205":-0.5976783037185669,"206":-1.3230211734771729,"207":-0.15257026255130768,"208":-2.2422170639038086,"209":-1.2292263507843018,"210":-3.2253363132476807,"211":-3.477421998977661,"212":-3.3331892490386963,"213":0.5127710103988647,"214":4.189840316772461,"215":-0.5542111396789551,"216":2.1654398441314697,"217":0.8792054057121277,"218":2.9201090335845947,"219":-2.2196946144104004,"220":3.7672483921051025,"221":2.3782742023468018,"222":-1.3630568981170654,"223":1.1246846914291382,"224":0.9697872400283813,"225":-2.424024820327759,"226":2.704524517059326,"227":1.383580207824707,"228":2.6818857192993164,"229":-0.12049327045679092,"230":5.099714279174805,"231":2.2916877269744873,"232":0.6186384558677673,"233":0.6286327838897705,"234":-2.8154208660125732,"235":1.1598700284957886,"236":4.449168682098389,"237":4.47687292098999,"238":2.0272786617279053,"239":0.9404412508010864,"240":2.2125117778778076,"241":-0.8027268648147583,"242":1.6910638809204102,"243":-3.612109661102295,"244":4.972345352172852,"245":-1.0952527523040771,"246":2.0162224769592285,"247":-2.1839709281921387,"248":2.9842286109924316,"249":-7.733029842376709,"250":1.437366247177124,"251":3.797903299331665,"252":4.090770244598389,"253":-1.5075899362564087,"254":1.4734642505645752,"255":1.3934141397476196,"256":-2.440329074859619,"257":2.5206704139709473,"258":6.764035701751709,"259":8.24885082244873,"260":-0.6249409317970276,"261":-4.282642841339111,"262":4.816155910491943,"263":0.03370220214128494,"264":-1.25996732711792,"265":1.9469506740570068,"266":-5.069275856018066,"267":-0.23187462985515594,"268":1.7803888320922852,"269":-0.6012560129165649,"270":1.6055858135223389,"271":3.660745143890381,"272":-0.5867181420326233,"273":3.6912777423858643,"274":3.3540749549865723,"275":5.0212812423706055,"276":-11.126866340637207,"277":4.428668975830078,"278":-9.045771598815918,"279":-0.42340144515037537,"280":0.37283188104629517,"281":-0.8940656781196594,"282":1.8204748630523682,"283":4.046360492706299,"284":-0.11571676284074783,"285":-0.9420627951622009,"286":0.3406979441642761,"287":-1.71208655834198,"288":1.4938504695892334,"289":1.9519379138946533,"290":-1.9716922044754028,"291":1.2259788513183594,"292":0.1842372715473175,"293":1.1829015016555786,"294":-0.14556743204593658,"295":-1.8312114477157593,"296":1.7534018754959106,"297":-0.6132611036300659,"298":0.9319676756858826,"299":0.8030281662940979,"300":2.0654618740081787,"301":-1.8785909414291382,"302":0.8453783988952637,"303":-0.7133471369743347,"304":1.379898190498352,"305":-1.6636797189712524,"306":0.7936415672302246,"307":-0.28204935789108276,"308":-0.2752387821674347,"309":1.5476059913635254,"310":1.3413786888122559,"311":0.7855843305587769,"312":-0.6050920486450195,"313":0.15412060916423798,"314":-5.367321014404297,"315":-2.0297858715057373,"316":-0.9452163577079773,"317":0.09828074276447296,"318":-0.8494118452072144,"319":0.27324363589286804,"320":-4.82021951675415,"321":1.057163953781128,"322":-1.3406192064285278,"323":-3.10103440284729,"324":0.950070321559906,"325":1.1547812223434448,"326":-3.5991299152374268,"327":0.8982646465301514,"328":-2.894080638885498,"329":-0.25057128071784973,"330":2.7571122646331787,"331":-2.241203784942627,"332":-0.2629767656326294,"333":1.133247971534729,"334":-3.3684098720550537,"335":-2.4525818824768066,"336":2.145955801010132,"337":-1.5264993906021118,"338":1.0375057458877563,"339":4.2454023361206055,"340":0.06265664845705032,"341":1.8935660123825073,"342":0.5104009509086609,"343":-0.4618114233016968,"344":2.865342855453491,"345":5.6665215492248535,"346":1.0516444444656372,"347":0.4025475084781647,"348":2.0492024421691895,"349":-1.1285715103149414,"350":2.519315242767334,"351":5.046101093292236,"352":-5.639305114746094,"353":1.1002110242843628,"354":-2.2216124534606934,"355":0.7105044722557068,"356":-0.6598228812217712,"357":1.0579063892364502,"358":-1.0492602586746216,"359":3.4853174686431885,"360":1.1599338054656982,"361":-0.8799825310707092,"362":0.07698297500610352,"363":2.311445951461792,"364":-6.050971031188965,"365":-0.5209402441978455,"366":4.103992462158203,"367":0.2881702780723572,"368":3.4186899662017822,"369":0.22723506391048431,"370":-2.3078904151916504,"371":0.9994751214981079,"372":2.5610947608947754,"373":2.593287229537964,"374":1.3435354232788086,"375":4.277980327606201,"376":1.240791916847229,"377":2.510464668273926,"378":1.2563591003417969,"379":2.9816372394561768,"380":0.043341826647520065,"381":1.9866642951965332,"382":1.2693991661071777,"383":0.1805742233991623,"384":-0.9981815218925476,"385":-2.8677563667297363,"386":-1.4155431985855103,"387":3.6986148357391357,"388":2.95208477973938,"389":-2.4663186073303223,"390":1.2838938236236572,"391":-0.0969584509730339,"392":1.1415766477584839,"393":-0.18260909616947174,"394":0.9531165361404419,"395":-1.7270336151123047,"396":2.351963996887207,"397":0.46219760179519653,"398":-2.3448359966278076,"399":-0.9761158227920532,"400":1.328370213508606,"401":-0.6311827301979065,"402":-0.5048539042472839,"403":1.6119513511657715,"404":1.3361090421676636,"405":-2.4961721897125244,"406":4.402158737182617,"407":3.8066279888153076,"408":-7.235463619232178,"409":-6.097886562347412,"410":5.622446060180664,"411":-0.9630225300788879,"412":4.546695232391357,"413":1.4966135025024414,"414":-4.838361740112305,"415":0.6557755470275879,"416":1.4758126735687256,"417":0.7311814427375793,"418":0.6695280075073242,"419":-1.7680118083953857,"420":-1.7548495531082153,"421":-2.8105056285858154,"422":-0.8178067207336426,"423":1.9423093795776367,"424":3.888476610183716,"425":-0.770696759223938,"426":-0.13092951476573944,"427":3.620975971221924,"428":2.384636640548706,"429":-9.121917724609375,"430":4.153189182281494,"431":3.550480365753174,"432":-0.9195353388786316,"433":0.8910627961158752,"434":1.3360501527786255,"435":1.379693865776062,"436":-1.5536900758743286,"437":-0.9901708364486694,"438":-0.30601269006729126,"439":1.8221592903137207,"440":-3.1356658935546875,"441":2.680955410003662,"442":3.04154634475708,"443":-1.5998657941818237,"444":-1.9282063245773315,"445":-1.3397362232208252,"446":-1.428146481513977,"447":-0.5414562821388245,"448":-2.119406223297119,"449":-3.6617417335510254,"450":4.174279689788818,"451":-5.212286472320557,"452":3.8189480304718018,"453":-0.89808189868927,"454":1.755825161933899,"455":2.5959630012512207,"456":1.7975115776062012,"457":-1.5566130876541138,"458":-0.7295578122138977,"459":-0.2307114452123642,"460":0.3839637041091919,"461":-1.3601535558700562,"462":-2.839592218399048,"463":-2.8576362133026123,"464":0.41768717765808105,"465":-4.351954936981201,"466":-2.9546380043029785,"467":-2.3433096408843994,"468":-0.7118878960609436,"469":0.9908447265625,"470":4.148388862609863,"471":3.0878992080688477,"472":5.531982421875,"473":5.521364688873291,"474":3.3448712825775146,"475":-0.4284801483154297,"476":1.6987574100494385,"477":-0.8865900039672852,"478":-6.8941779136657715,"479":-1.1924240589141846,"480":-3.4324841499328613,"481":-2.085601806640625,"482":1.753556251525879,"483":0.3424232006072998,"484":-6.34185791015625,"485":-3.478214740753174,"486":-0.5250950455665588,"487":0.8847640752792358,"488":-2.670274496078491,"489":-6.93919563293457,"490":-0.8270679116249084,"491":0.23490175604820251,"492":1.0026001930236816,"493":2.5342214107513428,"494":-6.882388114929199,"495":0.7315129041671753,"496":1.9003890752792358,"497":1.2681628465652466,"498":-0.947352409362793,"499":-1.8573940992355347,"500":2.5009562969207764,"501":-3.1103758811950684,"502":0.4946356415748596,"503":-1.9335640668869019,"504":0.6690850257873535,"505":0.32460787892341614,"506":2.598627805709839,"507":2.2515132427215576,"508":2.4216129779815674,"509":2.4439444541931152,"510":-2.6994407176971436,"511":2.87369704246521,"512":-3.7226402759552,"513":6.529944896697998,"514":0.4538455903530121,"515":-3.1697869300842285,"516":-0.9548959732055664,"517":0.46433448791503906,"518":-2.0828158855438232,"519":-0.1369304358959198,"520":-1.983262062072754,"521":2.9771509170532227,"522":-0.6021724343299866,"523":2.05470871925354,"524":1.0879695415496826,"525":1.4473756551742554,"526":2.4290871620178223,"527":-1.8425929546356201,"528":-2.0823686122894287,"529":3.214705228805542,"530":3.8354036808013916,"531":5.21682071685791,"532":-1.4688732624053955,"533":1.842570185661316,"534":-0.8218176960945129,"535":0.8471074104309082,"536":3.3885674476623535,"537":0.7468447089195251,"538":-0.5505514144897461,"539":1.2270314693450928,"540":-3.537595510482788,"541":-0.15909306704998016,"542":-0.5618300437927246,"543":-1.5889875888824463,"544":-0.6652125120162964,"545":-1.4131433963775635,"546":2.2759339809417725,"547":0.31614798307418823,"548":-2.8286263942718506,"549":-0.13330130279064178,"550":-1.5698810815811157,"551":-3.66326642036438,"552":1.1993458271026611,"553":-0.43298059701919556,"554":2.1427268981933594,"555":0.7859775424003601,"556":1.522433876991272,"557":0.4896760880947113,"558":-0.9707622528076172,"559":0.13888292014598846,"560":2.350665330886841,"561":-0.470639705657959,"562":2.7428600788116455,"563":2.44708514213562,"564":-0.25744038820266724,"565":-1.0132651329040527,"566":-1.0590488910675049,"567":0.5262616276741028,"568":1.4112000465393066,"569":-1.3164019584655762,"570":0.9851223826408386,"571":1.553118348121643,"572":-0.3403661549091339,"573":-0.13302657008171082,"574":3.7015023231506348,"575":0.38645026087760925,"576":1.0476478338241577,"577":2.7785987854003906,"578":-1.1344598531723022,"579":1.2663487195968628,"580":-2.605118989944458,"581":-3.7484662532806396,"582":1.1636236906051636,"583":0.8161832094192505,"584":-1.734226942062378,"585":1.5361230373382568,"586":-0.6240611672401428,"587":-0.6368488669395447,"588":-1.299870491027832,"589":0.6844522356987,"590":-0.05099751055240631,"591":-1.0203920602798462,"592":-1.6651034355163574,"593":-3.3958818912506104,"594":0.6944034099578857,"595":0.6914554834365845,"596":-1.2466821670532227,"597":-0.07541493326425552,"598":-0.6409832239151001,"599":-3.712310552597046,"600":-1.4575601816177368,"601":0.5772191882133484,"602":2.9905543327331543,"603":-1.507260799407959,"604":-3.6222546100616455,"605":8.03780746459961,"606":-6.893065929412842,"607":3.292387008666992,"608":-2.1444108486175537,"609":2.2886905670166016,"610":-0.1614639163017273,"611":2.0681405067443848,"612":-0.21488629281520844,"613":7.207269191741943,"614":2.635385036468506,"615":-1.57399320602417,"616":1.5216374397277832,"617":-3.4018428325653076,"618":-2.4703543186187744,"619":-5.986627101898193,"620":-1.6516194343566895,"621":0.14521418511867523,"622":1.5571693181991577,"623":3.1218981742858887,"624":1.77120840549469,"625":-2.9499871730804443,"626":0.1860428750514984,"627":0.6121182441711426,"628":3.3893144130706787,"629":0.3815804123878479,"630":4.399670600891113,"631":-0.013309091329574585,"632":2.31628680229187,"633":4.591672897338867,"634":1.3418967723846436,"635":0.2445748895406723,"636":-0.599180281162262,"637":0.12060321122407913,"638":-2.2582571506500244,"639":1.962656021118164,"640":0.599457859992981,"641":0.06308604031801224,"642":-2.2435405254364014,"643":3.265294075012207,"644":4.692619800567627,"645":-0.730828583240509,"646":-5.679691791534424,"647":2.0125269889831543,"648":1.6726303100585938,"649":0.379804402589798,"650":-1.0495893955230713,"651":-0.1499464511871338,"652":-0.6717832088470459,"653":2.3884215354919434,"654":3.2267730236053467,"655":7.533659934997559,"656":-1.737187147140503,"657":1.284980297088623,"658":0.5729943513870239,"659":1.5882489681243896,"660":4.5627360343933105,"661":4.9517388343811035,"662":3.1957600116729736,"663":0.8645336627960205,"664":-9.863456726074219,"665":2.4928529262542725,"666":0.44135844707489014,"667":3.1736016273498535,"668":-3.5048766136169434,"669":1.5666979551315308,"670":-1.7841287851333618,"671":3.5527737140655518,"672":-4.979868412017822,"673":-0.40447255969047546,"674":-7.603333950042725,"675":-4.124422073364258,"676":0.9690435528755188,"677":-1.9739296436309814,"678":3.238508939743042,"679":0.353283166885376,"680":5.033236980438232,"681":-0.26684656739234924,"682":-2.4150922298431396,"683":6.771205902099609,"684":-0.13634885847568512,"685":2.8005378246307373,"686":4.550052165985107,"687":5.97881555557251,"688":7.640102863311768,"689":-5.024531364440918,"690":0.3214515149593353,"691":-2.5140771865844727,"692":0.19111567735671997,"693":5.25994873046875,"694":-4.98028564453125,"695":10.597342491149902,"696":3.935154438018799,"697":-5.171372413635254,"698":7.2141499519348145,"699":-7.101028919219971,"700":8.80480670928955,"701":4.9807868003845215,"702":3.6755616664886475,"703":-6.835558891296387,"704":4.141392707824707,"705":2.631861686706543,"706":6.641113758087158,"707":-5.815628528594971,"708":-4.988281726837158,"709":-3.301511526107788,"710":0.8620169162750244,"711":-12.260270118713379,"712":0.5836219191551208,"713":0.1054055392742157,"714":-0.9921877980232239,"715":-3.80370831489563,"716":4.470107555389404,"717":4.25467586517334,"718":-3.9817161560058594,"719":2.0293054580688477,"720":0.23092655837535858,"721":3.3373115062713623,"722":3.4795281887054443,"723":2.7533321380615234,"724":6.841913223266602,"725":5.340434551239014,"726":0.7794311046600342,"727":0.842973530292511,"728":5.078256607055664,"729":1.0576664209365845,"730":-3.055065870285034,"731":2.2521326541900635,"732":2.770768880844116,"733":0.33310070633888245,"734":-1.379946231842041,"735":1.9650887250900269,"736":-1.2657020092010498,"737":-0.8699108362197876,"738":18.007715225219727,"739":2.144847869873047,"740":18.531776428222656,"741":-9.840370178222656,"742":3.674628734588623,"743":-10.565261840820312,"744":1.7925242185592651,"745":-0.33269017934799194,"746":-0.9715165495872498,"747":-6.102963924407959,"748":2.1669793128967285,"749":3.652360200881958,"750":6.800726413726807,"751":2.8696484565734863,"752":2.2124621868133545,"753":-5.511798858642578,"754":5.093103885650635,"755":4.133893966674805,"756":-4.284778118133545,"757":8.765028953552246,"758":6.707066535949707,"759":-5.473203659057617,"760":5.89805793762207,"761":-4.649551868438721,"762":0.27668148279190063,"763":5.035462379455566,"764":8.485907554626465,"765":-6.81951379776001,"766":1.4276983737945557,"767":-1.6377414464950562,"768":8.622901916503906,"769":-1.1828047037124634,"770":-6.001511573791504,"771":1.9434975385665894,"772":1.3814135789871216,"773":-0.6120672225952148,"774":-4.792279243469238,"775":2.8567893505096436,"776":5.727771759033203,"777":-6.04241418838501,"778":-2.2066097259521484,"779":5.670111656188965,"780":0.3581940233707428,"781":-6.273041248321533,"782":-1.4904553890228271,"783":-2.243521213531494,"784":1.7332148551940918,"785":0.3798334300518036,"786":-6.512484073638916,"787":-4.451995849609375,"788":10.268406867980957,"789":-2.117852210998535,"790":-6.487463474273682,"791":1.3050538301467896,"792":-1.4580813646316528,"793":-4.96225118637085,"794":-4.691983222961426,"795":-0.3070544898509979,"796":10.558595657348633,"797":-2.1255757808685303,"798":3.1943864822387695,"799":3.311490535736084,"800":5.484192371368408,"801":-4.128144264221191,"802":-0.893571674823761,"803":11.995777130126953,"804":-6.275521278381348,"805":5.904575347900391,"806":-5.085507392883301,"807":-5.728089809417725,"808":-11.758033752441406,"809":-11.631196022033691,"810":-1.5567775964736938,"811":-4.001605033874512,"812":1.7592544555664062,"813":-14.996492385864258,"814":9.475955963134766,"815":-4.3408989906311035,"816":1.0432616472244263,"817":4.180816650390625,"818":4.499145030975342,"819":5.921972751617432,"820":-0.5220164060592651,"821":-3.2288804054260254,"822":-2.7261877059936523,"823":-0.18537603318691254,"824":-1.6472965478897095,"825":-2.4278604984283447,"826":-3.52958607673645,"827":-4.1152567863464355,"828":0.19020956754684448,"829":5.810763835906982,"830":2.9982070922851562,"831":2.8386738300323486,"832":-1.6857868432998657,"833":5.447694778442383,"834":1.8047553300857544,"835":-4.140295505523682,"836":-0.6537614464759827,"837":12.65300464630127,"838":-5.147061347961426,"839":8.147554397583008,"840":-3.854325294494629,"841":-6.407134532928467,"842":4.584412097930908,"843":1.6616886854171753,"844":-0.6441145539283752,"845":-12.810986518859863,"846":-0.0459379106760025,"847":-0.3621424734592438,"848":-3.49029541015625,"849":-2.481536626815796,"850":3.688035488128662,"851":5.0435791015625,"852":7.301241397857666,"853":-5.348823070526123,"854":10.15884017944336,"855":-5.073261260986328,"856":0.38811179995536804,"857":-1.111584186553955,"858":3.2124221324920654,"859":6.463927268981934,"860":3.8628504276275635,"861":12.173166275024414,"862":-5.148688793182373,"863":-5.065474033355713,"864":-9.11771011352539,"865":3.9930419921875,"866":0.5755146145820618,"867":4.485194683074951,"868":3.1762678623199463,"869":-5.606606483459473,"870":14.778666496276855,"871":-1.017505407333374,"872":-2.7197394371032715,"873":8.861188888549805,"874":5.863500118255615,"875":12.20651626586914,"876":5.362052917480469,"877":1.52924644947052,"878":1.1410599946975708,"879":-1.8796418905258179,"880":-9.319734573364258,"881":-2.001765251159668,"882":9.92802619934082,"883":-1.2491490840911865,"884":5.600962162017822,"885":-5.185914516448975,"886":7.292649269104004,"887":3.4856016635894775,"888":-1.3387449979782104,"889":-0.8469117283821106,"890":-0.4931621253490448,"891":1.6061232089996338,"892":0.9130105376243591,"893":5.943410873413086,"894":-13.67104434967041,"895":6.300893306732178,"896":-4.080399990081787,"897":-0.5983152985572815,"898":-6.570188045501709,"899":1.7731705904006958,"900":-1.8680001497268677,"901":-0.6721108555793762,"902":-1.0843377113342285,"903":3.1311001777648926,"904":-0.37309354543685913,"905":-1.3556203842163086,"906":-2.027693033218384,"907":3.617051601409912,"908":0.5351862907409668,"909":1.992997646331787,"910":-1.7805979251861572,"911":-1.706801176071167,"912":5.123013496398926,"913":-1.5382510423660278,"914":-3.317997694015503,"915":-2.119999408721924,"916":-0.46986719965934753,"917":-0.7416273355484009,"918":-0.3792819380760193,"919":-0.47710201144218445,"920":3.138646125793457,"921":-0.5906239748001099,"922":-0.9923443794250488,"923":-0.016524329781532288,"924":1.4645471572875977,"925":-5.149399757385254,"926":2.2164688110351562,"927":-2.2627267837524414,"928":1.6099563837051392,"929":1.7026461362838745,"930":-1.851505994796753,"931":1.5929234027862549,"932":-1.0378769636154175,"933":0.6386484503746033,"934":-0.4279879629611969,"935":-3.8534364700317383,"936":-3.804536819458008,"937":1.0217695236206055,"938":0.6479342579841614,"939":1.0033334493637085,"940":2.4842145442962646,"941":-2.094893455505371,"942":2.477411985397339,"943":0.007902095094323158,"944":-1.8964043855667114,"945":1.2139551639556885,"946":-1.0074138641357422,"947":1.011306881904602,"948":-1.7778400182724,"949":0.08205851912498474,"950":-3.074223756790161,"951":0.86155766248703,"952":-0.7636430859565735,"953":-0.653410792350769,"954":0.004692262038588524,"955":0.05949154123663902,"956":-0.7716876864433289,"957":1.775356411933899,"958":3.6273751258850098,"959":-1.369323968887329,"960":0.025788482278585434,"961":-0.030602989718317986,"962":0.047822389751672745,"963":0.04681982100009918,"964":-0.027942366898059845,"965":-0.049451302736997604,"966":-0.03613738343119621,"967":-0.033605076372623444,"968":-0.060463808476924896,"969":0.010828291065990925,"970":0.06766009330749512,"971":-0.0576600655913353,"972":0.036974240094423294,"973":-0.009025214239954948,"974":-0.01307074073702097,"975":0.03265416994690895,"976":0.06242716684937477,"977":-0.038538798689842224,"978":-0.036674171686172485,"979":0.06434236466884613,"980":-0.0373731330037117,"981":0.006957420147955418,"982":-0.06063668429851532,"983":0.052004359662532806,"984":0.06038791686296463,"985":-0.06060335040092468,"986":0.058899637311697006,"987":-0.034526098519563675,"988":0.06281988322734833,"989":0.004084205254912376,"990":-0.024053378030657768,"991":0.0028944211080670357}},"hiddenLayers":[{"inputMatrix":{"rows":20,"columns":31,"weights":{"0":-1.60420823097229,"1":-1.3773491382598877,"2":4.416897296905518,"3":-1.9483327865600586,"4":0.23030535876750946,"5":-4.561074733734131,"6":-0.15708127617835999,"7":-4.775676727294922,"8":2.497725009918213,"9":-0.3116794228553772,"10":0.6610317230224609,"11":0.6527148485183716,"12":1.6339092254638672,"13":-0.1295725256204605,"14":-1.3224470615386963,"15":1.2193983793258667,"16":-0.5772475004196167,"17":0.07869946211576462,"18":-2.1679611206054688,"19":2.0782687664031982,"20":-2.6894869804382324,"21":-1.0132044553756714,"22":-2.049823045730591,"23":-1.4344801902770996,"24":-1.6503126621246338,"25":-1.3273392915725708,"26":0.36005792021751404,"27":0.5604960918426514,"28":-2.730478048324585,"29":1.6440037488937378,"30":-1.9372749328613281,"31":-0.026395276188850403,"32":0.877811074256897,"33":0.2805117964744568,"34":0.597032904624939,"35":0.014312664978206158,"36":-3.9464027881622314,"37":-2.538684844970703,"38":-0.7510383725166321,"39":0.17176541686058044,"40":1.0246655941009521,"41":-0.09696412086486816,"42":-2.35487699508667,"43":-0.8733290433883667,"44":0.7958443760871887,"45":0.6166960597038269,"46":-0.45114415884017944,"47":-3.072169303894043,"48":3.0438175201416016,"49":-0.9516099691390991,"50":2.9590604305267334,"51":-1.1478095054626465,"52":1.7504315376281738,"53":-1.7245346307754517,"54":2.6880393028259277,"55":-0.8143991827964783,"56":0.12800560891628265,"57":-0.3570834994316101,"58":0.3970808684825897,"59":1.0378696918487549,"60":0.9034149646759033,"61":-0.8199328184127808,"62":-2.7186243534088135,"63":-1.4512804746627808,"64":1.0726163387298584,"65":0.2557803690433502,"66":0.13470499217510223,"67":-1.4853590726852417,"68":-0.5491602420806885,"69":0.2831178307533264,"70":2.631977081298828,"71":2.6670262813568115,"72":-0.4262734353542328,"73":0.2198561280965805,"74":0.6075630187988281,"75":-2.0363588333129883,"76":0.7660272121429443,"77":0.13772299885749817,"78":-2.518068313598633,"79":1.0951288938522339,"80":-0.07917190343141556,"81":1.8492728471755981,"82":-0.4820397198200226,"83":-0.06813650578260422,"84":0.14484573900699615,"85":3.8355655670166016,"86":-2.081742763519287,"87":2.4705913066864014,"88":-0.22805503010749817,"89":2.757071018218994,"90":-1.0711860656738281,"91":3.204054594039917,"92":-1.737104058265686,"93":-1.171812891960144,"94":-2.275806427001953,"95":2.2889037132263184,"96":0.9485185742378235,"97":1.332069754600525,"98":-2.5818448066711426,"99":0.29803773760795593,"100":-0.11467120051383972,"101":-1.4999773502349854,"102":-0.4932098388671875,"103":-0.5689824223518372,"104":-1.0085103511810303,"105":0.8066726922988892,"106":0.3302987217903137,"107":1.4641834497451782,"108":1.573996663093567,"109":-1.2903715372085571,"110":3.853541612625122,"111":-0.8930184841156006,"112":2.601447343826294,"113":1.3639538288116455,"114":0.9829365611076355,"115":0.4567848742008209,"116":2.456232786178589,"117":-2.3503034114837646,"118":-0.5383026599884033,"119":0.02704911306500435,"120":-0.8156419396400452,"121":-2.267674684524536,"122":-0.06480392068624496,"123":-0.15519285202026367,"124":1.100943684577942,"125":-1.6490474939346313,"126":0.9225528836250305,"127":1.2094172239303589,"128":0.5955418944358826,"129":0.5470672249794006,"130":3.0403668880462646,"131":0.6083842515945435,"132":-0.957637369632721,"133":0.032262030988931656,"134":0.09167203307151794,"135":-0.27045637369155884,"136":-1.5667811632156372,"137":-0.34968334436416626,"138":2.607085943222046,"139":-0.7882044911384583,"140":-1.2623239755630493,"141":1.063999891281128,"142":0.14636018872261047,"143":1.574149250984192,"144":2.493082284927368,"145":-2.90350079536438,"146":3.707493782043457,"147":0.38907209038734436,"148":-2.157496213912964,"149":-1.7778836488723755,"150":0.08490336686372757,"151":-2.314725637435913,"152":4.175863265991211,"153":-0.6687802672386169,"154":1.2353957891464233,"155":1.2116565704345703,"156":0.6516726016998291,"157":0.8929571509361267,"158":2.21185040473938,"159":-1.1974103450775146,"160":0.8059228658676147,"161":2.009596109390259,"162":1.6521576642990112,"163":-0.961644172668457,"164":0.5891005992889404,"165":1.4812250137329102,"166":0.5505491495132446,"167":-0.5241659879684448,"168":0.39466115832328796,"169":1.5153791904449463,"170":0.5214738249778748,"171":4.120173931121826,"172":0.40832650661468506,"173":1.9877161979675293,"174":0.9261046648025513,"175":0.37535491585731506,"176":-0.3747361898422241,"177":0.06361399590969086,"178":-1.2383990287780762,"179":2.332939863204956,"180":-0.16107182204723358,"181":0.6056088805198669,"182":-0.13845331966876984,"183":-3.3064498901367188,"184":-0.5054623484611511,"185":-0.2825625538825989,"186":-0.7195088267326355,"187":2.6675755977630615,"188":-0.8341631889343262,"189":1.4916311502456665,"190":0.3962986469268799,"191":-0.14551815390586853,"192":0.7148080468177795,"193":1.530105710029602,"194":-1.6726503372192383,"195":1.2141618728637695,"196":1.3527379035949707,"197":-0.16667768359184265,"198":1.481270670890808,"199":1.2534735202789307,"200":0.7718292474746704,"201":-2.061272621154785,"202":0.9391828775405884,"203":-3.1958470344543457,"204":0.8742941617965698,"205":2.5833230018615723,"206":-0.10749546438455582,"207":-1.138812780380249,"208":-2.9018361568450928,"209":-2.9146718978881836,"210":3.111759662628174,"211":3.1426706314086914,"212":-2.369779348373413,"213":1.7091538906097412,"214":0.13676762580871582,"215":-1.656484603881836,"216":-0.40213629603385925,"217":-1.099274754524231,"218":0.2993226945400238,"219":1.715121865272522,"220":1.3164342641830444,"221":-0.6479628086090088,"222":1.1721282005310059,"223":3.14782452583313,"224":-0.8923591375350952,"225":-1.9474824666976929,"226":0.2545166611671448,"227":1.900307059288025,"228":2.9954309463500977,"229":2.9819209575653076,"230":-1.2808009386062622,"231":1.7737202644348145,"232":1.4196550846099854,"233":2.732055902481079,"234":-0.3994830250740051,"235":1.6106148958206177,"236":-0.09692582488059998,"237":-1.1202746629714966,"238":-3.023223638534546,"239":0.6507797241210938,"240":-0.7593955993652344,"241":0.8656548261642456,"242":1.2048135995864868,"243":2.128519296646118,"244":1.2793453931808472,"245":-3.4286580085754395,"246":1.1794555187225342,"247":-3.68338680267334,"248":1.8999515771865845,"249":2.3381526470184326,"250":-0.1296261101961136,"251":0.46351107954978943,"252":0.7683827877044678,"253":2.167908191680908,"254":3.3402302265167236,"255":1.145688772201538,"256":-2.051898717880249,"257":0.023713935166597366,"258":1.3113903999328613,"259":3.132481098175049,"260":-2.351010799407959,"261":-0.14731451869010925,"262":1.4278817176818848,"263":1.28251314163208,"264":4.292671203613281,"265":-1.9369512796401978,"266":3.781590700149536,"267":0.3724954128265381,"268":-0.94205641746521,"269":-0.9707068204879761,"270":0.6601139307022095,"271":0.4515046775341034,"272":0.7983821630477905,"273":0.8408907651901245,"274":2.256512403488159,"275":0.3221452832221985,"276":-1.9865951538085938,"277":0.40132570266723633,"278":-2.0530407428741455,"279":-1.4216790199279785,"280":1.3283097743988037,"281":0.9343525171279907,"282":2.386235475540161,"283":3.6327412128448486,"284":-1.2352129220962524,"285":-2.191612958908081,"286":0.29929882287979126,"287":-0.6857969760894775,"288":1.3091789484024048,"289":1.4147671461105347,"290":-0.5154486894607544,"291":1.7668291330337524,"292":0.10247333347797394,"293":-1.8100961446762085,"294":1.8865389823913574,"295":-0.6302955150604248,"296":0.4525637626647949,"297":-0.13995660841464996,"298":0.8317288756370544,"299":-0.1496027708053589,"300":2.137050151824951,"301":-0.9127588272094727,"302":-2.20902681350708,"303":-2.256420612335205,"304":0.041346024721860886,"305":-1.5439726114273071,"306":1.1260019540786743,"307":2.2871689796447754,"308":1.7351186275482178,"309":1.9705511331558228,"310":-2.46233868598938,"311":0.1930793821811676,"312":0.24018637835979462,"313":0.630823016166687,"314":-0.36338233947753906,"315":-2.1994457244873047,"316":-3.0569639205932617,"317":-1.124853491783142,"318":0.09810569882392883,"319":0.8382406234741211,"320":-1.1326096057891846,"321":-2.683584451675415,"322":3.526108741760254,"323":2.473262071609497,"324":0.8415767550468445,"325":-1.0018593072891235,"326":-1.5085161924362183,"327":-0.168187215924263,"328":0.2691044807434082,"329":-0.4660697877407074,"330":-1.969580054283142,"331":0.05877773091197014,"332":-1.6578278541564941,"333":2.5356533527374268,"334":0.5667789578437805,"335":4.434354305267334,"336":-4.447722434997559,"337":3.6801559925079346,"338":0.5003705620765686,"339":-0.879069983959198,"340":-0.23234282433986664,"341":0.7118293046951294,"342":0.6041371822357178,"343":2.1049258708953857,"344":-1.6589434146881104,"345":2.0520365238189697,"346":0.6758624911308289,"347":-0.4905923902988434,"348":-1.0645445585250854,"349":1.1673774719238281,"350":2.0901191234588623,"351":2.4723799228668213,"352":-2.079577684402466,"353":-1.6098350286483765,"354":-0.3726457953453064,"355":-0.909410297870636,"356":-4.4828290939331055,"357":1.5018501281738281,"358":-0.8060222268104553,"359":1.8593151569366455,"360":2.7154085636138916,"361":1.8448988199234009,"362":-2.060708999633789,"363":0.8808779716491699,"364":-3.322124719619751,"365":0.3060399889945984,"366":0.3989902138710022,"367":-2.8686866760253906,"368":-0.5975246429443359,"369":0.5731235146522522,"370":-1.9948638677597046,"371":0.5705564618110657,"372":1.2748973369598389,"373":-0.45200783014297485,"374":1.4210814237594604,"375":-2.090994358062744,"376":-2.729236364364624,"377":1.9332963228225708,"378":0.17465472221374512,"379":1.6411086320877075,"380":-0.12452701479196548,"381":-1.2476822137832642,"382":-2.009129524230957,"383":-1.0463296175003052,"384":-2.255833864212036,"385":-2.8769917488098145,"386":1.421015739440918,"387":1.484473466873169,"388":0.7939358949661255,"389":-0.4480740427970886,"390":0.342887818813324,"391":-0.05682215467095375,"392":-0.14634521305561066,"393":-2.268714666366577,"394":1.2946991920471191,"395":-0.6064032912254333,"396":-0.5573999285697937,"397":0.9656939506530762,"398":1.8179566860198975,"399":1.3916503190994263,"400":-0.39112475514411926,"401":0.6090861558914185,"402":-2.49080228805542,"403":-0.01544895302504301,"404":0.8952528238296509,"405":0.35194331407546997,"406":3.3082189559936523,"407":2.1090188026428223,"408":1.2723634243011475,"409":0.9920309782028198,"410":0.9759663939476013,"411":1.0819238424301147,"412":2.1293327808380127,"413":0.2198369801044464,"414":0.2247408777475357,"415":-0.0770898386836052,"416":1.2945680618286133,"417":0.3493494391441345,"418":-0.9976311326026917,"419":0.5958060026168823,"420":-2.4500019550323486,"421":2.1081418991088867,"422":4.107223987579346,"423":3.1514408588409424,"424":0.7677927613258362,"425":-0.28976622223854065,"426":0.06488329917192459,"427":0.30106139183044434,"428":1.5741792917251587,"429":-1.4366881847381592,"430":1.0348379611968994,"431":-2.0425758361816406,"432":0.8696154952049255,"433":-1.6413910388946533,"434":0.5988137722015381,"435":0.8425750136375427,"436":-0.027796054258942604,"437":-0.5765043497085571,"438":0.22218036651611328,"439":0.8467254638671875,"440":-0.37907499074935913,"441":2.621936082839966,"442":1.168715476989746,"443":0.11125000566244125,"444":-3.7974510192871094,"445":-2.661430835723877,"446":-2.72147274017334,"447":-2.655301570892334,"448":-1.5927047729492188,"449":1.8384395837783813,"450":-0.672932505607605,"451":1.9180201292037964,"452":1.1011087894439697,"453":1.5566084384918213,"454":-0.7370576858520508,"455":1.080146074295044,"456":2.182094097137451,"457":0.5808472633361816,"458":-0.5860348343849182,"459":-4.408699035644531,"460":0.48416146636009216,"461":-2.00388765335083,"462":0.09687760472297668,"463":0.26896098256111145,"464":-0.013902567327022552,"465":-2.052255153656006,"466":-1.0662314891815186,"467":0.5389429926872253,"468":2.2121012210845947,"469":1.147142767906189,"470":-0.7615932822227478,"471":-0.7741332650184631,"472":1.5344027280807495,"473":-0.44575268030166626,"474":3.147918939590454,"475":2.062398672103882,"476":1.745741605758667,"477":3.2241714000701904,"478":-0.8268508911132812,"479":2.971710205078125,"480":0.9499525427818298,"481":3.734131097793579,"482":-2.072787046432495,"483":-1.6224099397659302,"484":1.421351671218872,"485":-0.27766522765159607,"486":0.33639222383499146,"487":-2.7983791828155518,"488":1.1543339490890503,"489":-0.12320969998836517,"490":0.8177998065948486,"491":-0.9965791702270508,"492":2.709446668624878,"493":-0.33778223395347595,"494":2.056731939315796,"495":-1.3713220357894897,"496":0.3882518410682678,"497":0.4286354184150696,"498":-1.7637579441070557,"499":0.836205005645752,"500":1.6866483688354492,"501":-0.2908683121204376,"502":-0.827366292476654,"503":2.1155669689178467,"504":2.260150194168091,"505":2.6680781841278076,"506":1.2072694301605225,"507":-1.6174486875534058,"508":-0.3237283527851105,"509":0.08123371750116348,"510":-3.232023000717163,"511":-1.0552648305892944,"512":-1.9344617128372192,"513":-0.8090091943740845,"514":-2.3253133296966553,"515":-2.9575905799865723,"516":0.6577333211898804,"517":-0.6455392241477966,"518":-0.8574452996253967,"519":-1.7070046663284302,"520":-2.436765670776367,"521":-0.2688823938369751,"522":0.23579822480678558,"523":-0.6135388612747192,"524":2.2797658443450928,"525":-0.811312735080719,"526":4.339675426483154,"527":0.3918398320674896,"528":2.2423102855682373,"529":-0.9007821083068848,"530":-1.5554875135421753,"531":-2.590622901916504,"532":1.745274305343628,"533":-0.016607703641057014,"534":-2.8429970741271973,"535":0.5322098135948181,"536":-2.8207690715789795,"537":-2.8724730014801025,"538":-0.7599629163742065,"539":-1.4987720251083374,"540":-0.910509467124939,"541":-0.8491552472114563,"542":-1.2217152118682861,"543":-0.1048617735505104,"544":-0.21885070204734802,"545":1.7094043493270874,"546":0.3775148093700409,"547":-3.178140878677368,"548":0.5046199560165405,"549":3.1169447898864746,"550":2.2413551807403564,"551":0.21532784402370453,"552":-0.10028425604104996,"553":1.8642349243164062,"554":-1.1800109148025513,"555":-0.04942081868648529,"556":0.20202553272247314,"557":0.8517928719520569,"558":-1.7592973709106445,"559":1.9257045984268188,"560":-1.7686690092086792,"561":-0.38459065556526184,"562":-2.85937237739563,"563":-0.7685311436653137,"564":-1.0711910724639893,"565":-1.0560944080352783,"566":1.5848264694213867,"567":-1.5442866086959839,"568":-0.9158865809440613,"569":-0.6263846755027771,"570":1.7733784914016724,"571":1.9607926607131958,"572":1.0425586700439453,"573":-1.805353045463562,"574":1.6556626558303833,"575":-2.159508228302002,"576":0.3177797794342041,"577":0.8107414245605469,"578":-2.2975473403930664,"579":1.31419038772583,"580":-0.7964057326316833,"581":1.1394917964935303,"582":4.668160915374756,"583":1.3143017292022705,"584":-1.1988120079040527,"585":3.028748035430908,"586":-1.6313692331314087,"587":-0.5061098337173462,"588":-1.6557831764221191,"589":2.436192512512207,"590":0.34070926904678345,"591":0.22675107419490814,"592":-1.1880130767822266,"593":-1.4795805215835571,"594":2.502920150756836,"595":2.4147181510925293,"596":1.098855972290039,"597":2.921663761138916,"598":-1.413296103477478,"599":-0.6445902585983276,"600":-1.6338173151016235,"601":-4.029942512512207,"602":1.596922516822815,"603":-2.369616985321045,"604":-0.635662317276001,"605":-0.42643237113952637,"606":-3.717061758041382,"607":-0.09255480021238327,"608":-1.7690057754516602,"609":2.016900062561035,"610":-2.781813859939575,"611":1.418892741203308,"612":0.01996765471994877,"613":0.5081791281700134,"614":-2.0834639072418213,"615":-0.707288384437561,"616":-2.0940561294555664,"617":1.6935131549835205,"618":-0.8421932458877563,"619":0.4713185131549835}},"inputHidden":{"rows":20,"columns":20,"weights":{"0":0.2068052887916565,"1":-0.5869479179382324,"2":-1.05890691280365,"3":-2.8198187351226807,"4":2.2052557468414307,"5":0.771449089050293,"6":-0.03504053130745888,"7":1.2766087055206299,"8":-1.4026925563812256,"9":-2.8754711151123047,"10":0.5873679518699646,"11":-0.29880058765411377,"12":-2.177774667739868,"13":1.9633374214172363,"14":-1.2664903402328491,"15":3.020772933959961,"16":0.8207581639289856,"17":-0.16795608401298523,"18":-1.1377389430999756,"19":0.9291937947273254,"20":-1.640358805656433,"21":-0.6490885615348816,"22":0.6645138263702393,"23":-2.645994186401367,"24":1.217349648475647,"25":0.07338646054267883,"26":-2.5648350715637207,"27":-1.1773935556411743,"28":1.0611051321029663,"29":0.31153643131256104,"30":-1.8610919713974,"31":0.5179341435432434,"32":0.08697578310966492,"33":-1.1508065462112427,"34":0.8063018321990967,"35":-1.2227051258087158,"36":-1.4520540237426758,"37":1.1224445104599,"38":0.8094755411148071,"39":0.6915466785430908,"40":2.7099556922912598,"41":0.27461907267570496,"42":0.6481305956840515,"43":-0.23621009290218353,"44":0.016278795897960663,"45":0.5121276378631592,"46":-0.2673291563987732,"47":-2.447713613510132,"48":1.085914134979248,"49":-0.4838370084762573,"50":1.6062533855438232,"51":-0.23064763844013214,"52":-0.4738481938838959,"53":0.053471002727746964,"54":2.0377187728881836,"55":0.05550770461559296,"56":1.105211615562439,"57":0.8401237726211548,"58":1.0914390087127686,"59":1.4377535581588745,"60":0.4266712963581085,"61":-2.4208693504333496,"62":-0.301342636346817,"63":-3.125765323638916,"64":-0.417654424905777,"65":3.4653286933898926,"66":-0.5899867415428162,"67":-1.4481267929077148,"68":-0.31220006942749023,"69":1.2824808359146118,"70":1.0693926811218262,"71":-0.565926194190979,"72":-1.0047802925109863,"73":-0.14032591879367828,"74":0.7534739971160889,"75":0.5152776837348938,"76":0.4477618634700775,"77":0.7790398597717285,"78":0.669959545135498,"79":-0.8211517930030823,"80":-0.09166469424962997,"81":-0.914784848690033,"82":0.5127407312393188,"83":-2.438735008239746,"84":3.0526857376098633,"85":-0.5206353068351746,"86":-1.4031203985214233,"87":3.3763957023620605,"88":2.5554146766662598,"89":2.0767900943756104,"90":-3.4162867069244385,"91":1.1679799556732178,"92":1.2705827951431274,"93":0.6790774464607239,"94":1.982747197151184,"95":-0.9537878632545471,"96":-2.467832088470459,"97":-1.2670072317123413,"98":-3.4034650325775146,"99":-0.7868504524230957,"100":2.309485912322998,"101":0.5602754950523376,"102":0.5858899354934692,"103":2.6576192378997803,"104":-2.056354522705078,"105":1.3625816106796265,"106":1.037800908088684,"107":-2.4568045139312744,"108":-2.013624906539917,"109":-0.9131724834442139,"110":3.026245594024658,"111":-3.253911018371582,"112":0.49067461490631104,"113":-1.2295277118682861,"114":2.0810678005218506,"115":3.2333943843841553,"116":1.0423036813735962,"117":0.030209673568606377,"118":2.995232105255127,"119":1.0827888250350952,"120":-1.2497596740722656,"121":-1.2352776527404785,"122":1.2703516483306885,"123":-0.452051043510437,"124":-0.32026776671409607,"125":2.319319248199463,"126":0.9237320423126221,"127":-3.9808132648468018,"128":-3.1519720554351807,"129":-1.2336350679397583,"130":1.395432949066162,"131":-0.976894736289978,"132":-0.9800366759300232,"133":0.09679703414440155,"134":0.7467501759529114,"135":2.5426909923553467,"136":0.9310293793678284,"137":4.144226551055908,"138":2.11460542678833,"139":0.7562769055366516,"140":4.526378631591797,"141":-1.2163522243499756,"142":2.3926351070404053,"143":3.6819913387298584,"144":-0.003377285785973072,"145":-1.72316575050354,"146":1.5539982318878174,"147":-1.2275351285934448,"148":0.7295183539390564,"149":1.1215628385543823,"150":-1.8354765176773071,"151":0.7262804508209229,"152":4.351644515991211,"153":1.4817107915878296,"154":0.3039790391921997,"155":0.25438278913497925,"156":-1.4548202753067017,"157":-1.311040997505188,"158":-3.352860689163208,"159":-2.50243878364563,"160":2.519497871398926,"161":3.550485849380493,"162":2.2856593132019043,"163":0.30221229791641235,"164":-0.9761890769004822,"165":-0.4939114451408386,"166":3.1424694061279297,"167":-0.7003872990608215,"168":-2.851155996322632,"169":1.0071467161178589,"170":1.3741310834884644,"171":1.106787919998169,"172":-1.3134469985961914,"173":2.6023709774017334,"174":1.0411467552185059,"175":2.4892590045928955,"176":-6.318772315979004,"177":2.954014301300049,"178":-0.4753527045249939,"179":-1.187743067741394,"180":1.6355936527252197,"181":2.113786458969116,"182":-0.043148331344127655,"183":-1.2479450702667236,"184":2.429532527923584,"185":-0.543748140335083,"186":-0.11353158950805664,"187":2.8510043621063232,"188":-0.05017850920557976,"189":2.44773006439209,"190":-0.47048795223236084,"191":-0.7427384853363037,"192":-1.9279284477233887,"193":-1.1314897537231445,"194":6.5804643630981445,"195":-2.191307306289673,"196":-2.86612868309021,"197":2.1211700439453125,"198":-0.12230893969535828,"199":0.7583460807800293,"200":-0.580879271030426,"201":-0.8401424884796143,"202":0.6417713165283203,"203":-0.0653657391667366,"204":-2.375631809234619,"205":-0.3166942894458771,"206":1.7748223543167114,"207":-0.3104153573513031,"208":0.03912023454904556,"209":-2.5917420387268066,"210":0.4971424341201782,"211":1.9066579341888428,"212":1.0195306539535522,"213":0.6824416518211365,"214":1.336451530456543,"215":1.986676573753357,"216":-1.6603407859802246,"217":1.2219828367233276,"218":0.2339673936367035,"219":0.8102768659591675,"220":4.726696491241455,"221":1.2041869163513184,"222":-1.8733357191085815,"223":-1.490810513496399,"224":6.130285739898682,"225":-3.439685821533203,"226":-3.025283098220825,"227":2.3796920776367188,"228":0.10496049374341965,"229":0.8903138637542725,"230":1.2039597034454346,"231":2.6422994136810303,"232":-2.5970427989959717,"233":-3.885279655456543,"234":5.091802597045898,"235":-4.746026039123535,"236":-3.0327537059783936,"237":2.580876350402832,"238":-1.0666736364364624,"239":-3.777442693710327,"240":1.374955415725708,"241":-3.0004403591156006,"242":1.2508774995803833,"243":-1.4337689876556396,"244":1.9197371006011963,"245":1.9697909355163574,"246":1.2778418064117432,"247":-3.9324424266815186,"248":-0.5832436680793762,"249":3.628762722015381,"250":0.1228950023651123,"251":-3.2625985145568848,"252":-0.48187389969825745,"253":-0.7614277601242065,"254":0.7806682586669922,"255":-0.5303053259849548,"256":1.6316986083984375,"257":0.011892861686646938,"258":3.743765115737915,"259":0.5290363430976868,"260":1.4058979749679565,"261":-1.6361815929412842,"262":0.0448131263256073,"263":-2.386622428894043,"264":1.4236029386520386,"265":5.267640590667725,"266":0.030215207487344742,"267":-0.2548311650753021,"268":-0.2248978167772293,"269":-0.0628308579325676,"270":-2.0511374473571777,"271":-1.1018463373184204,"272":-4.593918323516846,"273":0.21307191252708435,"274":0.791196346282959,"275":0.7320006489753723,"276":2.054575204849243,"277":-0.6137270331382751,"278":-1.9478263854980469,"279":-1.753422737121582,"280":4.0165815353393555,"281":-1.2321044206619263,"282":3.7989466190338135,"283":0.2262103259563446,"284":2.1116461753845215,"285":-0.6351831555366516,"286":-0.15212060511112213,"287":1.0907827615737915,"288":-0.6666417121887207,"289":2.7270212173461914,"290":-1.470272421836853,"291":-1.4926106929779053,"292":-3.5801334381103516,"293":-1.6608167886734009,"294":1.2793933153152466,"295":-0.1561383157968521,"296":0.06260045617818832,"297":-0.5581350922584534,"298":-1.8199610710144043,"299":-0.09117136895656586,"300":2.329423427581787,"301":1.2918449640274048,"302":-1.763158917427063,"303":3.5727176666259766,"304":0.6939782500267029,"305":4.218027591705322,"306":-0.6511993408203125,"307":0.5280762910842896,"308":-0.8429461121559143,"309":2.95249605178833,"310":-1.839422345161438,"311":-1.363080382347107,"312":0.4075893461704254,"313":-0.7145164608955383,"314":-2.6696577072143555,"315":1.634514570236206,"316":1.513965129852295,"317":1.0572502613067627,"318":1.089652419090271,"319":1.1991732120513916,"320":-1.677625298500061,"321":-0.894745945930481,"322":-0.39538493752479553,"323":-2.4972198009490967,"324":-4.636098861694336,"325":2.6829993724823,"326":-1.7115378379821777,"327":-3.0860021114349365,"328":1.039775013923645,"329":0.20652446150779724,"330":2.115116834640503,"331":-0.28714606165885925,"332":0.790104329586029,"333":-0.05673711746931076,"334":1.615990161895752,"335":3.3477940559387207,"336":-0.30492836236953735,"337":0.36470428109169006,"338":-0.3058028817176819,"339":-1.8070354461669922,"340":-1.6392340660095215,"341":-1.4390939474105835,"342":-2.512519121170044,"343":4.973241806030273,"344":-3.2279016971588135,"345":1.9045807123184204,"346":3.2625818252563477,"347":-1.9517344236373901,"348":1.3477734327316284,"349":-0.5538471937179565,"350":1.6570919752120972,"351":-0.3550814986228943,"352":3.5107226371765137,"353":2.4218432903289795,"354":0.11274347454309464,"355":0.6426279544830322,"356":3.274646043777466,"357":3.6335971355438232,"358":-1.4849530458450317,"359":2.393281936645508,"360":0.8328933119773865,"361":1.1467809677124023,"362":1.3840700387954712,"363":0.2942166030406952,"364":2.226935386657715,"365":4.507137298583984,"366":-1.349656581878662,"367":-1.099234938621521,"368":0.5623884201049805,"369":1.6465160846710205,"370":3.558788776397705,"371":0.013604308478534222,"372":-3.292121410369873,"373":0.3240657448768616,"374":-2.304792881011963,"375":2.6740407943725586,"376":2.762241840362549,"377":-2.195885419845581,"378":0.12936046719551086,"379":-0.39529117941856384,"380":3.204430103302002,"381":2.031216621398926,"382":0.8448196053504944,"383":2.788362741470337,"384":0.6339015364646912,"385":0.8263630867004395,"386":-0.4683656096458435,"387":-2.9020261764526367,"388":0.49917128682136536,"389":-0.10974577814340591,"390":-2.830801010131836,"391":0.5777443647384644,"392":-3.7269718647003174,"393":0.1150086522102356,"394":3.9558448791503906,"395":2.8053791522979736,"396":-4.997237682342529,"397":-1.2298016548156738,"398":-0.9498379230499268,"399":0.125545471906662}},"inputBias":{"rows":20,"columns":1,"weights":{"0":0.5076517462730408,"1":-0.2252981960773468,"2":-0.04467768967151642,"3":0.7379379868507385,"4":0.5986526608467102,"5":-0.2674602270126343,"6":1.3112138509750366,"7":-0.7904707193374634,"8":-0.044317640364170074,"9":-0.005180371459573507,"10":-0.43600594997406006,"11":2.734196424484253,"12":-0.5457663536071777,"13":5.596368789672852,"14":1.069822907447815,"15":1.4466568231582642,"16":0.46249938011169434,"17":0.8924258351325989,"18":-1.308256983757019,"19":-0.25957822799682617}},"forgetMatrix":{"rows":20,"columns":31,"weights":{"0":-0.43438777327537537,"1":-1.6637629270553589,"2":2.3811607360839844,"3":-1.6497163772583008,"4":0.4190312922000885,"5":-0.024145683273673058,"6":1.6464205980300903,"7":-2.0284109115600586,"8":-1.3727803230285645,"9":-2.5348620414733887,"10":-1.2051585912704468,"11":3.0598018169403076,"12":1.1038551330566406,"13":2.081233024597168,"14":2.485743284225464,"15":1.2557629346847534,"16":3.017385244369507,"17":-0.10761259496212006,"18":-1.5918446779251099,"19":-0.3733588457107544,"20":-0.40339595079421997,"21":0.6132503747940063,"22":-0.5541793704032898,"23":1.46924889087677,"24":2.6755483150482178,"25":-0.8593981862068176,"26":0.8866018652915955,"27":1.57277512550354,"28":-1.4615474939346313,"29":1.1876320838928223,"30":-2.9379732608795166,"31":-0.4005928039550781,"32":2.673240900039673,"33":-1.4365803003311157,"34":-2.349148750305176,"35":0.691669225692749,"36":0.3644149899482727,"37":4.939723491668701,"38":-2.3246161937713623,"39":1.1439738273620605,"40":-2.4189231395721436,"41":-0.9218534827232361,"42":4.415192604064941,"43":-0.8269929885864258,"44":-1.5856584310531616,"45":-0.22751542925834656,"46":0.5729777812957764,"47":-3.612767457962036,"48":-1.1830902099609375,"49":1.5607630014419556,"50":-0.7137648463249207,"51":-0.9171592593193054,"52":-3.7869656085968018,"53":-0.8897632360458374,"54":-0.9975723624229431,"55":-3.9179117679595947,"56":1.2295717000961304,"57":2.2554619312286377,"58":2.3738508224487305,"59":1.2830992937088013,"60":2.683499813079834,"61":1.2331242561340332,"62":0.5672816038131714,"63":3.233523368835449,"64":1.1528828144073486,"65":-0.023632070049643517,"66":-1.4072792530059814,"67":0.18751241266727448,"68":0.33890384435653687,"69":1.908408522605896,"70":-0.2132280468940735,"71":0.6426782608032227,"72":-0.1835593730211258,"73":0.45698389410972595,"74":-0.1273292601108551,"75":-0.0009757503867149353,"76":-1.5807446241378784,"77":1.5861436128616333,"78":2.7664754390716553,"79":-2.667171001434326,"80":1.1589423418045044,"81":-0.11462549865245819,"82":1.071027398109436,"83":-0.018871743232011795,"84":-0.4330618679523468,"85":-1.4395524263381958,"86":-1.3765408992767334,"87":-0.6743673086166382,"88":-0.07215475291013718,"89":-1.7729315757751465,"90":-1.1076667308807373,"91":2.200503349304199,"92":-0.07351549714803696,"93":-1.7206276655197144,"94":1.3187021017074585,"95":-2.7367184162139893,"96":0.6733691692352295,"97":-0.9789853692054749,"98":-0.720978856086731,"99":-1.3408130407333374,"100":-0.15641440451145172,"101":0.13733208179473877,"102":0.2771671712398529,"103":0.6164575815200806,"104":1.1446411609649658,"105":0.20967592298984528,"106":1.2021007537841797,"107":0.22833894193172455,"108":0.7845854759216309,"109":-3.2457516193389893,"110":1.2316757440567017,"111":-0.6692912578582764,"112":-1.6786277294158936,"113":-0.09636031836271286,"114":1.1164458990097046,"115":-1.124304175376892,"116":3.134754180908203,"117":-0.7603790760040283,"118":0.40292689204216003,"119":-1.1679339408874512,"120":2.4057953357696533,"121":1.3947951793670654,"122":-0.8670660257339478,"123":2.7027549743652344,"124":0.14105337858200073,"125":-2.5714309215545654,"126":-1.680746078491211,"127":-1.230324149131775,"128":-1.8004376888275146,"129":-1.248553991317749,"130":-0.9696406126022339,"131":-4.299990653991699,"132":-2.1416122913360596,"133":-4.092596530914307,"134":-1.5803419351577759,"135":4.48852014541626,"136":1.525282382965088,"137":2.4603216648101807,"138":2.1060502529144287,"139":0.6742725372314453,"140":-1.3097031116485596,"141":1.351576805114746,"142":-3.1303789615631104,"143":-1.636965274810791,"144":0.6306982040405273,"145":0.5485415458679199,"146":0.4722561240196228,"147":1.7080509662628174,"148":-0.06373034417629242,"149":-0.48059654235839844,"150":2.3299131393432617,"151":0.06804975122213364,"152":-1.1870973110198975,"153":0.9685630798339844,"154":1.0325119495391846,"155":-0.37767478823661804,"156":1.3117327690124512,"157":-0.7914330959320068,"158":0.5340007543563843,"159":-0.3858485221862793,"160":2.1092891693115234,"161":-1.3274585008621216,"162":-1.986156940460205,"163":-0.17361079156398773,"164":0.37701037526130676,"165":0.9165235757827759,"166":-1.637439489364624,"167":0.3833213746547699,"168":2.662886381149292,"169":-1.0152122974395752,"170":-1.05970299243927,"171":0.6109904646873474,"172":-0.9907452464103699,"173":0.3944638967514038,"174":-1.2362391948699951,"175":0.7201738953590393,"176":-0.11220808327198029,"177":0.9635157585144043,"178":0.023137632757425308,"179":3.80562686920166,"180":-0.11398322880268097,"181":-1.5238664150238037,"182":0.07092109322547913,"183":2.0803542137145996,"184":-1.0996559858322144,"185":2.2274088859558105,"186":-2.8542821407318115,"187":-0.025970328599214554,"188":-1.7965044975280762,"189":-1.420582890510559,"190":0.061829473823308945,"191":-1.5353058576583862,"192":-2.324805736541748,"193":-0.4177660346031189,"194":0.9496822953224182,"195":-0.6350536942481995,"196":-1.4547483921051025,"197":-0.01817087084054947,"198":2.7465667724609375,"199":1.8000149726867676,"200":-1.1374331712722778,"201":-0.281524658203125,"202":-3.1212282180786133,"203":2.2223002910614014,"204":-2.353132486343384,"205":-1.8548463582992554,"206":-0.031673844903707504,"207":0.10199126601219177,"208":-1.8933498859405518,"209":1.1858952045440674,"210":-1.1415667533874512,"211":-0.6290309429168701,"212":-0.5417462587356567,"213":-0.6234285235404968,"214":1.782301425933838,"215":0.25377506017684937,"216":3.75884747505188,"217":-0.6803521513938904,"218":0.8235050439834595,"219":0.6955865025520325,"220":-1.427464246749878,"221":-0.21354606747627258,"222":0.12104557454586029,"223":-2.7245757579803467,"224":-2.1140005588531494,"225":-1.5671985149383545,"226":-0.9955555200576782,"227":-0.7594248056411743,"228":2.556335926055908,"229":2.4757792949676514,"230":-1.0115092992782593,"231":2.4433226585388184,"232":1.9776753187179565,"233":1.0639104843139648,"234":2.304710626602173,"235":-2.2314393520355225,"236":2.4024839401245117,"237":-0.47152766585350037,"238":2.2607197761535645,"239":-3.147186756134033,"240":1.9756873846054077,"241":-2.941944122314453,"242":-1.5454996824264526,"243":1.0607677698135376,"244":-0.4588606059551239,"245":-0.9098859429359436,"246":0.7678999304771423,"247":-1.5810964107513428,"248":1.5236698389053345,"249":-1.6850446462631226,"250":-0.6848469972610474,"251":-1.3982537984848022,"252":-1.135134220123291,"253":0.8712601065635681,"254":-0.14881742000579834,"255":-0.18918848037719727,"256":0.024175111204385757,"257":-1.6506820917129517,"258":-0.35923969745635986,"259":0.4479142129421234,"260":-0.13422729074954987,"261":3.0472567081451416,"262":1.5101076364517212,"263":-1.4716386795043945,"264":-0.8242422342300415,"265":2.6138956546783447,"266":1.5356535911560059,"267":3.5728518962860107,"268":-1.6248879432678223,"269":2.6551289558410645,"270":0.3898039758205414,"271":1.4845143556594849,"272":3.3187966346740723,"273":1.8219584226608276,"274":-1.095469355583191,"275":0.8655990958213806,"276":-2.3317670822143555,"277":1.6810181140899658,"278":-0.2458682358264923,"279":-1.3605307340621948,"280":-0.037880878895521164,"281":0.47016534209251404,"282":-2.624760389328003,"283":-1.2739098072052002,"284":0.9071174263954163,"285":-0.7333842515945435,"286":-0.288618266582489,"287":0.2386581003665924,"288":-3.1450130939483643,"289":-2.3054301738739014,"290":-0.6046979427337646,"291":-0.789807915687561,"292":-0.3752799928188324,"293":-0.34324508905410767,"294":-1.3004279136657715,"295":-2.181924819946289,"296":-0.8807805180549622,"297":-0.21754665672779083,"298":-1.774994969367981,"299":0.33904340863227844,"300":-1.392229676246643,"301":0.7159666419029236,"302":-0.6548771262168884,"303":0.8308411836624146,"304":-1.9291599988937378,"305":2.555398941040039,"306":-1.3002504110336304,"307":0.032354261726140976,"308":-2.2619221210479736,"309":-2.1351964473724365,"310":1.322549819946289,"311":1.3965946435928345,"312":-1.75546395778656,"313":-3.73232102394104,"314":-2.5024962425231934,"315":-0.26166829466819763,"316":-0.7662291526794434,"317":-2.0523829460144043,"318":2.267467498779297,"319":-1.606423020362854,"320":-3.425199270248413,"321":-2.7262043952941895,"322":0.24923981726169586,"323":-1.1071507930755615,"324":-2.4531631469726562,"325":-0.3862321078777313,"326":1.1418133974075317,"327":-1.1477628946304321,"328":1.7368930578231812,"329":-1.7725541591644287,"330":-0.4501137435436249,"331":1.9881658554077148,"332":-0.4336800277233124,"333":0.06654978543519974,"334":-2.2594258785247803,"335":-0.28884100914001465,"336":2.6230123043060303,"337":0.17086361348628998,"338":-1.5783370733261108,"339":-0.44435203075408936,"340":-0.3152797818183899,"341":-0.7470311522483826,"342":-2.8509409427642822,"343":0.9270055890083313,"344":-1.5779049396514893,"345":0.9748831987380981,"346":0.4695416986942291,"347":0.33455711603164673,"348":-0.6102171540260315,"349":1.197784423828125,"350":-0.25435754656791687,"351":1.3170400857925415,"352":-3.3352041244506836,"353":-0.05622326582670212,"354":1.5930336713790894,"355":0.6101412177085876,"356":-3.225372791290283,"357":-2.877092123031616,"358":1.5359418392181396,"359":-0.9411953091621399,"360":4.209895133972168,"361":-0.25068408250808716,"362":-1.888650894165039,"363":1.038546085357666,"364":-1.287284255027771,"365":0.560917854309082,"366":-0.26968562602996826,"367":-2.962775707244873,"368":0.4999687075614929,"369":2.4873790740966797,"370":-1.0627237558364868,"371":1.9409923553466797,"372":-0.8470768332481384,"373":0.017088014632463455,"374":-0.8104419112205505,"375":1.59149968624115,"376":0.5846584439277649,"377":-0.14869412779808044,"378":-1.6702942848205566,"379":1.049295425415039,"380":1.5570368766784668,"381":1.3896379470825195,"382":0.9322291612625122,"383":-1.2691876888275146,"384":0.04350142553448677,"385":0.3920494019985199,"386":0.5731510519981384,"387":-1.5862582921981812,"388":0.31065264344215393,"389":-1.1248869895935059,"390":1.769670009613037,"391":1.5253492593765259,"392":-0.7096900939941406,"393":-0.43596524000167847,"394":0.028977718204259872,"395":-0.20461829006671906,"396":0.055035024881362915,"397":-0.11953806132078171,"398":-2.0911753177642822,"399":1.38246750831604,"400":1.9811104536056519,"401":-0.5539360642433167,"402":1.149131178855896,"403":-0.9181028008460999,"404":0.7203509211540222,"405":0.5798298716545105,"406":2.7854018211364746,"407":-0.05568770319223404,"408":-1.0503323078155518,"409":-1.1324419975280762,"410":1.18850576877594,"411":0.46594157814979553,"412":3.085315465927124,"413":3.1247241497039795,"414":-0.7738974094390869,"415":1.0939970016479492,"416":0.6235401034355164,"417":-0.32738590240478516,"418":-0.06677739322185516,"419":2.6720995903015137,"420":-1.7697941064834595,"421":1.8017669916152954,"422":1.831991195678711,"423":-0.37040406465530396,"424":-0.20289671421051025,"425":-0.6428754329681396,"426":-1.716359257698059,"427":0.9165322184562683,"428":0.22087855637073517,"429":-2.058408498764038,"430":0.9915086627006531,"431":0.02363152615725994,"432":-0.11584050953388214,"433":0.846787691116333,"434":-0.7596037983894348,"435":0.020707491785287857,"436":-1.8684593439102173,"437":-1.4020135402679443,"438":-0.5064529180526733,"439":-0.6190183758735657,"440":-0.8590220808982849,"441":0.6318491101264954,"442":1.5818910598754883,"443":-0.9928832054138184,"444":-0.06004469096660614,"445":0.7963187098503113,"446":-0.13046683371067047,"447":-1.1203454732894897,"448":-2.4586164951324463,"449":-0.149386465549469,"450":-2.961313486099243,"451":1.684585690498352,"452":-0.3194229304790497,"453":-1.6966803073883057,"454":-1.4017612934112549,"455":0.23299793899059296,"456":-0.3751530051231384,"457":3.4425504207611084,"458":-1.8199598789215088,"459":0.14812417328357697,"460":-1.0799528360366821,"461":0.27024045586586,"462":0.9245970845222473,"463":0.09032444655895233,"464":1.4722199440002441,"465":-0.3396525979042053,"466":1.3956162929534912,"467":0.8854991793632507,"468":-1.0559570789337158,"469":-1.2341392040252686,"470":-0.2482021600008011,"471":-0.2548578679561615,"472":-0.13324901461601257,"473":2.104201555252075,"474":0.880936861038208,"475":-0.6651595234870911,"476":1.17274808883667,"477":0.8049006462097168,"478":-4.381211280822754,"479":-1.45899498462677,"480":3.1686208248138428,"481":-1.6205147504806519,"482":-0.2509400546550751,"483":-1.9151772260665894,"484":-1.088541030883789,"485":-0.8897897601127625,"486":-1.214558720588684,"487":-0.7032789587974548,"488":0.6327275037765503,"489":-3.6467392444610596,"490":-0.5157038569450378,"491":1.6642194986343384,"492":0.7642987370491028,"493":0.7700423002243042,"494":3.71005916595459,"495":4.027303695678711,"496":-1.902319312095642,"497":-1.5284017324447632,"498":1.9434189796447754,"499":2.6931259632110596,"500":0.6260085701942444,"501":-1.7673497200012207,"502":-1.0644489526748657,"503":0.40752607583999634,"504":-1.4322317838668823,"505":1.8331621885299683,"506":2.2724733352661133,"507":-0.5569846630096436,"508":4.578531742095947,"509":0.7871562242507935,"510":1.059302568435669,"511":0.5063688158988953,"512":-0.5329226851463318,"513":0.8472792506217957,"514":-2.0213449001312256,"515":3.3394176959991455,"516":-2.4946353435516357,"517":1.4616451263427734,"518":-3.46878719329834,"519":-0.14828479290008545,"520":-0.9473451375961304,"521":2.5659492015838623,"522":-1.634696125984192,"523":2.8275203704833984,"524":-0.9869374632835388,"525":-0.46700817346572876,"526":-0.7699143290519714,"527":1.6082007884979248,"528":-0.6295225620269775,"529":1.773892879486084,"530":-2.3304598331451416,"531":-0.4438900947570801,"532":0.051959212869405746,"533":1.6490100622177124,"534":-3.5883595943450928,"535":-1.5231406688690186,"536":-2.290400266647339,"537":-2.3601202964782715,"538":2.3628621101379395,"539":1.6332143545150757,"540":-0.7189064025878906,"541":1.785295844078064,"542":-0.30086323618888855,"543":-0.6561805009841919,"544":-2.1280951499938965,"545":0.39626258611679077,"546":-0.5400822162628174,"547":2.0157971382141113,"548":-1.1439945697784424,"549":-1.1374527215957642,"550":0.37599244713783264,"551":-0.48724618554115295,"552":0.5157918930053711,"553":0.8423313498497009,"554":-2.3841028213500977,"555":-1.2974052429199219,"556":-0.9870981574058533,"557":-1.9506402015686035,"558":2.0955405235290527,"559":-0.7146238088607788,"560":0.1408652812242508,"561":-1.3599152565002441,"562":-1.3784235715866089,"563":1.6549972295761108,"564":1.5067964792251587,"565":-2.729757785797119,"566":-2.8238155841827393,"567":-1.7249056100845337,"568":-0.10363191366195679,"569":1.8426496982574463,"570":1.3350766897201538,"571":2.0513389110565186,"572":1.1325688362121582,"573":1.1552541255950928,"574":0.5129961371421814,"575":-1.3527580499649048,"576":0.638184666633606,"577":2.649416208267212,"578":0.02102740667760372,"579":-1.6749029159545898,"580":-1.9673165082931519,"581":1.254413366317749,"582":0.3941190838813782,"583":1.5392688512802124,"584":1.2620164155960083,"585":1.1790903806686401,"586":-3.7164804935455322,"587":-1.3960274457931519,"588":-3.6143221855163574,"589":0.9233214259147644,"590":-1.6700735092163086,"591":-0.1344532072544098,"592":-3.7034499645233154,"593":-4.311334133148193,"594":1.9967817068099976,"595":2.090033769607544,"596":0.35216379165649414,"597":2.4713706970214844,"598":-1.0216463804244995,"599":-1.9494584798812866,"600":1.4960254430770874,"601":-0.2732357382774353,"602":-3.955873489379883,"603":-1.0766682624816895,"604":-1.0309146642684937,"605":-0.6584087610244751,"606":-0.39847296476364136,"607":-0.6538745164871216,"608":-1.0348385572433472,"609":-1.9486814737319946,"610":0.88636314868927,"611":-1.6905863285064697,"612":1.5426812171936035,"613":-3.3311402797698975,"614":-0.7891950011253357,"615":1.2296961545944214,"616":-1.0002013444900513,"617":-2.2075421810150146,"618":0.4310343265533447,"619":-0.7212042212486267}},"forgetHidden":{"rows":20,"columns":20,"weights":{"0":-0.6905043721199036,"1":-3.831984519958496,"2":-1.918582558631897,"3":0.553308367729187,"4":-2.1501314640045166,"5":1.7200690507888794,"6":-0.003904071170836687,"7":2.3035824298858643,"8":-0.8237271308898926,"9":1.238866925239563,"10":0.6187941431999207,"11":3.763697862625122,"12":0.4625599682331085,"13":-3.6293962001800537,"14":-0.42044171690940857,"15":1.218879222869873,"16":0.3940216898918152,"17":-3.7779104709625244,"18":-3.787088632583618,"19":1.638659119606018,"20":2.5232982635498047,"21":2.459073781967163,"22":1.0644053220748901,"23":5.4098381996154785,"24":-0.7391360998153687,"25":-1.712179183959961,"26":0.9107425808906555,"27":1.5771503448486328,"28":-1.8063453435897827,"29":4.636380195617676,"30":-1.3041434288024902,"31":-3.859731435775757,"32":1.658096194267273,"33":-1.0029982328414917,"34":-2.312774658203125,"35":-0.30726075172424316,"36":0.19940073788166046,"37":2.5403175354003906,"38":-2.134026288986206,"39":-0.04319434240460396,"40":0.6760230660438538,"41":0.8261616230010986,"42":-0.7724847197532654,"43":-0.027912428602576256,"44":-0.8153054118156433,"45":-1.115127682685852,"46":3.2686562538146973,"47":-1.0097962617874146,"48":-0.8404079675674438,"49":-1.9168497323989868,"50":2.391411066055298,"51":0.980699896812439,"52":1.7674031257629395,"53":0.4705880582332611,"54":-0.6842349767684937,"55":-0.6408547759056091,"56":-0.7409670948982239,"57":-0.5657660961151123,"58":2.2804415225982666,"59":-0.9222540259361267,"60":2.0950872898101807,"61":-1.8618088960647583,"62":0.6395461559295654,"63":-2.1353869438171387,"64":-0.4728972613811493,"65":0.44339534640312195,"66":0.1512552797794342,"67":-1.269597053527832,"68":-1.2117276191711426,"69":2.749479293823242,"70":-0.21877619624137878,"71":-1.5191963911056519,"72":-1.1622775793075562,"73":-0.2671428620815277,"74":0.5422521233558655,"75":0.5143323540687561,"76":-0.5988067984580994,"77":0.9231427907943726,"78":0.0010368674993515015,"79":0.7735891342163086,"80":0.9960087537765503,"81":-0.8104842305183411,"82":0.12463531643152237,"83":2.305858850479126,"84":-0.010087469592690468,"85":-2.6768319606781006,"86":0.07272031158208847,"87":1.3404117822647095,"88":0.6754360795021057,"89":-1.4903639554977417,"90":0.20871268212795258,"91":0.05231216177344322,"92":0.9268888235092163,"93":0.8282031416893005,"94":-1.3586746454238892,"95":-0.3532462418079376,"96":-0.9264865517616272,"97":0.4277978241443634,"98":-1.10163152217865,"99":-1.3626347780227661,"100":-0.2855915427207947,"101":-1.7104636430740356,"102":1.3211125135421753,"103":-0.5712839961051941,"104":-0.35387787222862244,"105":-0.6083624362945557,"106":1.142198085784912,"107":0.8311465978622437,"108":0.9242466688156128,"109":2.2929861545562744,"110":-0.7250884771347046,"111":0.6949213743209839,"112":0.1810801923274994,"113":0.17320536077022552,"114":0.3445385694503784,"115":-1.5850870609283447,"116":-0.1696493923664093,"117":1.682254672050476,"118":1.059243083000183,"119":-1.1350535154342651,"120":-4.917930603027344,"121":-1.5600303411483765,"122":-1.7646331787109375,"123":-5.4903035163879395,"124":2.9289181232452393,"125":1.8805515766143799,"126":0.15251825749874115,"127":4.003281116485596,"128":-1.4435251951217651,"129":-3.861421585083008,"130":-0.05977024510502815,"131":1.7280209064483643,"132":2.897657871246338,"133":0.8405572175979614,"134":-3.566805362701416,"135":-2.556471824645996,"136":2.541323661804199,"137":-1.5939041376113892,"138":0.342753142118454,"139":-2.075634002685547,"140":-0.0800408273935318,"141":0.5105262398719788,"142":0.47211718559265137,"143":1.514396071434021,"144":2.2801461219787598,"145":-4.040865421295166,"146":-1.601255178451538,"147":-0.9998573660850525,"148":1.185588002204895,"149":3.2656595706939697,"150":-1.5284605026245117,"151":1.365303635597229,"152":-0.8358929753303528,"153":0.2542855441570282,"154":0.6984698176383972,"155":0.11985745280981064,"156":-0.8732266426086426,"157":-1.6288312673568726,"158":-2.6409521102905273,"159":-3.8579986095428467,"160":2.011746883392334,"161":2.0333139896392822,"162":0.09456442296504974,"163":-0.8804852962493896,"164":-3.467844009399414,"165":-6.529428482055664,"166":-0.660425066947937,"167":-4.212031364440918,"168":3.726425886154175,"169":-1.620866298675537,"170":-5.085249900817871,"171":0.7848450541496277,"172":1.4222975969314575,"173":-4.183567047119141,"174":-0.193758025765419,"175":-3.5576562881469727,"176":3.179173707962036,"177":-0.03329892084002495,"178":2.612037181854248,"179":-2.1210970878601074,"180":1.1598716974258423,"181":-2.759228229522705,"182":0.9494220018386841,"183":1.2190346717834473,"184":0.7098245620727539,"185":-0.6363953351974487,"186":4.524638652801514,"187":0.4198249876499176,"188":-3.9064009189605713,"189":2.1099867820739746,"190":3.588499069213867,"191":-3.4248626232147217,"192":-1.9701074361801147,"193":-0.08427039533853531,"194":-0.9286565184593201,"195":5.095935821533203,"196":0.4056837260723114,"197":-0.6632605791091919,"198":-4.82092809677124,"199":2.62370228767395,"200":1.1747031211853027,"201":-0.7685596942901611,"202":0.6887575387954712,"203":-0.4506169259548187,"204":0.5751345753669739,"205":-3.144066572189331,"206":-1.03275728225708,"207":1.0622913837432861,"208":3.086951971054077,"209":-1.9656202793121338,"210":-1.914552092552185,"211":3.030566930770874,"212":-1.5161869525909424,"213":2.157107353210449,"214":0.4515179991722107,"215":-0.8256790041923523,"216":-2.3851871490478516,"217":-1.7988290786743164,"218":-1.1979106664657593,"219":-1.9940409660339355,"220":-0.7592512369155884,"221":2.3412039279937744,"222":-0.9335471987724304,"223":0.14668697118759155,"224":0.6272032260894775,"225":1.0532982349395752,"226":-3.175651788711548,"227":1.3949029445648193,"228":-1.9377461671829224,"229":-0.20099395513534546,"230":0.28806909918785095,"231":2.5111186504364014,"232":-3.1888177394866943,"233":-1.1147994995117188,"234":4.664283752441406,"235":-1.2773234844207764,"236":4.63642692565918,"237":0.6669532656669617,"238":-0.08555872738361359,"239":-0.3395135998725891,"240":-3.293100595474243,"241":-0.8301544785499573,"242":-3.6898107528686523,"243":-1.9690319299697876,"244":0.5341463685035706,"245":0.6582348942756653,"246":-2.4743428230285645,"247":2.284193277359009,"248":2.5437285900115967,"249":-2.098752021789551,"250":-1.5363519191741943,"251":1.8184396028518677,"252":0.09131310880184174,"253":-2.4124481678009033,"254":0.12171240150928497,"255":-1.673467993736267,"256":-1.3194639682769775,"257":1.5203739404678345,"258":0.24402308464050293,"259":-1.7660099267959595,"260":-0.5129654407501221,"261":-0.6310266256332397,"262":-2.0568673610687256,"263":-0.36890244483947754,"264":0.8477306962013245,"265":2.456028938293457,"266":0.5492767095565796,"267":0.3613521456718445,"268":-0.12195191532373428,"269":0.0539981871843338,"270":-0.5678471326828003,"271":-0.19491684436798096,"272":-0.5444275736808777,"273":0.5162039995193481,"274":2.384174108505249,"275":2.3350062370300293,"276":-0.31679749488830566,"277":-0.7380380630493164,"278":-0.397247850894928,"279":-0.8100353479385376,"280":-0.05038908123970032,"281":0.10455010086297989,"282":0.15868884325027466,"283":1.4332215785980225,"284":-2.357038974761963,"285":0.8283158540725708,"286":1.8267967700958252,"287":-0.2553507089614868,"288":-1.8897123336791992,"289":-1.0374047756195068,"290":1.2579177618026733,"291":-1.442246913909912,"292":1.0150362253189087,"293":0.6954831480979919,"294":-1.87503981590271,"295":0.4307419955730438,"296":-0.033202074468135834,"297":0.9317273497581482,"298":0.06819887459278107,"299":0.7847426533699036,"300":0.16366824507713318,"301":0.6383817195892334,"302":-3.1343905925750732,"303":-3.690962076187134,"304":-0.6793358325958252,"305":0.5051955580711365,"306":0.8371579051017761,"307":-1.1383627653121948,"308":-0.9487813115119934,"309":3.162381410598755,"310":1.6331442594528198,"311":0.3005087077617645,"312":4.449047565460205,"313":-1.6272867918014526,"314":-1.3022575378417969,"315":1.2326536178588867,"316":-2.91469669342041,"317":-1.4613021612167358,"318":0.2778538763523102,"319":-0.5346739292144775,"320":6.866562843322754,"321":1.5268356800079346,"322":1.6095701456069946,"323":2.220235586166382,"324":2.870000123977661,"325":-2.453979253768921,"326":1.8818206787109375,"327":-1.5368760824203491,"328":0.5292199850082397,"329":1.6914074420928955,"330":-0.07111142575740814,"331":-0.6431640386581421,"332":0.44619840383529663,"333":-1.9839974641799927,"334":-2.5512313842773438,"335":-1.0694258213043213,"336":-0.4372220039367676,"337":0.8502147197723389,"338":-0.541698157787323,"339":-1.5044276714324951,"340":-2.062535047531128,"341":-2.057398796081543,"342":-1.353144884109497,"343":1.0096757411956787,"344":-0.062384601682424545,"345":0.38485831022262573,"346":0.5794742703437805,"347":0.19127731025218964,"348":-1.3512494564056396,"349":0.6490941047668457,"350":-0.19900740683078766,"351":-0.25688257813453674,"352":-0.9148445725440979,"353":0.7718256115913391,"354":-0.03739453852176666,"355":0.10661064833402634,"356":2.0184953212738037,"357":-1.2923657894134521,"358":-0.7798976302146912,"359":0.01756982132792473,"360":-0.09541407227516174,"361":-3.537421464920044,"362":1.372459888458252,"363":-0.23443973064422607,"364":-1.5572949647903442,"365":-0.3585757315158844,"366":0.3052619695663452,"367":2.5582327842712402,"368":-0.44724252820014954,"369":3.1899962425231934,"370":2.037156820297241,"371":0.17685267329216003,"372":1.2820178270339966,"373":0.19325566291809082,"374":0.15711195766925812,"375":0.012972411699593067,"376":-3.544159173965454,"377":-0.6039035320281982,"378":-1.808196783065796,"379":0.17274987697601318,"380":0.42774850130081177,"381":2.406606435775757,"382":3.567091941833496,"383":0.12609335780143738,"384":-0.13250938057899475,"385":-2.001469850540161,"386":2.2031443119049072,"387":-1.4664595127105713,"388":-4.401484489440918,"389":0.44510865211486816,"390":0.6093406677246094,"391":-2.474452018737793,"392":1.9895319938659668,"393":-1.48100745677948,"394":0.5638364553451538,"395":0.927066445350647,"396":2.6638197898864746,"397":-1.8768292665481567,"398":0.7101240158081055,"399":2.4608371257781982}},"forgetBias":{"rows":20,"columns":1,"weights":{"0":0,"1":0,"2":0,"3":0,"4":0,"5":0,"6":0,"7":0,"8":0,"9":0,"10":0,"11":0,"12":0,"13":0,"14":0,"15":0,"16":0,"17":0,"18":0,"19":0}},"outputMatrix":{"rows":20,"columns":31,"weights":{"0":0.493895560503006,"1":0.19253970682621002,"2":0.9453657269477844,"3":1.1196486949920654,"4":1.442076563835144,"5":-3.382399797439575,"6":-1.9576226472854614,"7":-3.948029041290283,"8":0.5769653916358948,"9":1.0183316469192505,"10":2.160672187805176,"11":-0.12754715979099274,"12":4.834096431732178,"13":0.06081794574856758,"14":0.35214051604270935,"15":-2.126451253890991,"16":-0.5477927923202515,"17":-0.13436859846115112,"18":-0.5592496991157532,"19":0.5834932923316956,"20":-2.9797918796539307,"21":1.6320160627365112,"22":-2.4350578784942627,"23":-0.8734422922134399,"24":-0.7835395932197571,"25":2.7737531661987305,"26":-1.685105323791504,"27":1.8230562210083008,"28":-0.5517206788063049,"29":-0.3621816635131836,"30":0.08026368916034698,"31":0.7741438746452332,"32":3.0122649669647217,"33":-3.467752456665039,"34":0.813837468624115,"35":-0.9236670136451721,"36":-0.7928034067153931,"37":-5.738439083099365,"38":1.6503989696502686,"39":0.13448935747146606,"40":3.167287826538086,"41":-0.22926710546016693,"42":-3.2143354415893555,"43":-1.9634793996810913,"44":-1.0789222717285156,"45":-4.939414024353027,"46":-1.0735443830490112,"47":-0.9980539083480835,"48":-0.5365634560585022,"49":0.46595698595046997,"50":-2.925236225128174,"51":1.7013009786605835,"52":1.5416220426559448,"53":-1.6314058303833008,"54":-0.6778619885444641,"55":0.5485272407531738,"56":-1.491674780845642,"57":0.40154069662094116,"58":-0.8275570273399353,"59":3.699371337890625,"60":0.9776579141616821,"61":6.776210308074951,"62":3.5816190242767334,"63":-1.2621515989303589,"64":0.8463723063468933,"65":-0.012733119539916515,"66":0.5021923184394836,"67":0.9371101260185242,"68":2.5610668659210205,"69":1.6953920125961304,"70":0.2211497724056244,"71":0.41515105962753296,"72":-0.8602780699729919,"73":1.421650767326355,"74":-1.8961514234542847,"75":-2.044146776199341,"76":1.252440333366394,"77":-0.5668279528617859,"78":-0.33858805894851685,"79":-3.777089834213257,"80":0.4736187160015106,"81":-0.4264845550060272,"82":2.7503185272216797,"83":-3.008396863937378,"84":3.4042000770568848,"85":-0.009781044907867908,"86":-1.3924205303192139,"87":0.07834624499082565,"88":1.0689080953598022,"89":0.23776069283485413,"90":-0.42590007185935974,"91":0.9417920112609863,"92":-1.133630633354187,"93":-1.2572065591812134,"94":-4.236155986785889,"95":3.211090087890625,"96":-1.2345008850097656,"97":0.6075060963630676,"98":-0.934232234954834,"99":0.5033071637153625,"100":-1.376781940460205,"101":-0.6106979846954346,"102":-4.465198516845703,"103":-2.115797996520996,"104":2.865145206451416,"105":-0.04848869889974594,"106":-2.2511608600616455,"107":0.6623221635818481,"108":1.9499143362045288,"109":-0.22540386021137238,"110":-0.3573339581489563,"111":-1.66762375831604,"112":1.2991163730621338,"113":2.8418936729431152,"114":-3.6141414642333984,"115":1.923055648803711,"116":1.151373267173767,"117":-0.5829058289527893,"118":-3.168182611465454,"119":2.8352935314178467,"120":-1.5117371082305908,"121":-1.1028660535812378,"122":1.760414958000183,"123":-0.042844951152801514,"124":0.8575077652931213,"125":0.16962310671806335,"126":1.6023844480514526,"127":-0.1462879329919815,"128":-0.13551318645477295,"129":3.1653432846069336,"130":1.5309317111968994,"131":0.9436078071594238,"132":0.2705560624599457,"133":-1.8122810125350952,"134":-1.5707669258117676,"135":-1.5299302339553833,"136":-2.2028887271881104,"137":-0.197503462433815,"138":-0.4862763285636902,"139":-2.95487904548645,"140":0.8742834329605103,"141":-0.4111967086791992,"142":3.487480640411377,"143":1.2673976421356201,"144":-0.8260847330093384,"145":-1.2559016942977905,"146":0.841366171836853,"147":-0.7009739279747009,"148":1.9725050926208496,"149":0.1562137007713318,"150":0.9693495631217957,"151":-2.818587303161621,"152":0.8017676472663879,"153":-3.4298954010009766,"154":-0.4839150309562683,"155":2.5321576595306396,"156":-0.14592163264751434,"157":0.2380998134613037,"158":-1.3791816234588623,"159":-1.7170289754867554,"160":0.7073073387145996,"161":0.9570043087005615,"162":1.059396743774414,"163":1.1551659107208252,"164":-0.6235737204551697,"165":-1.357463002204895,"166":3.1620726585388184,"167":-1.3682878017425537,"168":-1.2774282693862915,"169":0.10623175650835037,"170":-0.1471586525440216,"171":0.8472470641136169,"172":-0.6600238084793091,"173":1.35239839553833,"174":-3.153898000717163,"175":1.9859157800674438,"176":-2.4175896644592285,"177":2.3971498012542725,"178":-0.37310990691185,"179":0.3729057013988495,"180":-1.0767760276794434,"181":0.6040114760398865,"182":-2.1100666522979736,"183":-0.8267877697944641,"184":0.3995533883571625,"185":-1.0139150619506836,"186":0.41823840141296387,"187":-0.3947657644748688,"188":2.1258864402770996,"189":-0.20661361515522003,"190":1.0778377056121826,"191":0.6480665802955627,"192":0.4669603407382965,"193":1.5042742490768433,"194":-5.601144313812256,"195":0.15668968856334686,"196":0.7629501223564148,"197":-1.121322751045227,"198":0.1725769340991974,"199":2.976553440093994,"200":2.1032586097717285,"201":0.8240405321121216,"202":2.9584474563598633,"203":-0.0514388233423233,"204":-1.3332850933074951,"205":2.076190948486328,"206":1.801976203918457,"207":1.1077673435211182,"208":-1.4581202268600464,"209":0.05296413227915764,"210":1.3783955574035645,"211":-1.3060492277145386,"212":-1.7653722763061523,"213":-0.6120099425315857,"214":-0.2917318046092987,"215":-1.3881690502166748,"216":-0.6800481677055359,"217":-1.1529054641723633,"218":-0.3426588177680969,"219":-1.2902590036392212,"220":-1.2358595132827759,"221":1.7248870134353638,"222":-0.11326049268245697,"223":-1.6547999382019043,"224":-0.6823360919952393,"225":-1.2062221765518188,"226":-2.0910212993621826,"227":-2.619572877883911,"228":-2.3334646224975586,"229":0.32570216059684753,"230":0.9726719260215759,"231":-0.649357795715332,"232":-4.535051345825195,"233":0.5388866662979126,"234":-1.2136317491531372,"235":1.7930388450622559,"236":0.29147952795028687,"237":0.1112741008400917,"238":0.7743620276451111,"239":1.1981762647628784,"240":-0.9257438778877258,"241":1.026777744293213,"242":0.06483382731676102,"243":1.724581003189087,"244":-0.546317458152771,"245":0.043602652847766876,"246":-2.7340054512023926,"247":0.42169830203056335,"248":2.304047107696533,"249":0.19545358419418335,"250":2.077674627304077,"251":1.0074340105056763,"252":1.8808691501617432,"253":-1.7028254270553589,"254":2.576390266418457,"255":1.1750233173370361,"256":-2.5990545749664307,"257":1.2006241083145142,"258":4.632771015167236,"259":0.0273122638463974,"260":1.6234221458435059,"261":1.1949321031570435,"262":3.3519911766052246,"263":1.209204912185669,"264":-0.5268838405609131,"265":-0.6176324486732483,"266":1.181238055229187,"267":1.8553298711776733,"268":0.8687019348144531,"269":-0.6241967082023621,"270":-0.44189372658729553,"271":-1.1511869430541992,"272":-0.23746439814567566,"273":0.21133504807949066,"274":-0.9964826703071594,"275":0.7902763485908508,"276":-0.45087069272994995,"277":1.545073390007019,"278":0.10361195355653763,"279":0.8200478553771973,"280":1.5522499084472656,"281":3.4023239612579346,"282":2.422545909881592,"283":1.5326509475708008,"284":-0.7210466265678406,"285":-0.7427009344100952,"286":0.7323797941207886,"287":-0.13464297354221344,"288":4.410778522491455,"289":3.480301856994629,"290":0.19040857255458832,"291":0.6616482734680176,"292":0.2731556296348572,"293":0.747134804725647,"294":2.761138916015625,"295":-0.5037978887557983,"296":-1.1294764280319214,"297":-2.13602352142334,"298":0.6569979190826416,"299":-3.2444024085998535,"300":2.248819351196289,"301":-1.4212125539779663,"302":0.06283986568450928,"303":-0.380664587020874,"304":3.280588150024414,"305":-2.9186081886291504,"306":3.272022008895874,"307":1.3041653633117676,"308":1.5505790710449219,"309":0.23072697222232819,"310":2.507024049758911,"311":-0.20851947367191315,"312":1.2375445365905762,"313":1.573865294456482,"314":-0.04127176105976105,"315":-0.7355413436889648,"316":2.883854627609253,"317":2.059725046157837,"318":-1.8891874551773071,"319":1.8941313028335571,"320":-0.5955665707588196,"321":1.2249547243118286,"322":-0.41862353682518005,"323":-1.052504301071167,"324":2.877078056335449,"325":1.8381900787353516,"326":-2.6681885719299316,"327":-1.7642227411270142,"328":-0.4495362937450409,"329":0.04256260767579079,"330":1.274909257888794,"331":-2.7915608882904053,"332":4.917508602142334,"333":-0.12480331212282181,"334":2.7043564319610596,"335":0.757090151309967,"336":0.01843542978167534,"337":1.3343149423599243,"338":0.6040382981300354,"339":3.4085328578948975,"340":-6.15001916885376,"341":-2.0655717849731445,"342":-0.16966049373149872,"343":1.9416245222091675,"344":0.7477209568023682,"345":1.8874311447143555,"346":2.76991605758667,"347":1.681678295135498,"348":0.9433291554450989,"349":1.7357248067855835,"350":0.20370446145534515,"351":-0.6836231350898743,"352":-2.388824701309204,"353":-1.076795220375061,"354":-0.1650344431400299,"355":-2.5723938941955566,"356":1.0336134433746338,"357":4.073879718780518,"358":-3.755038022994995,"359":2.3285398483276367,"360":0.562122106552124,"361":0.4152888357639313,"362":-2.929680824279785,"363":-1.3423664569854736,"364":-3.201110363006592,"365":-1.2074207067489624,"366":-1.3556753396987915,"367":0.16637670993804932,"368":-2.7729077339172363,"369":0.5180138945579529,"370":-2.868881940841675,"371":0.7889689803123474,"372":0.9631333947181702,"373":2.274019956588745,"374":0.842803955078125,"375":0.13942520320415497,"376":-1.3231165409088135,"377":-2.621340751647949,"378":-1.659204363822937,"379":-3.0896008014678955,"380":-0.45731568336486816,"381":0.2948647439479828,"382":-1.0723059177398682,"383":-1.9870904684066772,"384":1.0210506916046143,"385":5.0377197265625,"386":-0.15823006629943848,"387":2.1958115100860596,"388":-3.9659934043884277,"389":1.0202630758285522,"390":-1.752110242843628,"391":1.5296645164489746,"392":-0.28391364216804504,"393":1.637501835823059,"394":0.14630253612995148,"395":3.59017276763916,"396":1.6422265768051147,"397":-1.8491438627243042,"398":-2.5778748989105225,"399":-1.9443833827972412,"400":2.387380361557007,"401":0.6269026398658752,"402":0.10453730076551437,"403":2.820265531539917,"404":-1.0783774852752686,"405":1.6602405309677124,"406":-0.533413827419281,"407":0.6585949063301086,"408":1.3626099824905396,"409":-0.3960258960723877,"410":1.8021929264068604,"411":-0.8424309492111206,"412":3.1096038818359375,"413":1.254918098449707,"414":-1.975980520248413,"415":-2.176400899887085,"416":-2.5385823249816895,"417":-0.6777646541595459,"418":1.1717771291732788,"419":-0.7634446024894714,"420":1.0958278179168701,"421":-0.9708960652351379,"422":-2.2377865314483643,"423":-2.4487009048461914,"424":0.845307469367981,"425":-1.7289786338806152,"426":-3.1913857460021973,"427":-0.4154701828956604,"428":2.802067995071411,"429":0.1055445447564125,"430":0.8016114830970764,"431":-0.9441983103752136,"432":-0.01789064332842827,"433":2.2569494247436523,"434":1.3903838396072388,"435":-1.1918134689331055,"436":-1.8222541809082031,"437":-0.7336881160736084,"438":-0.5040859580039978,"439":-0.7594567537307739,"440":-1.254882574081421,"441":-0.09793126583099365,"442":0.8255702257156372,"443":-1.0438190698623657,"444":-2.1969239711761475,"445":0.41023147106170654,"446":0.9676774144172668,"447":-2.1026852130889893,"448":0.4369240999221802,"449":-1.6699491739273071,"450":0.5617268085479736,"451":-0.7497533559799194,"452":0.1622084677219391,"453":0.5125493407249451,"454":0.7295929193496704,"455":-3.773550033569336,"456":2.2606594562530518,"457":-0.8747701644897461,"458":-1.0207760334014893,"459":1.3929393291473389,"460":4.062329292297363,"461":1.811753273010254,"462":-2.245575189590454,"463":-0.8330704569816589,"464":-1.0882724523544312,"465":0.08936002850532532,"466":-2.7626898288726807,"467":3.9830310344696045,"468":-2.930629014968872,"469":1.058056354522705,"470":0.3231324553489685,"471":-0.08623570203781128,"472":-2.0761969089508057,"473":-0.9327139258384705,"474":-1.7745417356491089,"475":-1.1359167098999023,"476":3.666989803314209,"477":-1.9307655096054077,"478":-0.7719329595565796,"479":2.845878839492798,"480":-0.9231691360473633,"481":1.0888944864273071,"482":0.7882722616195679,"483":-1.9084652662277222,"484":2.7788918018341064,"485":-0.7225350141525269,"486":-2.701526403427124,"487":-2.003147602081299,"488":-0.13659915328025818,"489":-0.7602593898773193,"490":-1.9120923280715942,"491":-0.8501072525978088,"492":-1.4702117443084717,"493":0.27179402112960815,"494":1.1051411628723145,"495":-0.15445730090141296,"496":1.6542270183563232,"497":-1.3179771900177002,"498":-0.0021472934167832136,"499":0.6987540125846863,"500":1.3205338716506958,"501":0.9335580468177795,"502":-0.5012204051017761,"503":3.2703113555908203,"504":-1.8436061143875122,"505":3.3213000297546387,"506":1.7720500230789185,"507":-2.6747589111328125,"508":-2.4118716716766357,"509":-0.5450800061225891,"510":0.05559290945529938,"511":-1.0254513025283813,"512":2.703856945037842,"513":-0.12961170077323914,"514":1.2655144929885864,"515":-0.5553993582725525,"516":0.13569730520248413,"517":-0.025723762810230255,"518":1.1671313047409058,"519":-3.1387641429901123,"520":-1.8494876623153687,"521":2.196241617202759,"522":-1.6457393169403076,"523":1.2482272386550903,"524":-0.6061980724334717,"525":-0.7870050668716431,"526":-1.1345282793045044,"527":1.5357906818389893,"528":0.4726814031600952,"529":0.5048510432243347,"530":-1.0480703115463257,"531":-1.0271542072296143,"532":-1.581006407737732,"533":-3.459573984146118,"534":-0.42731213569641113,"535":1.2201910018920898,"536":-1.3131963014602661,"537":-0.01773761957883835,"538":-1.0427391529083252,"539":-0.621536910533905,"540":1.822969675064087,"541":-1.7310080528259277,"542":1.3442381620407104,"543":-3.0936365127563477,"544":1.9496461153030396,"545":-1.8681957721710205,"546":1.3431106805801392,"547":-2.1830689907073975,"548":2.097414255142212,"549":-0.37492021918296814,"550":3.002746343612671,"551":0.6530264019966125,"552":-0.6587918400764465,"553":0.43655407428741455,"554":-1.4899290800094604,"555":3.295133113861084,"556":1.0585287809371948,"557":2.7403435707092285,"558":0.7243819832801819,"559":1.5589091777801514,"560":-2.6578657627105713,"561":-0.8547006249427795,"562":2.861309289932251,"563":0.17603926360607147,"564":3.5898337364196777,"565":-0.704174816608429,"566":0.3186212182044983,"567":0.22378765046596527,"568":-0.0628902018070221,"569":0.00531356455758214,"570":-0.4955591559410095,"571":3.447946071624756,"572":-3.1359424591064453,"573":-0.5223572850227356,"574":1.5951058864593506,"575":-1.115365743637085,"576":2.041386365890503,"577":-2.286513566970825,"578":0.03941680118441582,"579":-0.7723461389541626,"580":0.6945480704307556,"581":-2.712924003601074,"582":-1.76869535446167,"583":3.4209601879119873,"584":2.882533550262451,"585":1.2238640785217285,"586":-1.5222716331481934,"587":-0.12992168962955475,"588":1.4588977098464966,"589":1.0754650831222534,"590":3.9175257682800293,"591":0.8043780326843262,"592":2.539614677429199,"593":0.44313812255859375,"594":1.1948620080947876,"595":4.317723751068115,"596":2.000272512435913,"597":-2.3487915992736816,"598":-0.09239758551120758,"599":-0.2364172637462616,"600":-0.4314662218093872,"601":1.355944275856018,"602":-0.07850408554077148,"603":2.5835776329040527,"604":-0.25967177748680115,"605":2.416822910308838,"606":-1.7359061241149902,"607":2.793217658996582,"608":1.8487160205841064,"609":2.2314035892486572,"610":0.11482749134302139,"611":-0.5126001238822937,"612":0.8331508636474609,"613":0.5963307619094849,"614":1.0701181888580322,"615":0.4103715121746063,"616":1.1962502002716064,"617":-0.025736020877957344,"618":-0.8663925528526306,"619":-0.27843573689460754}},"outputHidden":{"rows":20,"columns":20,"weights":{"0":1.8929413557052612,"1":-5.644664287567139,"2":-1.6127325296401978,"3":-1.0787591934204102,"4":0.9291151762008667,"5":2.5808141231536865,"6":-3.541452169418335,"7":0.4821281433105469,"8":1.178828477859497,"9":0.5174844861030579,"10":-2.9789578914642334,"11":-0.8188467025756836,"12":-0.993209183216095,"13":-4.032524585723877,"14":2.7277517318725586,"15":-2.9807252883911133,"16":2.3129308223724365,"17":0.41412898898124695,"18":-2.3546082973480225,"19":0.31588050723075867,"20":1.4149384498596191,"21":2.5365099906921387,"22":-5.305403709411621,"23":-5.237705230712891,"24":1.673215627670288,"25":0.928092360496521,"26":-1.7096017599105835,"27":1.5528777837753296,"28":0.04389343038201332,"29":0.27399322390556335,"30":-0.20565563440322876,"31":1.5149650573730469,"32":-0.5189539194107056,"33":-2.91778302192688,"34":0.5274003148078918,"35":-1.8904238939285278,"36":-1.4393517971038818,"37":-0.8876113891601562,"38":-0.8872547149658203,"39":0.7338402271270752,"40":3.9215495586395264,"41":-1.6206938028335571,"42":0.5985320210456848,"43":1.3539100885391235,"44":-2.8949077129364014,"45":1.85701584815979,"46":-1.5341490507125854,"47":-1.9130403995513916,"48":-0.14804713428020477,"49":0.39753952622413635,"50":1.0721194744110107,"51":-0.9527438879013062,"52":0.09620187431573868,"53":0.49560314416885376,"54":-0.027200164273381233,"55":-1.2626326084136963,"56":0.4045102000236511,"57":2.571079969406128,"58":0.15105856955051422,"59":3.5604238510131836,"60":-1.1278547048568726,"61":-2.5616352558135986,"62":-1.021902084350586,"63":2.4436419010162354,"64":-1.131516695022583,"65":3.279724597930908,"66":0.3430050313472748,"67":-1.108974814414978,"68":-2.0088720321655273,"69":0.5015702843666077,"70":0.12453977018594742,"71":-1.545760154724121,"72":1.9373302459716797,"73":0.9631068706512451,"74":1.6085619926452637,"75":1.9874076843261719,"76":-4.96649694442749,"77":0.11725500226020813,"78":-1.738595962524414,"79":0.9601655602455139,"80":-0.09425561875104904,"81":-4.371150493621826,"82":4.640143871307373,"83":-1.884937047958374,"84":2.1047630310058594,"85":-2.193621873855591,"86":-3.298720359802246,"87":2.660210371017456,"88":2.349384307861328,"89":0.7146792411804199,"90":0.5185008645057678,"91":-0.4051845967769623,"92":0.6494924426078796,"93":0.8903061747550964,"94":-0.015472586266696453,"95":-3.286679267883301,"96":1.7521343231201172,"97":0.7108851075172424,"98":-1.6859982013702393,"99":-2.199977159500122,"100":1.6619925498962402,"101":3.767153024673462,"102":-1.43788743019104,"103":-1.4057062864303589,"104":2.760646343231201,"105":-1.8632465600967407,"106":-2.1744930744171143,"107":2.8016576766967773,"108":3.205742597579956,"109":1.6037486791610718,"110":-3.5133800506591797,"111":0.6852518320083618,"112":-1.0095854997634888,"113":-3.2783679962158203,"114":-0.876471757888794,"115":-2.345836877822876,"116":1.2633869647979736,"117":-0.22298742830753326,"118":2.335378885269165,"119":-2.968801736831665,"120":-3.397488832473755,"121":-2.433212995529175,"122":-3.0961647033691406,"123":-1.4130349159240723,"124":-1.0930894613265991,"125":0.8250852823257446,"126":2.0866143703460693,"127":1.7857844829559326,"128":-0.9188075661659241,"129":-0.17483054101467133,"130":0.28013721108436584,"131":1.085144281387329,"132":0.5033186674118042,"133":-4.245358943939209,"134":-1.3138208389282227,"135":1.1662660837173462,"136":2.1265289783477783,"137":-1.646782636642456,"138":-1.21353018283844,"139":-1.2789369821548462,"140":1.5894135236740112,"141":-1.7699246406555176,"142":0.7347450852394104,"143":-1.7621498107910156,"144":9.052352905273438,"145":1.078397512435913,"146":1.7093610763549805,"147":-3.693816900253296,"148":3.3719072341918945,"149":1.0058696269989014,"150":-1.702413558959961,"151":2.7859866619110107,"152":2.5971055030822754,"153":3.132113456726074,"154":-0.09127041697502136,"155":-2.311244010925293,"156":0.6653752326965332,"157":-1.435296893119812,"158":0.24184076488018036,"159":-1.9225929975509644,"160":-1.579149842262268,"161":-1.9048787355422974,"162":-1.3839153051376343,"163":-1.3060379028320312,"164":2.0188844203948975,"165":3.564647912979126,"166":0.5756821632385254,"167":0.5492342114448547,"168":1.1274309158325195,"169":-3.889389991760254,"170":-2.573155641555786,"171":3.6358296871185303,"172":-2.6126089096069336,"173":2.2620155811309814,"174":4.400482654571533,"175":0.7435091733932495,"176":-3.3098697662353516,"177":3.34529185295105,"178":-2.9165310859680176,"179":-1.9707823991775513,"180":0.01681831292808056,"181":-0.5626981854438782,"182":0.11042218655347824,"183":-2.136258125305176,"184":0.9379178881645203,"185":4.4506683349609375,"186":5.402771949768066,"187":-0.774503767490387,"188":-3.4074552059173584,"189":0.6278799176216125,"190":-2.1277949810028076,"191":-1.2855130434036255,"192":-2.4941565990448,"193":-1.6654635667800903,"194":1.1916629076004028,"195":0.2683105170726776,"196":0.3032033443450928,"197":0.04452955350279808,"198":2.6597142219543457,"199":2.9281716346740723,"200":-3.2390685081481934,"201":0.5511866807937622,"202":-0.7228133082389832,"203":-0.219416543841362,"204":-1.3637073040008545,"205":-1.3442559242248535,"206":3.7738640308380127,"207":-2.899794816970825,"208":-1.4351054430007935,"209":-2.844175338745117,"210":2.189786195755005,"211":1.1568398475646973,"212":-0.08704452961683273,"213":0.8257210850715637,"214":-1.5116631984710693,"215":-1.5347528457641602,"216":0.37667155265808105,"217":-0.5712270736694336,"218":2.0024189949035645,"219":-1.2491422891616821,"220":-0.43706467747688293,"221":0.28883275389671326,"222":0.2624789774417877,"223":1.8776812553405762,"224":2.38132643699646,"225":2.319091320037842,"226":-0.033924199640750885,"227":-1.0081156492233276,"228":0.07064111530780792,"229":0.7203547954559326,"230":-0.6424206495285034,"231":0.5984001159667969,"232":-1.1190904378890991,"233":-2.5880343914031982,"234":-0.8455756902694702,