{"type":"LSTM","options":{"inputSize":41,"inputRange":41,"hiddenLayers":[20,20],"outputSize":41,"decayRate":0.999,"smoothEps":1e-8,"regc":0.000001,"clipval":5,"maxPredictionLength":100,"dataFormatter":{"values":["Feeling good.","positive","Overall well.","Extremely happy.","I'm feeling joyful.","She is in an outstanding mood.","He is feeling inspiration","Today will be my day.","I know that I’m winner.","Yes ,I can do it, I know I can.","Tomorrow is next chance.","Henna can do it.","I like vegetables.","I'm feeling worse than ever.","negative","She seems a little distracted.","This behaviour is unacceptable.","Rober is feeling depressed.","They are feeling miserable.","Robert is in bad mood.","I'm feeling pity for m action."],"indexTable":{"F":0,"e":1,"l":2,"i":3,"n":4,"g":5," ":6,"o":7,"d":8,".":9,"p":10,"s":11,"t":12,"v":13,"O":14,"r":15,"a":16,"w":17,"E":18,"x":19,"m":20,"y":21,"h":22,"I":23,"'":24,"f":25,"j":26,"u":27,"S":28,"H":29,"T":30,"b":31,"k":32,"’":33,"Y":34,",":35,"c":36,"R":37,"stop-input":38,"start-output":39,"unrecognized":40},"characterTable":{"0":"F","1":"e","2":"l","3":"i","4":"n","5":"g","6":" ","7":"o","8":"d","9":".","10":"p","11":"s","12":"t","13":"v","14":"O","15":"r","16":"a","17":"w","18":"E","19":"x","20":"m","21":"y","22":"h","23":"I","24":"'","25":"f","26":"j","27":"u","28":"S","29":"H","30":"T","31":"b","32":"k","33":"’","34":"Y","35":",","36":"c","37":"R","38":null,"39":null,"40":null},"characters":["F","e","l","i","n","g"," ","o","d",".","p","s","t","v","O","r","a","w","E","x","m","y","h","I","'","f","j","u","S","H","T","b","k","’","Y",",","c","R","stop-input","start-output","unrecognized"],"specialIndexes":[38,39,40]}},"input":{"rows":42,"columns":41,"weights":{"0":-0.9652793407440186,"1":-0.8473924398422241,"2":-3.642965078353882,"3":-1.349676489830017,"4":2.5066630840301514,"5":-3.917890787124634,"6":-1.341275691986084,"7":-1.6283643245697021,"8":0.3152080476284027,"9":-1.8801181316375732,"10":-0.1249331682920456,"11":2.0691375732421875,"12":-1.4526175260543823,"13":0.04226599633693695,"14":-1.644102931022644,"15":1.2141203880310059,"16":0.7245338559150696,"17":-1.4504915475845337,"18":1.1953479051589966,"19":-2.6092424392700195,"20":-0.9135326743125916,"21":-2.940850257873535,"22":-0.5154196619987488,"23":0.4780718982219696,"24":-0.17996130883693695,"25":-4.516772747039795,"26":1.7417691946029663,"27":3.6788673400878906,"28":0.3469317555427551,"29":0.5399596691131592,"30":-1.0723031759262085,"31":-1.979213833808899,"32":-2.5694103240966797,"33":4.471585273742676,"34":-1.7114368677139282,"35":-1.8255360126495361,"36":-1.5071823596954346,"37":1.9233074188232422,"38":3.3596816062927246,"39":0.23933058977127075,"40":1.2522965669631958,"41":8.812989234924316,"42":15.811038970947266,"43":5.295734882354736,"44":4.141793727874756,"45":-12.880167007446289,"46":-2.13893985748291,"47":-0.45811256766319275,"48":-0.5955967903137207,"49":-11.539186477661133,"50":4.071343421936035,"51":10.077930450439453,"52":-9.1666259765625,"53":4.529277324676514,"54":-16.603395462036133,"55":18.498018264770508,"56":20.608074188232422,"57":3.2770445346832275,"58":2.319748878479004,"59":-7.156971454620361,"60":-11.045225143432617,"61":-1.218989372253418,"62":12.09166431427002,"63":-7.371047019958496,"64":6.560760498046875,"65":-3.438462972640991,"66":2.5559942722320557,"67":-1.5262451171875,"68":-8.085427284240723,"69":-23.952707290649414,"70":19.15214729309082,"71":11.334527015686035,"72":-2.2662744522094727,"73":14.863651275634766,"74":-5.747729301452637,"75":0.5427928566932678,"76":-2.5007646083831787,"77":8.781797409057617,"78":-0.7939708232879639,"79":-16.01755142211914,"80":8.959555625915527,"81":-10.311676979064941,"82":-2.3945555686950684,"83":-3.956861734390259,"84":-0.8634534478187561,"85":0.20355091989040375,"86":-2.439845323562622,"87":-0.500872790813446,"88":0.05745711177587509,"89":-0.3881322741508484,"90":-3.946441411972046,"91":-0.8425669074058533,"92":2.5990097522735596,"93":-0.4631090760231018,"94":-2.283917188644409,"95":4.384912967681885,"96":-2.6284103393554688,"97":2.732898235321045,"98":-0.4395994544029236,"99":0.22207482159137726,"100":-1.8406403064727783,"101":-0.5558604598045349,"102":1.8150628805160522,"103":0.6935333609580994,"104":-0.1591695249080658,"105":-0.8320093750953674,"106":0.14156776666641235,"107":0.25021910667419434,"108":0.6643780469894409,"109":0.9983410239219666,"110":0.008384082466363907,"111":-4.4351019859313965,"112":0.884555995464325,"113":-2.006772518157959,"114":2.5819172859191895,"115":0.49629127979278564,"116":-1.7732540369033813,"117":-0.1592160314321518,"118":-2.5420784950256348,"119":2.8799521923065186,"120":1.7891619205474854,"121":-2.164288282394409,"122":-1.2530384063720703,"123":-4.785140514373779,"124":-4.7553510665893555,"125":-3.979010581970215,"126":0.0782298892736435,"127":-6.2210235595703125,"128":-0.25860655307769775,"129":-2.334139823913574,"130":-2.098261833190918,"131":-2.7880094051361084,"132":6.399949073791504,"133":1.692845344543457,"134":-0.9467191696166992,"135":-2.923776865005493,"136":3.586618185043335,"137":-5.139867305755615,"138":-0.8518627882003784,"139":1.0695784091949463,"140":-1.3514412641525269,"141":-2.554975748062134,"142":1.7494089603424072,"143":-0.9884878993034363,"144":-4.081555366516113,"145":-2.484508514404297,"146":1.7005404233932495,"147":-1.855575680732727,"148":-4.043390274047852,"149":-2.431192636489868,"150":-0.20358271896839142,"151":2.385956048965454,"152":-6.4750213623046875,"153":0.6903299689292908,"154":-4.101269721984863,"155":1.086479663848877,"156":-1.652543544769287,"157":2.2891652584075928,"158":-2.604952573776245,"159":-1.3571635484695435,"160":-2.8400635719299316,"161":0.9983125329017639,"162":-5.112648963928223,"163":3.1021320819854736,"164":0.4161570966243744,"165":-5.584563255310059,"166":-1.7228407859802246,"167":-2.0801286697387695,"168":-1.1998623609542847,"169":-1.0572113990783691,"170":2.182328939437866,"171":1.611594557762146,"172":-1.0133697986602783,"173":-6.623716831207275,"174":-1.1548271179199219,"175":0.5404472351074219,"176":0.27927276492118835,"177":3.6091954708099365,"178":-5.420895099639893,"179":0.8592880368232727,"180":0.8221843242645264,"181":-0.25794756412506104,"182":0.06443425267934799,"183":1.0161091089248657,"184":2.41983699798584,"185":-0.30844423174858093,"186":-0.5964287519454956,"187":-2.3702738285064697,"188":0.0018428583862259984,"189":0.47216150164604187,"190":2.4279935359954834,"191":-0.6036397218704224,"192":1.087900161743164,"193":0.7755451798439026,"194":-3.0639724731445312,"195":1.994271159172058,"196":1.8810681104660034,"197":-2.256308078765869,"198":2.411865472793579,"199":-0.5122517347335815,"200":3.118713617324829,"201":-2.6093928813934326,"202":2.230489730834961,"203":-0.19130828976631165,"204":-0.20953676104545593,"205":2.3738412857055664,"206":1.0282586812973022,"207":3.002664566040039,"208":2.955636739730835,"209":-0.8728960752487183,"210":-0.6079691052436829,"211":1.167965054512024,"212":-2.6157357692718506,"213":-2.308227062225342,"214":1.7611488103866577,"215":2.671168804168701,"216":0.272710919380188,"217":2.3334784507751465,"218":-1.1080697774887085,"219":-0.4165616035461426,"220":0.4850267767906189,"221":1.4863423109054565,"222":-3.9494285583496094,"223":0.8458396196365356,"224":-2.419041156768799,"225":-1.6710532903671265,"226":-0.18458029627799988,"227":-3.1386492252349854,"228":-1.109857201576233,"229":1.3245561122894287,"230":-2.76131010055542,"231":-2.3157854080200195,"232":-0.248154416680336,"233":-2.2447640895843506,"234":2.086120128631592,"235":1.287207841873169,"236":-0.09589782357215881,"237":3.3293263912200928,"238":-3.425760269165039,"239":-0.9572043418884277,"240":1.1743535995483398,"241":5.344855308532715,"242":-2.7486910820007324,"243":3.3237144947052,"244":2.0552523136138916,"245":-4.238126277923584,"246":0.165357768535614,"247":5.729856014251709,"248":1.8602861166000366,"249":-3.1029434204101562,"250":0.8074251413345337,"251":1.9443001747131348,"252":-1.0110713243484497,"253":-2.6683478355407715,"254":2.909968852996826,"255":-1.4289476871490479,"256":3.3996284008026123,"257":5.97857141494751,"258":6.853979587554932,"259":1.5349197387695312,"260":1.5688663721084595,"261":-0.6234875321388245,"262":-2.87935733795166,"263":-1.73878812789917,"264":7.704519748687744,"265":4.316208362579346,"266":3.021181344985962,"267":-4.520598411560059,"268":-1.3064327239990234,"269":2.139646530151367,"270":4.680302619934082,"271":0.7624222636222839,"272":-0.030215032398700714,"273":-2.0261404514312744,"274":1.227486491203308,"275":1.0582799911499023,"276":-3.320936918258667,"277":2.0278608798980713,"278":-0.061195868998765945,"279":1.8588684797286987,"280":0.7797393202781677,"281":4.5090651512146,"282":3.063692808151245,"283":-2.569417953491211,"284":4.052349090576172,"285":-2.0608394145965576,"286":-0.6879380941390991,"287":2.199092149734497,"288":1.3977177143096924,"289":-1.561858892440796,"290":-1.098839282989502,"291":1.2699863910675049,"292":0.5776206851005554,"293":-4.6891984939575195,"294":2.5132453441619873,"295":-0.2573801279067993,"296":2.2749392986297607,"297":0.8391039967536926,"298":0.29100289940834045,"299":2.9866175651550293,"300":3.5704691410064697,"301":1.3460043668746948,"302":2.213017225265503,"303":3.0888822078704834,"304":3.0573890209198,"305":-1.4820083379745483,"306":0.35262417793273926,"307":2.7841556072235107,"308":-1.6360599994659424,"309":2.57558536529541,"310":1.6685596704483032,"311":2.080040216445923,"312":3.977492332458496,"313":0.049581702798604965,"314":-1.3323290348052979,"315":-2.5111403465270996,"316":-1.5149495601654053,"317":1.2977341413497925,"318":1.2391141653060913,"319":-0.020873868837952614,"320":-1.5793768167495728,"321":-1.3235446214675903,"322":-2.1558785438537598,"323":2.246701955795288,"324":-2.2173383235931396,"325":-2.0132954120635986,"326":-1.6707203388214111,"327":1.4044698476791382,"328":0.01047978363931179,"329":0.7579526305198669,"330":1.6660268306732178,"331":2.071155309677124,"332":-2.1230099201202393,"333":-0.385854035615921,"334":1.4364490509033203,"335":-3.022549867630005,"336":-1.3076891899108887,"337":2.081925392150879,"338":2.7718799114227295,"339":-0.6909766793251038,"340":-1.9495344161987305,"341":-3.600290060043335,"342":-1.3490804433822632,"343":-0.046903010457754135,"344":-0.6523148417472839,"345":-0.1775895059108734,"346":0.006770522799342871,"347":1.0721049308776855,"348":-2.0802719593048096,"349":1.9266557693481445,"350":-2.0657119750976562,"351":-1.9204647541046143,"352":1.0811265707015991,"353":1.2788485288619995,"354":-0.5425487756729126,"355":-0.6680751442909241,"356":0.573776364326477,"357":-2.746683359146118,"358":1.094786524772644,"359":-3.400766372680664,"360":1.4414070844650269,"361":-0.019126003608107567,"362":-3.0902891159057617,"363":-0.08494599163532257,"364":0.32320159673690796,"365":2.113886833190918,"366":-1.5692540407180786,"367":-0.8609284162521362,"368":-0.5296252965927124,"369":3.960090398788452,"370":1.3930081129074097,"371":3.0459835529327393,"372":-2.3888864517211914,"373":-3.722837209701538,"374":0.059153519570827484,"375":0.10774698108434677,"376":-4.735648155212402,"377":-0.8991197943687439,"378":3.955998659133911,"379":1.1543477773666382,"380":0.34196576476097107,"381":-3.938685655593872,"382":1.6395258903503418,"383":-0.04169069603085518,"384":1.7797425985336304,"385":-2.1165060997009277,"386":0.8388319611549377,"387":0.5520825982093811,"388":-0.8882741332054138,"389":-0.8175223469734192,"390":2.0142414569854736,"391":-0.22834929823875427,"392":1.3876683712005615,"393":-2.5775156021118164,"394":1.4375801086425781,"395":-3.3284265995025635,"396":-5.5085906982421875,"397":-1.54804265499115,"398":-0.7065790295600891,"399":-2.146343231201172,"400":0.1281648725271225,"401":1.4274237155914307,"402":1.9557721614837646,"403":10.589592933654785,"404":-6.289529800415039,"405":6.838498592376709,"406":1.7341082096099854,"407":6.723571300506592,"408":1.5530438423156738,"409":0.4082777798175812,"410":2.5811023712158203,"411":-0.44627073407173157,"412":0.8027828335762024,"413":-2.043339729309082,"414":-0.05412491410970688,"415":-1.5096186399459839,"416":-0.43469712138175964,"417":-3.1734793186187744,"418":-3.0579211711883545,"419":-2.3473732471466064,"420":2.6209099292755127,"421":-3.5019443035125732,"422":2.921682119369507,"423":2.8060526847839355,"424":-3.030378818511963,"425":5.754953384399414,"426":-2.497196912765503,"427":2.7200474739074707,"428":-2.8150904178619385,"429":-1.4390342235565186,"430":3.8179595470428467,"431":0.9192207455635071,"432":-1.6936190128326416,"433":-2.378356695175171,"434":-1.0494312047958374,"435":-1.8232827186584473,"436":0.6649628281593323,"437":0.24325405061244965,"438":-1.709689974784851,"439":2.565648317337036,"440":-0.6434324383735657,"441":-3.9465291500091553,"442":6.249037265777588,"443":-4.693105697631836,"444":-0.6401342153549194,"445":-1.7736560106277466,"446":1.0153629779815674,"447":0.47738608717918396,"448":1.5369192361831665,"449":-1.1850522756576538,"450":-2.7602415084838867,"451":2.2151055335998535,"452":2.510448932647705,"453":1.5088697671890259,"454":3.196486234664917,"455":1.4182294607162476,"456":0.09442895650863647,"457":1.973057746887207,"458":0.7824077010154724,"459":1.4497641324996948,"460":-4.147027015686035,"461":2.5319719314575195,"462":-0.741355299949646,"463":3.4883124828338623,"464":-0.9455898404121399,"465":1.488429307937622,"466":7.037664890289307,"467":0.8648956418037415,"468":-1.004711389541626,"469":-5.0531535148620605,"470":5.310894012451172,"471":0.9832595586776733,"472":1.9837803840637207,"473":0.06652182340621948,"474":-0.9544520974159241,"475":0.9099394083023071,"476":-0.42576566338539124,"477":1.3267254829406738,"478":-3.8054916858673096,"479":-0.7895573973655701,"480":0.46262210607528687,"481":-3.5611932277679443,"482":-2.1692311763763428,"483":2.1571881771087646,"484":-2.373478889465332,"485":0.6652455925941467,"486":0.2374490648508072,"487":1.2726690769195557,"488":-2.207552194595337,"489":-3.7315218448638916,"490":1.1271395683288574,"491":-5.700130462646484,"492":4.4590744972229,"493":3.8186299800872803,"494":3.6107919216156006,"495":3.3413407802581787,"496":-1.9533494710922241,"497":1.1805821657180786,"498":-2.167011022567749,"499":-0.1342865228652954,"500":-4.495085716247559,"501":2.6324496269226074,"502":-2.485063314437866,"503":-0.6821389198303223,"504":-1.5872125625610352,"505":-1.6237643957138062,"506":-1.3276206254959106,"507":-1.579390287399292,"508":1.152039885520935,"509":1.3409724235534668,"510":1.5778626203536987,"511":0.6004596948623657,"512":-3.408806800842285,"513":1.3920681476593018,"514":-1.9664428234100342,"515":0.22741428017616272,"516":-0.3047555387020111,"517":-3.785250425338745,"518":-2.0071189403533936,"519":-0.044878795742988586,"520":-4.151913166046143,"521":-0.9557269215583801,"522":2.3332958221435547,"523":0.19716967642307281,"524":2.277393102645874,"525":-3.738687753677368,"526":3.6692793369293213,"527":-2.927844285964966,"528":1.270526647567749,"529":3.388972759246826,"530":-1.0072643756866455,"531":2.3262133598327637,"532":-0.7979846596717834,"533":-4.290169715881348,"534":-0.7439402937889099,"535":4.092210292816162,"536":-0.2912616729736328,"537":-0.7433257699012756,"538":2.548212766647339,"539":-3.5484325885772705,"540":-2.2736122608184814,"541":-0.8925405144691467,"542":0.601908802986145,"543":1.1885861158370972,"544":4.512027263641357,"545":0.9695616960525513,"546":1.401631474494934,"547":0.5979956984519958,"548":-2.181157112121582,"549":1.3903530836105347,"550":-3.739957094192505,"551":5.7943525314331055,"552":5.165158748626709,"553":1.1831021308898926,"554":-0.5813741087913513,"555":3.749099016189575,"556":-2.9726903438568115,"557":1.8948174715042114,"558":1.877375841140747,"559":-2.023592710494995,"560":-1.088984727859497,"561":0.1970549076795578,"562":-0.033113013952970505,"563":-1.9496022462844849,"564":0.9534355998039246,"565":-2.4296014308929443,"566":2.5306456089019775,"567":-1.6217809915542603,"568":-1.110729455947876,"569":-4.265981674194336,"570":-0.24495883285999298,"571":0.42906203866004944,"572":0.45544594526290894,"573":-0.2798335552215576,"574":-4.2379536628723145,"575":-1.3774195909500122,"576":1.3044625520706177,"577":0.08418142795562744,"578":-2.891173839569092,"579":4.122195243835449,"580":-1.386965274810791,"581":-3.5983006954193115,"582":5.768779754638672,"583":3.1539440155029297,"584":-1.5370397567749023,"585":0.9641719460487366,"586":3.949563980102539,"587":-3.2061996459960938,"588":-1.750756025314331,"589":-1.4498748779296875,"590":1.2269760370254517,"591":0.8642874956130981,"592":-1.3373916149139404,"593":5.716719627380371,"594":-1.852209448814392,"595":5.692882061004639,"596":0.26604706048965454,"597":-2.567923069000244,"598":3.739987850189209,"599":-0.6802272200584412,"600":-1.8417130708694458,"601":2.3184471130371094,"602":2.771658182144165,"603":-3.9524688720703125,"604":2.5132129192352295,"605":-0.9517529010772705,"606":-1.4726860523223877,"607":1.61250901222229,"608":1.0177974700927734,"609":-3.6230316162109375,"610":-1.7134202718734741,"611":-1.5245575904846191,"612":-7.222958564758301,"613":-3.226400136947632,"614":4.794683933258057,"615":-9.117208480834961,"616":-8.384367942810059,"617":0.29616740345954895,"618":-23.72826385498047,"619":-2.0205962657928467,"620":-10.248111724853516,"621":-8.287398338317871,"622":-8.30053997039795,"623":9.763980865478516,"624":4.503273010253906,"625":-3.575754404067993,"626":12.619131088256836,"627":13.59975814819336,"628":10.58950424194336,"629":16.03687858581543,"630":-11.057476043701172,"631":-5.923813343048096,"632":-3.6922147274017334,"633":2.4512739181518555,"634":-2.089024066925049,"635":-6.563032627105713,"636":-1.1072489023208618,"637":-8.777755737304688,"638":-6.7507500648498535,"639":-2.7341623306274414,"640":-5.112277030944824,"641":11.584694862365723,"642":3.8597073554992676,"643":11.021342277526855,"644":0.5851075053215027,"645":-5.900851249694824,"646":-15.343389511108398,"647":-14.96368408203125,"648":-3.2843539714813232,"649":-5.454306602478027,"650":-1.7122565507888794,"651":-3.4980077743530273,"652":-10.479259490966797,"653":-6.9030442237854,"654":-6.503909111022949,"655":2.20658802986145,"656":-5.984663486480713,"657":0.8832859992980957,"658":-1.2046265602111816,"659":0.8867325782775879,"660":-0.356490820646286,"661":-3.8476994037628174,"662":-7.848961353302002,"663":1.4125823974609375,"664":-6.7281413078308105,"665":-1.1884061098098755,"666":0.8824962973594666,"667":-1.3248566389083862,"668":-5.053590774536133,"669":-2.0274672508239746,"670":1.1847238540649414,"671":5.7664875984191895,"672":5.568821907043457,"673":-0.06815864890813828,"674":-4.361647129058838,"675":-2.7463817596435547,"676":0.6119611263275146,"677":3.6594321727752686,"678":-0.3242812752723694,"679":-2.7781803607940674,"680":-1.5578218698501587,"681":-0.4976891279220581,"682":2.3716001510620117,"683":-0.3291144073009491,"684":-4.503794193267822,"685":-1.9431915283203125,"686":3.7672688961029053,"687":0.9521894454956055,"688":1.3204389810562134,"689":1.3608893156051636,"690":-1.0477831363677979,"691":-1.8127425909042358,"692":-7.144468784332275,"693":3.8835229873657227,"694":-0.2627392113208771,"695":4.229275226593018,"696":1.4601786136627197,"697":2.0246715545654297,"698":-0.09659849852323532,"699":-1.4431407451629639,"700":-1.4754961729049683,"701":-4.933287143707275,"702":-0.3519183397293091,"703":2.3569722175598145,"704":-0.14673994481563568,"705":-0.013967348262667656,"706":2.60314679145813,"707":3.0420374870300293,"708":-3.701429605484009,"709":1.192962884902954,"710":1.1266844272613525,"711":-1.023723840713501,"712":0.8671465516090393,"713":-0.37414228916168213,"714":0.43894314765930176,"715":0.5141368508338928,"716":-3.8089535236358643,"717":-0.5811574459075928,"718":-3.114868640899658,"719":-3.0447165966033936,"720":1.3665311336517334,"721":-0.38809123635292053,"722":0.5072863698005676,"723":-0.6084082722663879,"724":2.374452829360962,"725":2.313408851623535,"726":3.856890916824341,"727":2.8584725856781006,"728":-3.124408721923828,"729":3.2446095943450928,"730":-3.968430280685425,"731":0.6727302670478821,"732":-0.741717517375946,"733":2.5662753582000732,"734":-0.32843223214149475,"735":0.29894524812698364,"736":-0.9819929599761963,"737":-1.044730544090271,"738":4.498013973236084,"739":-6.780163288116455,"740":5.466392993927002,"741":3.151399612426758,"742":-5.042105674743652,"743":-0.563362181186676,"744":-5.184150695800781,"745":2.1696255207061768,"746":-6.492581367492676,"747":6.441507339477539,"748":-4.580499172210693,"749":-1.8807488679885864,"750":-1.222575068473816,"751":1.803832769393921,"752":0.8092095851898193,"753":1.0115476846694946,"754":-6.686246395111084,"755":8.303757667541504,"756":-1.96993887424469,"757":-5.858129024505615,"758":10.110308647155762,"759":9.398770332336426,"760":4.931757926940918,"761":-3.215458393096924,"762":-3.1059069633483887,"763":-12.487499237060547,"764":-0.15005013346672058,"765":8.400232315063477,"766":1.2002441883087158,"767":6.267775535583496,"768":-1.953762412071228,"769":-2.0248241424560547,"770":3.5170695781707764,"771":-1.6275945901870728,"772":10.884310722351074,"773":-2.7452688217163086,"774":3.6159112453460693,"775":-8.650477409362793,"776":-2.953871965408325,"777":3.06152606010437,"778":-1.5040333271026611,"779":-3.054997444152832,"780":15.90771198272705,"781":0.3971990942955017,"782":2.4281232357025146,"783":14.897300720214844,"784":-1.3049449920654297,"785":2.3966939449310303,"786":5.7521772384643555,"787":10.386147499084473,"788":-10.608138084411621,"789":-6.100918292999268,"790":-2.988588571548462,"791":-1.3300021886825562,"792":13.526905059814453,"793":-8.848536491394043,"794":-9.845666885375977,"795":17.159563064575195,"796":-5.706936359405518,"797":17.300979614257812,"798":-0.9812520742416382,"799":1.5300179719924927,"800":-8.565690994262695,"801":-7.489355564117432,"802":0.09119375795125961,"803":14.116406440734863,"804":-2.828706979751587,"805":11.003721237182617,"806":-11.768110275268555,"807":-16.62422752380371,"808":1.3517389297485352,"809":-0.34185507893562317,"810":3.9441211223602295,"811":6.699937343597412,"812":3.7787668704986572,"813":-3.4172754287719727,"814":-12.03632926940918,"815":7.509851455688477,"816":-7.3126912117004395,"817":-6.896973133087158,"818":10.773265838623047,"819":0.13748499751091003,"820":-0.8683692216873169,"821":11.841445922851562,"822":5.353954315185547,"823":-5.224636554718018,"824":-4.045709133148193,"825":1.596126914024353,"826":-7.030930519104004,"827":-0.40634816884994507,"828":1.546441912651062,"829":0.7190729379653931,"830":6.693440914154053,"831":-8.391744613647461,"832":15.068408012390137,"833":-4.715165615081787,"834":2.0354766845703125,"835":14.540475845336914,"836":-2.315229654312134,"837":11.033041000366211,"838":-6.537319660186768,"839":-6.094256401062012,"840":12.83713436126709,"841":7.175431251525879,"842":6.0845818519592285,"843":-6.100316047668457,"844":-5.645627021789551,"845":5.1583051681518555,"846":2.5110042095184326,"847":-4.1042351722717285,"848":-3.812924385070801,"849":12.01610279083252,"850":-7.096444129943848,"851":-8.508030891418457,"852":8.435663223266602,"853":-12.10608196258545,"854":-1.6498876810073853,"855":7.889155387878418,"856":1.0197410583496094,"857":-15.713053703308105,"858":-18.380638122558594,"859":5.833714962005615,"860":1.4382303953170776,"861":-1.5734416246414185,"862":0.8959242105484009,"863":1.5162626504898071,"864":-0.33823248744010925,"865":3.2094099521636963,"866":-0.35415172576904297,"867":-2.797471761703491,"868":-4.409234046936035,"869":3.91195011138916,"870":0.9601973295211792,"871":-4.0787858963012695,"872":0.2945862114429474,"873":3.970815896987915,"874":1.2797763347625732,"875":12.685046195983887,"876":-2.06717848777771,"877":-2.3588991165161133,"878":-0.4125722348690033,"879":-0.3360016644001007,"880":1.626221776008606,"881":1.6550467014312744,"882":0.45586130023002625,"883":0.4907189905643463,"884":0.2775763273239136,"885":-2.6471970081329346,"886":0.535947859287262,"887":1.9376577138900757,"888":-0.4479368329048157,"889":2.3035008907318115,"890":3.8658719062805176,"891":2.952059030532837,"892":0.5825014710426331,"893":-5.049935340881348,"894":4.686905384063721,"895":1.9706262350082397,"896":1.0336941480636597,"897":-7.011148452758789,"898":3.8923256397247314,"899":-3.0921318531036377,"900":0.18988223373889923,"901":-3.5955159664154053,"902":13.223441123962402,"903":-0.09694484621286392,"904":-0.5186886787414551,"905":4.223433971405029,"906":-1.6813361644744873,"907":3.8064396381378174,"908":0.5678304433822632,"909":-8.710752487182617,"910":0.4808928370475769,"911":3.032647132873535,"912":0.04166576266288757,"913":4.059506893157959,"914":-6.452078342437744,"915":-0.6355467438697815,"916":-0.820676863193512,"917":4.112870693206787,"918":-3.9561097621917725,"919":-6.321269512176514,"920":-2.7698049545288086,"921":1.729016661643982,"922":0.5724707245826721,"923":0.8316068649291992,"924":-4.314967155456543,"925":2.5476748943328857,"926":1.1818472146987915,"927":1.8992425203323364,"928":-1.8136870861053467,"929":-4.037344455718994,"930":-2.8507416248321533,"931":3.0835094451904297,"932":-4.148126125335693,"933":4.116316795349121,"934":-0.09966079890727997,"935":1.0681672096252441,"936":-0.583100438117981,"937":-0.5454269051551819,"938":6.783388614654541,"939":-0.22413270175457,"940":4.990110874176025,"941":1.5799990892410278,"942":0.0836264044046402,"943":0.5646964907646179,"944":-0.9817132949829102,"945":-3.5155606269836426,"946":-4.4906511306762695,"947":6.442983627319336,"948":-5.745241641998291,"949":-0.44642770290374756,"950":-2.9609365463256836,"951":0.1508861482143402,"952":-7.662483215332031,"953":-0.2377789318561554,"954":-5.492363929748535,"955":-0.4168781042098999,"956":-0.5251617431640625,"957":-1.1182433366775513,"958":0.9576687216758728,"959":-2.146333694458008,"960":-6.056090831756592,"961":6.520092964172363,"962":-3.0576348304748535,"963":0.15871664881706238,"964":0.47790753841400146,"965":-1.3657132387161255,"966":-1.2259294986724854,"967":3.9391283988952637,"968":-4.667974472045898,"969":3.1018548011779785,"970":-6.524202346801758,"971":-5.096024513244629,"972":3.9190444946289062,"973":5.3365559577941895,"974":2.382110595703125,"975":-0.09656471014022827,"976":2.210949420928955,"977":1.1047478914260864,"978":-4.114931583404541,"979":5.730697154998779,"980":-2.7522518634796143,"981":4.380608081817627,"982":-3.7266268730163574,"983":-2.098238945007324,"984":6.578278064727783,"985":7.521886348724365,"986":-0.6085185408592224,"987":0.1568070352077484,"988":4.941131114959717,"989":-1.3763285875320435,"990":-2.43054461479187,"991":0.42867153882980347,"992":2.5306742191314697,"993":1.182033658027649,"994":-2.095714569091797,"995":0.41002699732780457,"996":0.06816651672124863,"997":6.3582763671875,"998":-3.841775894165039,"999":-2.375307559967041,"1000":1.8597227334976196,"1001":0.2167792022228241,"1002":1.1485319137573242,"1003":-2.037599802017212,"1004":-4.26177978515625,"1005":-9.285948753356934,"1006":1.104816198348999,"1007":0.7585750222206116,"1008":5.180285930633545,"1009":4.22182035446167,"1010":6.300879001617432,"1011":-1.3241848945617676,"1012":-5.913882732391357,"1013":1.7509772777557373,"1014":-0.6184109449386597,"1015":2.2957184314727783,"1016":1.011680245399475,"1017":-1.2970741987228394,"1018":3.4034674167633057,"1019":-6.204914569854736,"1020":2.498396635055542,"1021":-0.9551295042037964,"1022":2.9284393787384033,"1023":4.2885332107543945,"1024":2.0051002502441406,"1025":6.2995429039001465,"1026":-2.392483711242676,"1027":-8.91888427734375,"1028":-0.07039456069469452,"1029":6.619782447814941,"1030":-0.6399098038673401,"1031":-7.139833450317383,"1032":8.251110076904297,"1033":5.185696601867676,"1034":-6.177462100982666,"1035":-9.868581771850586,"1036":-5.365586757659912,"1037":7.951958656311035,"1038":11.91482162475586,"1039":2.1092302799224854,"1040":-3.1848316192626953,"1041":-3.334484577178955,"1042":8.163507461547852,"1043":-7.796032905578613,"1044":6.369119644165039,"1045":9.208203315734863,"1046":-6.580469608306885,"1047":9.559319496154785,"1048":1.7225475311279297,"1049":-2.921419143676758,"1050":1.3732824325561523,"1051":13.048563003540039,"1052":-7.013341426849365,"1053":1.4640944004058838,"1054":2.417172431945801,"1055":-9.247773170471191,"1056":-6.551797389984131,"1057":-2.639176607131958,"1058":-2.1252005100250244,"1059":-1.2737393379211426,"1060":-3.8679099082946777,"1061":0.7388433814048767,"1062":1.7033182382583618,"1063":-6.167296409606934,"1064":-2.9827466011047363,"1065":-4.36085319519043,"1066":-8.096222877502441,"1067":-7.395471572875977,"1068":-8.712955474853516,"1069":-3.4476404190063477,"1070":-3.021315813064575,"1071":-7.7938761711120605,"1072":-0.1838703751564026,"1073":2.966952085494995,"1074":-4.106019973754883,"1075":0.3882526159286499,"1076":3.210031509399414,"1077":3.660696029663086,"1078":-3.4020164012908936,"1079":0.8802465796470642,"1080":6.658022403717041,"1081":-0.9858033061027527,"1082":-10.170716285705566,"1083":10.257262229919434,"1084":-0.08939631283283234,"1085":-6.177395343780518,"1086":3.1571905612945557,"1087":1.589795708656311,"1088":-7.39867639541626,"1089":-5.378288269042969,"1090":-2.6032886505126953,"1091":-5.160619258880615,"1092":5.176798343658447,"1093":2.3373963832855225,"1094":1.452711820602417,"1095":-3.357473611831665,"1096":-2.9639127254486084,"1097":-3.200579881668091,"1098":-6.374914646148682,"1099":0.7215304374694824,"1100":-2.5805656909942627,"1101":8.127187728881836,"1102":4.144355297088623,"1103":4.346806049346924,"1104":-0.8906484246253967,"1105":-1.2043370008468628,"1106":-0.3441016376018524,"1107":5.905045986175537,"1108":-3.802168130874634,"1109":14.384200096130371,"1110":-5.641531467437744,"1111":-5.048484802246094,"1112":-1.90285325050354,"1113":-3.0402944087982178,"1114":-1.225575566291809,"1115":-5.682987213134766,"1116":20.6416072845459,"1117":16.890159606933594,"1118":-8.551407814025879,"1119":-8.570752143859863,"1120":-7.941803932189941,"1121":9.325517654418945,"1122":5.792993545532227,"1123":11.58050537109375,"1124":-9.383060455322266,"1125":-4.917275905609131,"1126":-25.13459014892578,"1127":-8.297775268554688,"1128":1.713063359260559,"1129":-8.392741203308105,"1130":0.6896969079971313,"1131":-0.2037588506937027,"1132":-5.093935966491699,"1133":-8.206853866577148,"1134":-5.192676544189453,"1135":-6.203838348388672,"1136":12.842610359191895,"1137":18.055463790893555,"1138":-3.6012558937072754,"1139":19.695878982543945,"1140":-8.201482772827148,"1141":-2.728848934173584,"1142":-6.028707027435303,"1143":4.10342264175415,"1144":-9.261994361877441,"1145":0.008022508583962917,"1146":0.4310801327228546,"1147":2.444711446762085,"1148":-3.251051425933838,"1149":-1.9928953647613525,"1150":0.371653288602829,"1151":-9.31284236907959,"1152":-5.509180545806885,"1153":0.8285714387893677,"1154":-3.0760107040405273,"1155":8.422569274902344,"1156":6.451371192932129,"1157":2.828172445297241,"1158":2.7890825271606445,"1159":-0.5151979923248291,"1160":0.24843381345272064,"1161":-8.495898246765137,"1162":1.2435145378112793,"1163":-0.4211394786834717,"1164":-4.267786026000977,"1165":5.520304203033447,"1166":14.7915678024292,"1167":2.4227547645568848,"1168":1.5437434911727905,"1169":-4.136712551116943,"1170":-3.6090595722198486,"1171":-1.721457600593567,"1172":1.8926432132720947,"1173":2.3531885147094727,"1174":-4.391810894012451,"1175":5.341744422912598,"1176":12.596821784973145,"1177":5.952442646026611,"1178":-5.240743160247803,"1179":-12.025174140930176,"1180":2.265352249145508,"1181":-1.1270251274108887,"1182":-3.8553946018218994,"1183":9.357683181762695,"1184":-0.00009810835763346404,"1185":-18.13194465637207,"1186":-10.35444450378418,"1187":-5.124367713928223,"1188":9.309189796447754,"1189":-0.8398001194000244,"1190":-3.226804733276367,"1191":-10.369661331176758,"1192":-4.538381576538086,"1193":-2.677004337310791,"1194":-10.231186866760254,"1195":-4.317903995513916,"1196":1.720149278640747,"1197":-6.68502950668335,"1198":10.802989959716797,"1199":3.3938870429992676,"1200":5.507054328918457,"1201":-3.732016086578369,"1202":-10.478741645812988,"1203":1.9476168155670166,"1204":4.435088634490967,"1205":-14.516045570373535,"1206":0.9146133065223694,"1207":9.558884620666504,"1208":-7.430261611938477,"1209":4.833362102508545,"1210":6.922728538513184,"1211":3.1862633228302,"1212":-3.1100101470947266,"1213":-13.312192916870117,"1214":9.770682334899902,"1215":-4.3072896003723145,"1216":12.262640953063965,"1217":-0.4125458598136902,"1218":0.6878232955932617,"1219":5.555329322814941,"1220":11.441951751708984,"1221":-0.0030925602186471224,"1222":10.699745178222656,"1223":-2.527176856994629,"1224":13.370035171508789,"1225":2.319087266921997,"1226":-9.035368919372559,"1227":1.8247796297073364,"1228":4.997651100158691,"1229":5.781633377075195,"1230":-1.6677794456481934,"1231":9.906277656555176,"1232":12.205218315124512,"1233":-3.0465846061706543,"1234":-8.249175071716309,"1235":-0.29377561807632446,"1236":-3.768303394317627,"1237":3.869584798812866,"1238":-2.071913003921509,"1239":2.3919644355773926,"1240":0.11949744075536728,"1241":-5.052667140960693,"1242":0.81941157579422,"1243":11.697644233703613,"1244":5.079468727111816,"1245":2.677628993988037,"1246":10.506101608276367,"1247":4.780816555023193,"1248":1.383734107017517,"1249":-1.3033064603805542,"1250":-5.594098091125488,"1251":-9.421865463256836,"1252":-4.11018180847168,"1253":-7.9503984451293945,"1254":2.2084014415740967,"1255":-4.475846290588379,"1256":-8.051712036132812,"1257":-3.3725438117980957,"1258":-2.655766248703003,"1259":-0.303287148475647,"1260":3.4331703186035156,"1261":-5.64417839050293,"1262":1.5807039737701416,"1263":-18.18622589111328,"1264":11.721409797668457,"1265":1.604957938194275,"1266":3.5920870304107666,"1267":3.0855419635772705,"1268":-8.629554748535156,"1269":-1.9963459968566895,"1270":-9.938981056213379,"1271":4.256527423858643,"1272":-1.6700924634933472,"1273":10.795040130615234,"1274":-11.671004295349121,"1275":13.84931468963623,"1276":3.1052238941192627,"1277":6.555782794952393,"1278":-3.50671124458313,"1279":0.22343169152736664,"1280":2.305811643600464,"1281":-3.3811521530151367,"1282":3.98771071434021,"1283":13.22580337524414,"1284":1.0790586471557617,"1285":3.4938464164733887,"1286":-3.7551639080047607,"1287":2.784451484680176,"1288":4.488165378570557,"1289":-11.865684509277344,"1290":4.161179065704346,"1291":1.2026557922363281,"1292":-2.098470449447632,"1293":11.911334991455078,"1294":8.584563255310059,"1295":-0.8213916420936584,"1296":-7.72284460067749,"1297":0.6680188775062561,"1298":-3.2531423568725586,"1299":2.4528417587280273,"1300":-6.115461826324463,"1301":5.108416557312012,"1302":0.8437578678131104,"1303":1.0188798904418945,"1304":-4.615428924560547,"1305":6.139365196228027,"1306":-0.2700140178203583,"1307":-8.463849067687988,"1308":-2.0419745445251465,"1309":-10.548928260803223,"1310":-3.611677408218384,"1311":-4.2406535148620605,"1312":-2.5198020935058594,"1313":-2.427598714828491,"1314":0.5891786813735962,"1315":-1.778936743736267,"1316":-1.2646492719650269,"1317":-2.3185250759124756,"1318":10.477743148803711,"1319":10.951483726501465,"1320":3.02207088470459,"1321":3.7706058025360107,"1322":1.939069151878357,"1323":-3.4105894565582275,"1324":-0.13868090510368347,"1325":-0.8685238361358643,"1326":5.502510070800781,"1327":-0.8105345368385315,"1328":0.6313044428825378,"1329":7.425294876098633,"1330":1.4059462547302246,"1331":-5.349985599517822,"1332":3.656966209411621,"1333":-2.036763906478882,"1334":7.360015869140625,"1335":10.738632202148438,"1336":4.816390037536621,"1337":6.995642185211182,"1338":-0.5115998983383179,"1339":4.793952941894531,"1340":6.085592269897461,"1341":1.7490487098693848,"1342":0.5414535403251648,"1343":1.3786165714263916,"1344":-4.267354965209961,"1345":3.4793195724487305,"1346":3.0846822261810303,"1347":11.3092041015625,"1348":0.6557531356811523,"1349":3.912158250808716,"1350":1.7868692874908447,"1351":-1.1180272102355957,"1352":-2.338369131088257,"1353":3.653228759765625,"1354":-9.172215461730957,"1355":-2.685657024383545,"1356":-0.19160214066505432,"1357":1.0672191381454468,"1358":10.166166305541992,"1359":-11.736945152282715,"1360":-5.992135047912598,"1361":5.451354503631592,"1362":1.473362922668457,"1363":-6.46611213684082,"1364":4.328863143920898,"1365":16.167076110839844,"1366":4.026491165161133,"1367":-9.786149024963379,"1368":6.385305404663086,"1369":10.184926986694336,"1370":-3.7087395191192627,"1371":3.281933069229126,"1372":5.969813823699951,"1373":-7.724546909332275,"1374":-2.117668867111206,"1375":-0.43080922961235046,"1376":-6.716885089874268,"1377":0.3383071720600128,"1378":-4.061458110809326,"1379":-1.219834566116333,"1380":-8.773859977722168,"1381":-2.1504805088043213,"1382":-3.152374267578125,"1383":-6.880556106567383,"1384":-5.429429531097412,"1385":2.8596079349517822,"1386":-6.619263648986816,"1387":5.781940937042236,"1388":-12.913222312927246,"1389":-1.9660871028900146,"1390":-9.600958824157715,"1391":-5.8760480880737305,"1392":10.050050735473633,"1393":4.592572212219238,"1394":-3.781078815460205,"1395":5.138578414916992,"1396":-17.045989990234375,"1397":-6.755181789398193,"1398":8.29231071472168,"1399":-4.038915634155273,"1400":6.014657020568848,"1401":12.810063362121582,"1402":-11.887718200683594,"1403":1.8901102542877197,"1404":10.534661293029785,"1405":-4.143581867218018,"1406":-8.094608306884766,"1407":11.642338752746582,"1408":4.170039653778076,"1409":-3.125481367111206,"1410":-19.12637710571289,"1411":-3.1925437450408936,"1412":11.868342399597168,"1413":-8.593554496765137,"1414":22.074556350708008,"1415":-12.09636116027832,"1416":-0.7837080955505371,"1417":-1.1985735893249512,"1418":5.166289806365967,"1419":-5.589240074157715,"1420":5.806426048278809,"1421":17.9103946685791,"1422":10.045738220214844,"1423":-3.977565288543701,"1424":-13.696423530578613,"1425":-1.3446747064590454,"1426":5.7019877433776855,"1427":12.801390647888184,"1428":-2.195814847946167,"1429":4.082764625549316,"1430":-11.372722625732422,"1431":6.550426483154297,"1432":12.084277153015137,"1433":-0.11108414828777313,"1434":-1.707329273223877,"1435":3.574488878250122,"1436":-17.668720245361328,"1437":-0.10066178441047668,"1438":4.763823986053467,"1439":-10.687905311584473,"1440":-5.383602142333984,"1441":-10.097021102905273,"1442":-1.9602104425430298,"1443":-4.670909881591797,"1444":0.38867315649986267,"1445":-5.746490955352783,"1446":6.480245113372803,"1447":10.56059741973877,"1448":12.155404090881348,"1449":-14.20052719116211,"1450":-7.415708065032959,"1451":-6.191827297210693,"1452":16.88191032409668,"1453":-10.053009986877441,"1454":-14.157403945922852,"1455":-10.157651901245117,"1456":-17.520275115966797,"1457":0.5073732137680054,"1458":-1.8905317783355713,"1459":-7.7768402099609375,"1460":-16.656049728393555,"1461":14.198766708374023,"1462":7.973443984985352,"1463":11.356830596923828,"1464":-7.373929023742676,"1465":4.15216588973999,"1466":-11.359227180480957,"1467":4.456280708312988,"1468":-11.647527694702148,"1469":-8.07425308227539,"1470":2.1264660358428955,"1471":10.701953887939453,"1472":7.026788234710693,"1473":-11.0126953125,"1474":-3.911224603652954,"1475":-2.023348331451416,"1476":-9.079937934875488,"1477":1.3898135423660278,"1478":21.449302673339844,"1479":5.471346855163574,"1480":-7.663560390472412,"1481":13.262225151062012,"1482":-1.704201102256775,"1483":-12.381509780883789,"1484":-0.3811357021331787,"1485":11.46034049987793,"1486":8.206815719604492,"1487":-2.397554397583008,"1488":10.789750099182129,"1489":-2.4200072288513184,"1490":13.348610877990723,"1491":-3.4873383045196533,"1492":9.628046035766602,"1493":-16.35733985900879,"1494":-16.384241104125977,"1495":8.427152633666992,"1496":21.429899215698242,"1497":30.320642471313477,"1498":-4.183576583862305,"1499":-10.560596466064453,"1500":1.6754735708236694,"1501":-9.470314025878906,"1502":-13.259469032287598,"1503":-6.409568786621094,"1504":-1.2098487615585327,"1505":14.909916877746582,"1506":-3.0089893341064453,"1507":-1.982816219329834,"1508":1.679749608039856,"1509":-1.882810354232788,"1510":7.521064758300781,"1511":-15.815383911132812,"1512":-13.054150581359863,"1513":-8.523386001586914,"1514":-14.214215278625488,"1515":-0.42918363213539124,"1516":-1.9395911693572998,"1517":-3.735121726989746,"1518":-3.447924852371216,"1519":4.594021320343018,"1520":-3.0114095211029053,"1521":4.922439098358154,"1522":4.819125175476074,"1523":-3.51481556892395,"1524":-4.016576290130615,"1525":1.0656582117080688,"1526":1.125378131866455,"1527":-2.1521031856536865,"1528":3.516572952270508,"1529":3.8477108478546143,"1530":4.072871685028076,"1531":-0.7309756875038147,"1532":5.809543609619141,"1533":5.017946243286133,"1534":-11.486976623535156,"1535":0.47390124201774597,"1536":5.350520133972168,"1537":-4.176239013671875,"1538":3.0325863361358643,"1539":6.5645527839660645,"1540":0.6537905931472778,"1541":8.145146369934082,"1542":0.22041045129299164,"1543":-1.5710397958755493,"1544":-1.579582929611206,"1545":-2.9240541458129883,"1546":4.35111665725708,"1547":-9.125164031982422,"1548":6.327518939971924,"1549":-3.324162721633911,"1550":-6.189415454864502,"1551":0.12015696614980698,"1552":-12.439066886901855,"1553":-4.5226335525512695,"1554":-8.38939094543457,"1555":5.844937801361084,"1556":1.7676246166229248,"1557":5.04345703125,"1558":15.15179443359375,"1559":1.040032148361206,"1560":-0.6178202629089355,"1561":1.750708818435669,"1562":3.341003894805908,"1563":-0.24669644236564636,"1564":-15.460249900817871,"1565":2.9030203819274902,"1566":-6.271080493927002,"1567":-1.9637131690979004,"1568":-6.60441255569458,"1569":5.364348888397217,"1570":-5.466065406799316,"1571":-0.5478891134262085,"1572":6.153010845184326,"1573":-2.429065227508545,"1574":-5.93841552734375,"1575":-13.044200897216797,"1576":18.441944122314453,"1577":-3.680126905441284,"1578":3.1872215270996094,"1579":2.4288949966430664,"1580":4.9730095863342285,"1581":-9.114605903625488,"1582":6.1035542488098145,"1583":-1.4242243766784668,"1584":2.0378644466400146,"1585":1.0928009748458862,"1586":-8.447613716125488,"1587":-0.7113690376281738,"1588":-6.279160976409912,"1589":9.734992027282715,"1590":5.652619361877441,"1591":7.199249744415283,"1592":17.44047737121582,"1593":-0.4264272451400757,"1594":13.17371940612793,"1595":-2.513368844985962,"1596":-2.264650583267212,"1597":12.591693878173828,"1598":1.3645981550216675,"1599":0.181428462266922,"1600":2.9230895042419434,"1601":-0.5575856566429138,"1602":-3.5666024684906006,"1603":1.7224407196044922,"1604":-0.45910540223121643,"1605":-4.530637741088867,"1606":3.325752019882202,"1607":-6.3628740310668945,"1608":-1.1669470071792603,"1609":0.9563367962837219,"1610":-0.34892287850379944,"1611":2.0532586574554443,"1612":2.0337181091308594,"1613":-1.6455636024475098,"1614":-0.3601982593536377,"1615":-2.0158650875091553,"1616":5.661310195922852,"1617":2.060438632965088,"1618":-0.05983695760369301,"1619":-0.10293129831552505,"1620":2.3351142406463623,"1621":0.6327790021896362,"1622":2.415907621383667,"1623":-3.112619400024414,"1624":-3.150141954421997,"1625":-3.093390464782715,"1626":1.5436075925827026,"1627":-5.13404655456543,"1628":1.6811224222183228,"1629":2.1389479637145996,"1630":-1.4693442583084106,"1631":3.922318935394287,"1632":-3.219097852706909,"1633":4.099666118621826,"1634":-0.7702400088310242,"1635":-0.8951817154884338,"1636":-1.6863148212432861,"1637":-1.006296992301941,"1638":3.823861598968506,"1639":-1.5016766786575317,"1640":-3.489952802658081,"1641":-1.6925381422042847,"1642":-1.5445542335510254,"1643":-2.281977891921997,"1644":-1.7611957788467407,"1645":0.3667267858982086,"1646":-0.8255820870399475,"1647":-0.024640537798404694,"1648":0.30329033732414246,"1649":0.7446103692054749,"1650":0.43793103098869324,"1651":-3.818232774734497,"1652":1.3497421741485596,"1653":-1.4750503301620483,"1654":-2.065969467163086,"1655":-2.917370557785034,"1656":-0.8081750869750977,"1657":2.3168303966522217,"1658":-0.7007550597190857,"1659":0.9194456934928894,"1660":-1.5642684698104858,"1661":-1.2648532390594482,"1662":-3.3377907276153564,"1663":-0.07396738976240158,"1664":-1.5492854118347168,"1665":-2.000248670578003,"1666":-1.167518138885498,"1667":0.7962706685066223,"1668":2.6287448406219482,"1669":0.7250128388404846,"1670":1.6588109731674194,"1671":-5.63035774230957,"1672":0.03645860031247139,"1673":-3.2262072563171387,"1674":-2.6732940673828125,"1675":1.6965802907943726,"1676":-0.3452388048171997,"1677":-2.5833678245544434,"1678":-2.386697292327881,"1679":-1.685681939125061,"1680":0.26491278409957886,"1681":0.00104583241045475,"1682":-0.028218649327754974,"1683":-0.05199659243226051,"1684":0.04544903337955475,"1685":0.0059676989912986755,"1686":-0.008323722518980503,"1687":-0.016076184809207916,"1688":-0.036147769540548325,"1689":0.03150632604956627,"1690":0.000728207640349865,"1691":0.04040323942899704,"1692":0.05311811342835426,"1693":0.04754994437098503,"1694":-0.004582842346280813,"1695":-0.031702522188425064,"1696":-0.00611430499702692,"1697":-0.0014206399209797382,"1698":0.036665454506874084,"1699":0.007810643408447504,"1700":0.03171201050281525,"1701":-0.027694102376699448,"1702":0.043998364359140396,"1703":0.03498096019029617,"1704":-0.03065880388021469,"1705":0.003956499509513378,"1706":0.02536007948219776,"1707":-0.01977495290338993,"1708":0.00791762676090002,"1709":-0.0471445694565773,"1710":0.020311769098043442,"1711":0.032294705510139465,"1712":-0.0014049247838556767,"1713":-0.0001280773722101003,"1714":0.02153145708143711,"1715":0.018162639811635017,"1716":0.032901935279369354,"1717":0.024123363196849823,"1718":0.053066741675138474,"1719":0.011068075895309448,"1720":-0.03337564691901207,"1721":0.03713648021221161}},"hiddenLayers":[{"inputMatrix":{"rows":20,"columns":41,"weights":{"0":0.15755534172058105,"1":1.3067598342895508,"2":-2.7133829593658447,"3":0.9631940722465515,"4":0.8009654879570007,"5":-2.4322149753570557,"6":-1.1000289916992188,"7":-1.5841054916381836,"8":-0.811389148235321,"9":1.3067500591278076,"10":2.791299819946289,"11":0.19877424836158752,"12":-0.37373653054237366,"13":-0.9705744385719299,"14":-3.2297542095184326,"15":1.1397370100021362,"16":0.15198291838169098,"17":-0.4341959059238434,"18":-1.1959507465362549,"19":-1.6639543771743774,"20":-0.3978598713874817,"21":1.6863690614700317,"22":-1.5452773571014404,"23":0.42365211248397827,"24":-1.274357795715332,"25":-1.149839997291565,"26":0.1975192129611969,"27":1.5996791124343872,"28":-0.9761590957641602,"29":-1.7889622449874878,"30":2.9892773628234863,"31":-1.9926613569259644,"32":0.7591208815574646,"33":-0.08659704029560089,"34":-3.511735200881958,"35":0.28646042943000793,"36":-0.8917860388755798,"37":-0.32653847336769104,"38":0.3502109944820404,"39":-1.4567011594772339,"40":0.5945946574211121,"41":-1.0597623586654663,"42":-0.7248295545578003,"43":-0.8400166034698486,"44":0.0021487120538949966,"45":2.1178019046783447,"46":-0.6441219449043274,"47":-1.4591865539550781,"48":2.3382279872894287,"49":-0.2640190124511719,"50":-1.3276523351669312,"51":-2.4899373054504395,"52":0.9993061423301697,"53":0.799109935760498,"54":0.5847723484039307,"55":0.393988698720932,"56":1.8135242462158203,"57":-0.9389190673828125,"58":0.982722818851471,"59":-1.4083794355392456,"60":0.17947565019130707,"61":2.2052416801452637,"62":1.228652834892273,"63":3.96561598777771,"64":4.072182655334473,"65":-2.0100722312927246,"66":0.734265923500061,"67":1.1937116384506226,"68":2.399827003479004,"69":0.49790048599243164,"70":-3.171588182449341,"71":1.2623934745788574,"72":2.6842877864837646,"73":-2.634756565093994,"74":2.6661899089813232,"75":0.505013644695282,"76":1.4565391540527344,"77":-2.0878946781158447,"78":3.3644628524780273,"79":-0.7929619550704956,"80":-3.864969491958618,"81":2.5308687686920166,"82":2.90045166015625,"83":2.9063260555267334,"84":5.122275352478027,"85":1.063821792602539,"86":-0.7843121886253357,"87":-0.9985292553901672,"88":0.8713002800941467,"89":-3.087775230407715,"90":0.3239040970802307,"91":0.8686928153038025,"92":-0.22735117375850677,"93":-3.1357667446136475,"94":1.5485178232192993,"95":-2.5215954780578613,"96":1.910183072090149,"97":-0.6679797172546387,"98":-0.16228047013282776,"99":3.907473087310791,"100":0.5674485564231873,"101":-1.717368483543396,"102":-2.403616428375244,"103":1.8997727632522583,"104":-0.901323139667511,"105":0.5156213045120239,"106":-1.5902540683746338,"107":-3.2494733333587646,"108":-2.325064182281494,"109":3.2921557426452637,"110":1.9385358095169067,"111":0.15090467035770416,"112":-0.4767684042453766,"113":-4.972461223602295,"114":2.768789291381836,"115":-2.4152421951293945,"116":2.5621612071990967,"117":2.0530831813812256,"118":-1.2347469329833984,"119":0.4243757724761963,"120":-2.0528030395507812,"121":0.7297075390815735,"122":-0.9118656516075134,"123":-2.2549233436584473,"124":-3.9773025512695312,"125":0.20719508826732635,"126":1.0454063415527344,"127":-1.2499512434005737,"128":0.8259651064872742,"129":-1.3328973054885864,"130":-3.0969197750091553,"131":0.35660964250564575,"132":-0.3764163553714752,"133":1.385522723197937,"134":1.8130888938903809,"135":-2.681151866912842,"136":-2.105586051940918,"137":-0.8830203413963318,"138":2.1315340995788574,"139":0.014495709910988808,"140":-3.521799087524414,"141":-0.9098121523857117,"142":2.1538379192352295,"143":-1.2885196208953857,"144":-0.6011814475059509,"145":-0.0883040800690651,"146":-1.0329933166503906,"147":-3.002441883087158,"148":1.5370070934295654,"149":-2.768724203109741,"150":0.21869374811649323,"151":0.24180732667446136,"152":-1.3065727949142456,"153":-1.4235366582870483,"154":-2.258418321609497,"155":0.2287566065788269,"156":0.6347988843917847,"157":-2.230539560317993,"158":-2.4425692558288574,"159":-1.313336730003357,"160":-0.9249879717826843,"161":3.202303409576416,"162":0.4569801688194275,"163":1.517683506011963,"164":3.1242825984954834,"165":1.5535292625427246,"166":2.7210640907287598,"167":2.113680362701416,"168":-1.4900329113006592,"169":0.8169310092926025,"170":2.7994179725646973,"171":-1.2517261505126953,"172":2.8403406143188477,"173":0.9678178429603577,"174":-1.412418007850647,"175":-0.0638187900185585,"176":-0.6767914891242981,"177":-4.535140514373779,"178":0.6440188884735107,"179":-0.1353907734155655,"180":0.7459452748298645,"181":0.005186890717595816,"182":-1.0840498208999634,"183":0.17859721183776855,"184":-1.3180018663406372,"185":3.468230962753296,"186":-1.1540278196334839,"187":-0.17009949684143066,"188":0.35932761430740356,"189":-3.350437641143799,"190":-3.6650240421295166,"191":-0.08910994231700897,"192":-0.6799565553665161,"193":-2.3428378105163574,"194":-1.6051616668701172,"195":0.6202058792114258,"196":-2.4384069442749023,"197":-0.14109359681606293,"198":1.7358840703964233,"199":1.6699599027633667,"200":1.3245582580566406,"201":-1.8491851091384888,"202":-4.334591388702393,"203":1.649839997291565,"204":-1.0005789995193481,"205":0.3870801627635956,"206":2.904033660888672,"207":0.8662837743759155,"208":1.1163922548294067,"209":2.4723637104034424,"210":0.3987085819244385,"211":-0.6281055212020874,"212":0.1856556385755539,"213":1.429538369178772,"214":-1.4525694847106934,"215":-2.861398220062256,"216":-0.019338982179760933,"217":0.8909751772880554,"218":-3.533332347869873,"219":3.126884698867798,"220":-1.4012912511825562,"221":-1.8206868171691895,"222":-0.7408389449119568,"223":-3.31321382522583,"224":0.8345841765403748,"225":-1.9476310014724731,"226":4.428165912628174,"227":1.2464343309402466,"228":2.0462393760681152,"229":-3.4120888710021973,"230":-1.8065736293792725,"231":-1.882948398590088,"232":-2.0009605884552,"233":-2.102327585220337,"234":0.32443493604660034,"235":-2.4193077087402344,"236":2.12036395072937,"237":-0.35556936264038086,"238":-0.2962063252925873,"239":2.5988926887512207,"240":1.687857985496521,"241":-2.2024998664855957,"242":-0.4305151402950287,"243":-1.4710426330566406,"244":4.162836074829102,"245":-0.6090468764305115,"246":0.463946670293808,"247":-2.7186672687530518,"248":-0.171861931681633,"249":1.2601499557495117,"250":-1.4603242874145508,"251":1.008649468421936,"252":-1.3081775903701782,"253":-1.316141128540039,"254":-0.010534661822021008,"255":1.0159471035003662,"256":-0.02127063274383545,"257":1.9647382497787476,"258":1.6827887296676636,"259":4.003742694854736,"260":-0.6364684104919434,"261":1.6994227170944214,"262":-1.8418946266174316,"263":-0.060936227440834045,"264":-1.8031415939331055,"265":4.978041172027588,"266":3.2342817783355713,"267":-0.5981534123420715,"268":1.341060996055603,"269":0.17091716825962067,"270":2.0314290523529053,"271":0.9560715556144714,"272":2.0865652561187744,"273":1.0727981328964233,"274":2.6809287071228027,"275":1.316909670829773,"276":-1.7228505611419678,"277":0.19357891380786896,"278":-0.6321180462837219,"279":-1.0068992376327515,"280":-1.0188097953796387,"281":0.9561986327171326,"282":-1.3110994100570679,"283":-0.9630829095840454,"284":-1.186031699180603,"285":-3.0471763610839844,"286":0.1295890063047409,"287":-1.3141131401062012,"288":-0.009184183552861214,"289":0.6203861236572266,"290":0.13499672710895538,"291":-2.153576374053955,"292":-0.04625733196735382,"293":2.5979743003845215,"294":-0.31283190846443176,"295":-1.8538600206375122,"296":1.9874175786972046,"297":1.4092251062393188,"298":-1.0713809728622437,"299":-1.3370858430862427,"300":-2.737522840499878,"301":-1.5720072984695435,"302":-0.6533107757568359,"303":-1.1503134965896606,"304":0.9182285666465759,"305":0.8552433848381042,"306":-1.95205819606781,"307":0.5810348987579346,"308":0.8924621939659119,"309":-0.651016116142273,"310":0.7941392660140991,"311":0.559105396270752,"312":-2.7545695304870605,"313":-1.2481498718261719,"314":2.21938419342041,"315":1.5035350322723389,"316":-1.3830524682998657,"317":3.44435715675354,"318":-4.32025146484375,"319":1.6837161779403687,"320":-0.26586589217185974,"321":0.48649194836616516,"322":2.628268241882324,"323":-0.8777942061424255,"324":-0.3706803321838379,"325":-2.115652561187744,"326":-0.6973234415054321,"327":0.10633869469165802,"328":-1.5234826803207397,"329":2.2055070400238037,"330":0.49744629859924316,"331":0.5599263310432434,"332":-0.8959552049636841,"333":1.0511335134506226,"334":0.6056587100028992,"335":-0.5694621205329895,"336":0.8581289649009705,"337":3.9009597301483154,"338":0.4383797347545624,"339":0.05518364533782005,"340":-0.23690709471702576,"341":2.2658979892730713,"342":-2.2906723022460938,"343":-2.0232903957366943,"344":3.1023201942443848,"345":0.619789719581604,"346":0.10922364890575409,"347":-0.9735397100448608,"348":-3.69201397895813,"349":-0.32395270466804504,"350":-2.3120131492614746,"351":1.4198739528656006,"352":0.7084022760391235,"353":2.1200907230377197,"354":-0.24915733933448792,"355":-1.9279242753982544,"356":-0.6448018550872803,"357":-1.106615424156189,"358":1.8451666831970215,"359":-3.2131428718566895,"360":1.0343481302261353,"361":-2.8407044410705566,"362":0.8585918545722961,"363":-2.7020246982574463,"364":-1.3001660108566284,"365":1.5233383178710938,"366":-2.5986218452453613,"367":-0.9923519492149353,"368":1.878631353378296,"369":0.07305749505758286,"370":-0.16446349024772644,"371":-0.3701472878456116,"372":1.1114603281021118,"373":-1.743746042251587,"374":0.8768206834793091,"375":0.046607088297605515,"376":1.8009690046310425,"377":1.5947710275650024,"378":-0.040841083973646164,"379":-1.1168169975280762,"380":-2.4981729984283447,"381":3.324633836746216,"382":0.6167443990707397,"383":-0.7004863619804382,"384":2.0641496181488037,"385":1.0493618249893188,"386":1.736201286315918,"387":-2.6525650024414062,"388":1.6647177934646606,"389":1.1405739784240723,"390":-1.1934670209884644,"391":-2.3632683753967285,"392":-0.9467477798461914,"393":0.9060614705085754,"394":-0.2522051930427551,"395":1.2345802783966064,"396":-3.1128389835357666,"397":0.28905126452445984,"398":-1.543265700340271,"399":0.2622097134590149,"400":-2.220773458480835,"401":-0.03990809991955757,"402":-3.781207323074341,"403":-1.1434489488601685,"404":1.1345574855804443,"405":1.0703647136688232,"406":-1.6006072759628296,"407":-4.722654342651367,"408":-1.8661974668502808,"409":0.3362707495689392,"410":-3.5775461196899414,"411":-1.7473899126052856,"412":-2.958991050720215,"413":0.012427124194800854,"414":3.340790271759033,"415":-1.3094252347946167,"416":0.04705192521214485,"417":-1.0422611236572266,"418":1.3917714357376099,"419":-1.9758837223052979,"420":-1.1378936767578125,"421":-1.5330651998519897,"422":0.014264160767197609,"423":-0.7578160762786865,"424":0.34836292266845703,"425":1.0142256021499634,"426":-1.9671281576156616,"427":0.493511438369751,"428":0.08183281123638153,"429":-1.7113335132598877,"430":1.580440878868103,"431":0.8999617695808411,"432":-0.0494571216404438,"433":2.9480724334716797,"434":-1.0487829446792603,"435":-2.783409595489502,"436":1.9308160543441772,"437":2.808816909790039,"438":0.6266974210739136,"439":-1.4503899812698364,"440":3.101234197616577,"441":-1.0153093338012695,"442":-0.6888637542724609,"443":2.2398109436035156,"444":-1.155609130859375,"445":1.3396645784378052,"446":-4.251902103424072,"447":2.1206929683685303,"448":0.053547754883766174,"449":-2.837958812713623,"450":-0.3220863342285156,"451":1.616736650466919,"452":0.4850594103336334,"453":1.1057617664337158,"454":1.0428060293197632,"455":-0.45809340476989746,"456":-1.6661676168441772,"457":0.29729726910591125,"458":-0.5640608668327332,"459":-0.5159664750099182,"460":1.681849718093872,"461":-3.8740673065185547,"462":-1.9648923873901367,"463":-0.4414978325366974,"464":-2.290334701538086,"465":1.140162467956543,"466":-1.473960518836975,"467":0.89555823802948,"468":0.8412736058235168,"469":-1.2301685810089111,"470":-2.46891188621521,"471":-0.16529232263565063,"472":2.8032541275024414,"473":-4.5280375480651855,"474":0.8445315361022949,"475":-0.8393027186393738,"476":-4.838446617126465,"477":-0.5626879334449768,"478":0.016368277370929718,"479":-0.1767474114894867,"480":1.7363536357879639,"481":1.1392220258712769,"482":-0.14371512830257416,"483":-0.061551883816719055,"484":-0.9894458055496216,"485":-0.13534851372241974,"486":1.7096351385116577,"487":-0.960682213306427,"488":2.14443302154541,"489":-4.798009395599365,"490":1.7168031930923462,"491":-2.227388381958008,"492":-0.967731773853302,"493":-0.9169604778289795,"494":-0.8508149981498718,"495":1.4450150728225708,"496":0.23055054247379303,"497":0.09957665950059891,"498":1.7886881828308105,"499":1.3270548582077026,"500":0.023192010819911957,"501":-3.0239651203155518,"502":0.5428175926208496,"503":-0.38245561718940735,"504":0.6941604018211365,"505":-0.4237324595451355,"506":0.7672125697135925,"507":2.652329683303833,"508":-0.003790244460105896,"509":3.0010969638824463,"510":-5.290298938751221,"511":2.545618772506714,"512":3.1912295818328857,"513":-2.170552968978882,"514":3.083759069442749,"515":0.5039331316947937,"516":-0.8846988677978516,"517":1.557459831237793,"518":1.278805136680603,"519":-0.4884713292121887,"520":0.7572169303894043,"521":-3.878338098526001,"522":-2.714066743850708,"523":-0.24851387739181519,"524":-0.7169171571731567,"525":-2.0106918811798096,"526":-0.4330885112285614,"527":2.496386766433716,"528":-1.9260139465332031,"529":1.8745338916778564,"530":0.6887754797935486,"531":-0.10522906482219696,"532":0.9289299249649048,"533":2.890650987625122,"534":-4.600388526916504,"535":-0.5275990962982178,"536":-0.5721110105514526,"537":-4.374519348144531,"538":0.15440772473812103,"539":1.7366759777069092,"540":0.9059171080589294,"541":0.29047542810440063,"542":1.329569935798645,"543":-0.8141529560089111,"544":3.4263007640838623,"545":1.6649713516235352,"546":2.1660263538360596,"547":0.11092934012413025,"548":0.7708054780960083,"549":-2.225968837738037,"550":0.2095145881175995,"551":1.2209062576293945,"552":2.5156044960021973,"553":1.7909730672836304,"554":-1.5817569494247437,"555":1.366306185722351,"556":-0.6426883935928345,"557":0.6069493293762207,"558":0.5759126543998718,"559":0.26609930396080017,"560":0.5392524003982544,"561":2.0481514930725098,"562":-2.2465171813964844,"563":-1.6758047342300415,"564":1.7965643405914307,"565":-0.8356295228004456,"566":0.6017706394195557,"567":3.358881711959839,"568":0.2591250240802765,"569":0.3240765631198883,"570":-1.38209068775177,"571":0.7220047116279602,"572":-1.0305017232894897,"573":2.45872163772583,"574":4.131989479064941,"575":1.1455979347229004,"576":0.14476367831230164,"577":-1.6117314100265503,"578":-4.035677909851074,"579":0.9104043245315552,"580":-2.3843889236450195,"581":0.3351633548736572,"582":-0.5615322589874268,"583":3.7614858150482178,"584":-0.981345534324646,"585":-0.6679777503013611,"586":1.6969014406204224,"587":0.6579291224479675,"588":1.5096042156219482,"589":-4.413919925689697,"590":-2.4001989364624023,"591":3.349785566329956,"592":0.4719112813472748,"593":-3.0362985134124756,"594":-0.5050380229949951,"595":-1.7805140018463135,"596":0.7844697833061218,"597":2.9999778270721436,"598":-0.3886362612247467,"599":1.2029168605804443,"600":-1.4281525611877441,"601":0.994688093662262,"602":-0.7039353847503662,"603":2.209251880645752,"604":1.3655229806900024,"605":2.6908936500549316,"606":0.16263119876384735,"607":0.38236474990844727,"608":2.1969525814056396,"609":3.0956923961639404,"610":1.9176324605941772,"611":-1.8458327054977417,"612":1.5519044399261475,"613":2.1032278537750244,"614":0.34341996908187866,"615":-1.3629182577133179,"616":-1.9875361919403076,"617":-1.5039033889770508,"618":-0.113488107919693,"619":1.4677258729934692,"620":-0.2525102198123932,"621":-1.1561428308486938,"622":-1.2368820905685425,"623":-1.5990777015686035,"624":-2.9090259075164795,"625":-1.796858310699463,"626":5.486169815063477,"627":0.22596891224384308,"628":1.3047116994857788,"629":2.322094678878784,"630":3.098628044128418,"631":-2.1880829334259033,"632":-2.677795648574829,"633":0.4327830672264099,"634":-1.0536001920700073,"635":3.9074833393096924,"636":0.5026174187660217,"637":0.8660076260566711,"638":-1.2673693895339966,"639":-2.2554352283477783,"640":-0.6975598335266113,"641":0.6224567294120789,"642":1.5224583148956299,"643":1.1433451175689697,"644":-1.4094045162200928,"645":-2.126406669616699,"646":2.4240682125091553,"647":-1.3858883380889893,"648":4.3515095710754395,"649":1.8965907096862793,"650":0.8013866543769836,"651":-1.2705543041229248,"652":1.5357991456985474,"653":4.236232280731201,"654":2.767035484313965,"655":-0.5650021433830261,"656":2.2117068767547607,"657":0.10190362483263016,"658":-0.6988937854766846,"659":1.5371313095092773,"660":0.27411574125289917,"661":1.640876054763794,"662":-1.4645129442214966,"663":3.2696049213409424,"664":1.2207962274551392,"665":-0.857751727104187,"666":-4.759459018707275,"667":1.1806011199951172,"668":1.0795494318008423,"669":1.7526566982269287,"670":-0.9285539984703064,"671":-2.1115200519561768,"672":-0.6632183194160461,"673":0.42810380458831787,"674":-1.1935241222381592,"675":3.599402666091919,"676":-0.49038735032081604,"677":1.0145165920257568,"678":0.6540102362632751,"679":2.1014490127563477,"680":-0.5233626961708069,"681":-2.735095500946045,"682":2.9242029190063477,"683":0.2547461688518524,"684":-0.2191673219203949,"685":0.248401939868927,"686":-2.398723602294922,"687":2.6299519538879395,"688":-0.9651386737823486,"689":0.4464680254459381,"690":3.644803285598755,"691":-1.0004764795303345,"692":1.477646827697754,"693":-0.37902507185935974,"694":-2.258114814758301,"695":1.9297423362731934,"696":-0.3910423517227173,"697":0.9951995611190796,"698":3.0421700477600098,"699":1.386460542678833,"700":-1.5351970195770264,"701":-0.011400343850255013,"702":-1.8762352466583252,"703":0.6703759431838989,"704":1.1135022640228271,"705":-2.177922248840332,"706":0.11320509016513824,"707":-0.2986035645008087,"708":-0.11708823591470718,"709":-2.218224287033081,"710":-1.0888664722442627,"711":-0.17262353003025055,"712":-4.428676128387451,"713":-2.4108405113220215,"714":1.0210011005401611,"715":2.6302523612976074,"716":-3.8778555393218994,"717":-1.9586857557296753,"718":-0.9373487234115601,"719":-2.4947257041931152,"720":-1.6287606954574585,"721":-2.609624147415161,"722":-1.2093067169189453,"723":1.780219554901123,"724":0.6801251769065857,"725":-0.20360307395458221,"726":1.7498197555541992,"727":0.32330235838890076,"728":-3.3476641178131104,"729":-0.04350409284234047,"730":-0.6786921620368958,"731":-1.8354429006576538,"732":1.1807698011398315,"733":3.884089708328247,"734":-1.253246784210205,"735":-0.08336052298545837,"736":1.3503440618515015,"737":-0.892833948135376,"738":-3.2964282035827637,"739":-2.778891086578369,"740":-1.7782320976257324,"741":-1.3684842586517334,"742":1.2449030876159668,"743":-0.41048306226730347,"744":-3.0797805786132812,"745":4.600647449493408,"746":-0.17989103496074677,"747":-1.0451551675796509,"748":-1.1792149543762207,"749":0.8996425867080688,"750":2.0410068035125732,"751":1.3586410284042358,"752":0.43620774149894714,"753":-0.2165016233921051,"754":1.5441657304763794,"755":0.9405447244644165,"756":1.6781346797943115,"757":0.3873559832572937,"758":-1.2280305624008179,"759":-1.1815261840820312,"760":2.091008424758911,"761":-0.03194091096520424,"762":-0.2415250837802887,"763":1.5712559223175049,"764":-1.7261492013931274,"765":0.367351770401001,"766":2.583202838897705,"767":-2.015556573867798,"768":2.022380828857422,"769":0.17276273667812347,"770":-0.11147217452526093,"771":-0.5021536350250244,"772":-0.519752025604248,"773":-0.702871561050415,"774":-3.9324073791503906,"775":1.7236934900283813,"776":-0.9802679419517517,"777":-1.6489274501800537,"778":-0.7908647656440735,"779":0.17530682682991028,"780":0.31754541397094727,"781":0.235938161611557,"782":-3.321118116378784,"783":-0.3914588391780853,"784":-0.9106111526489258,"785":2.697601318359375,"786":3.1605308055877686,"787":-0.15091364085674286,"788":0.06423630565404892,"789":2.538518190383911,"790":-0.9830695986747742,"791":1.1054929494857788,"792":-3.862049102783203,"793":-0.18309247493743896,"794":0.5557408332824707,"795":-2.2487661838531494,"796":2.830353021621704,"797":2.3353865146636963,"798":-2.5871784687042236,"799":-2.0894479751586914,"800":2.488164186477661,"801":0.41119471192359924,"802":-1.972535252571106,"803":-1.25204598903656,"804":0.2091648131608963,"805":-1.3612552881240845,"806":0.360260546207428,"807":1.1363377571105957,"808":3.500737190246582,"809":-1.5552760362625122,"810":-1.0069576501846313,"811":-0.181192547082901,"812":-1.9320833683013916,"813":3.9488871097564697,"814":2.0530643463134766,"815":1.7082924842834473,"816":-1.844706654548645,"817":1.0625650882720947,"818":2.2899913787841797,"819":-4.054360389709473}},"inputHidden":{"rows":20,"columns":20,"weights":{"0":2.084484577178955,"1":-2.038550615310669,"2":1.3213753700256348,"3":-0.4156748354434967,"4":1.9600250720977783,"5":0.4603271782398224,"6":0.8433910012245178,"7":-2.1475555896759033,"8":2.3585801124572754,"9":0.9887012839317322,"10":0.3223187327384949,"11":-4.805437088012695,"12":1.4595459699630737,"13":0.6061503291130066,"14":-1.3144441843032837,"15":0.05547124519944191,"16":-1.7792847156524658,"17":-2.516873836517334,"18":-2.379746675491333,"19":-0.6123023629188538,"20":-1.8023555278778076,"21":0.10249628126621246,"22":-1.9880812168121338,"23":2.6685941219329834,"24":-1.132929801940918,"25":-0.2876755893230438,"26":-1.8297175168991089,"27":1.5178226232528687,"28":-0.17193421721458435,"29":2.542168617248535,"30":-1.5731841325759888,"31":1.591457724571228,"32":0.7384618520736694,"33":-0.05110759288072586,"34":3.3015341758728027,"35":2.592191696166992,"36":-4.80736780166626,"37":-2.5020627975463867,"38":-0.14029139280319214,"39":3.6783058643341064,"40":-0.7408332824707031,"41":-1.5416131019592285,"42":4.783867359161377,"43":4.249929428100586,"44":1.0769838094711304,"45":4.163973331451416,"46":2.1666855812072754,"47":1.4700658321380615,"48":2.550811290740967,"49":0.5234105587005615,"50":-0.14945732057094574,"51":3.0746829509735107,"52":3.5345821380615234,"53":8.031266212463379,"54":6.776281833648682,"55":-0.7030817866325378,"56":-4.560406684875488,"57":-1.90989089012146,"58":2.3796684741973877,"59":1.6687607765197754,"60":6.377621173858643,"61":-5.982186794281006,"62":-0.1740880161523819,"63":2.1221046447753906,"64":2.2302651405334473,"65":-2.7414839267730713,"66":3.8303885459899902,"67":2.117152214050293,"68":-9.057849884033203,"69":2.414827585220337,"70":-1.8718212842941284,"71":-7.638453006744385,"72":6.813718795776367,"73":-7.2314252853393555,"74":6.2439093589782715,"75":2.1207480430603027,"76":-3.4932515621185303,"77":-0.9509170651435852,"78":-5.419842720031738,"79":-3.7098960876464844,"80":2.6250498294830322,"81":2.3186144828796387,"82":-5.041553020477295,"83":-1.9724034070968628,"84":5.755475997924805,"85":-2.951869249343872,"86":-0.12428432703018188,"87":-1.570471167564392,"88":0.9943418502807617,"89":-0.7895958423614502,"90":-1.8475008010864258,"91":-0.8362641930580139,"92":-2.3033292293548584,"93":-2.196798324584961,"94":0.9183315634727478,"95":-1.9733127355575562,"96":-4.102799415588379,"97":-3.6871681213378906,"98":-2.317969799041748,"99":-4.315854072570801,"100":1.6738533973693848,"101":-4.925177574157715,"102":0.35150420665740967,"103":3.8960201740264893,"104":3.9800469875335693,"105":0.5415149331092834,"106":2.9133412837982178,"107":-0.8934801816940308,"108":-4.9849395751953125,"109":0.8366177082061768,"110":-2.672588586807251,"111":6.505949974060059,"112":0.6540259718894958,"113":4.893264293670654,"114":7.932125091552734,"115":3.1516780853271484,"116":-3.175205945968628,"117":3.8167564868927,"118":-7.87558126449585,"119":-0.02518686279654503,"120":0.8757951855659485,"121":-5.903066158294678,"122":4.554135322570801,"123":7.065521717071533,"124":-6.027807235717773,"125":-2.437946319580078,"126":0.7457872033119202,"127":2.9635770320892334,"128":1.3407726287841797,"129":-3.3116064071655273,"130":0.9700923562049866,"131":-5.773838520050049,"132":7.107850551605225,"133":-5.61069917678833,"134":-1.4380836486816406,"135":-1.8196122646331787,"136":2.9128215312957764,"137":-0.35770565271377563,"138":1.8856412172317505,"139":-0.5059802532196045,"140":0.30835363268852234,"141":-0.32144901156425476,"142":-0.5163120627403259,"143":-0.12450212240219116,"144":-4.322838306427002,"145":0.8838882446289062,"146":0.6259589791297913,"147":-2.7861485481262207,"148":1.807685136795044,"149":-5.63087272644043,"150":-4.0209245681762695,"151":4.600151538848877,"152":-0.5423402190208435,"153":1.5301872491836548,"154":-5.642712116241455,"155":-0.4882921874523163,"156":-0.8876408934593201,"157":0.9381366968154907,"158":-0.12864360213279724,"159":0.1637428253889084,"160":1.8460757732391357,"161":-3.483180522918701,"162":-0.41535434126853943,"163":3.985008955001831,"164":1.690900444984436,"165":6.013550758361816,"166":0.10524511337280273,"167":-0.16728952527046204,"168":3.904797315597534,"169":-5.015046119689941,"170":-2.32912278175354,"171":0.7386687994003296,"172":-0.2029961496591568,"173":-4.331469535827637,"174":-4.214612007141113,"175":2.223794460296631,"176":1.0136350393295288,"177":-5.6297607421875,"178":7.1631340980529785,"179":2.2329819202423096,"180":2.4118807315826416,"181":0.7688844799995422,"182":-1.0315135717391968,"183":-0.46342259645462036,"184":-2.2691516876220703,"185":-0.6914702653884888,"186":-2.2252445220947266,"187":4.818841934204102,"188":2.4964442253112793,"189":-1.6387906074523926,"190":-2.0989112854003906,"191":-1.1506434679031372,"192":-5.605223655700684,"193":4.012712001800537,"194":-3.393333673477173,"195":-4.4911112785339355,"196":-0.6784144043922424,"197":1.008013367652893,"198":-1.5960779190063477,"199":3.702054262161255,"200":-0.5001345872879028,"201":3.2392497062683105,"202":0.7772960066795349,"203":-0.028749752789735794,"204":-2.7036731243133545,"205":-0.47608107328414917,"206":0.7244681119918823,"207":1.3783926963806152,"208":2.485792398452759,"209":-0.7395495176315308,"210":-1.963024377822876,"211":1.8968647718429565,"212":2.6496055126190186,"213":0.18270328640937805,"214":-3.306612730026245,"215":1.7692897319793701,"216":-1.7737414836883545,"217":-2.086501359939575,"218":1.814639925956726,"219":-0.45460250973701477,"220":-1.5182609558105469,"221":3.698882579803467,"222":0.7750877737998962,"223":1.2558914422988892,"224":-3.0843026638031006,"225":0.357451468706131,"226":-1.6196670532226562,"227":0.4937041699886322,"228":5.918889999389648,"229":1.0010713338851929,"230":-0.4134816825389862,"231":-0.8050563931465149,"232":-0.9475529789924622,"233":5.122148036956787,"234":3.6993887424468994,"235":-5.4979681968688965,"236":-7.460011005401611,"237":-3.580960750579834,"238":-2.90604305267334,"239":0.18606124818325043,"240":3.9783904552459717,"241":-0.4994240701198578,"242":-2.008866310119629,"243":0.5432085394859314,"244":-1.5106970071792603,"245":-0.07323241233825684,"246":-1.0934648513793945,"247":0.21271434426307678,"248":2.439814805984497,"249":2.438347578048706,"250":-0.7474614381790161,"251":0.44586366415023804,"252":1.6201618909835815,"253":0.21570642292499542,"254":-4.481595993041992,"255":-1.303123116493225,"256":0.9358720779418945,"257":-1.35994291305542,"258":-0.8094729781150818,"259":-3.1623573303222656,"260":-4.105345726013184,"261":-2.6867892742156982,"262":-4.855290412902832,"263":-1.099441647529602,"264":-1.5936923027038574,"265":1.514051079750061,"266":-1.217360019683838,"267":2.2606709003448486,"268":-2.368765354156494,"269":5.299792289733887,"270":2.3425652980804443,"271":1.783704400062561,"272":-1.4422036409378052,"273":0.8260050415992737,"274":0.5616004467010498,"275":2.375481605529785,"276":-0.23016434907913208,"277":1.352522850036621,"278":2.1581404209136963,"279":3.73062801361084,"280":-1.2560992240905762,"281":2.4339330196380615,"282":-0.29962149262428284,"283":-1.9240325689315796,"284":-2.438783645629883,"285":-3.1503798961639404,"286":-3.746481418609619,"287":0.5868260264396667,"288":1.1058051586151123,"289":0.8527637124061584,"290":0.1936669498682022,"291":1.4902957677841187,"292":-3.9535508155822754,"293":-1.4690548181533813,"294":4.497114658355713,"295":-2.805601119995117,"296":1.0411678552627563,"297":-1.4502615928649902,"298":0.6466546058654785,"299":1.476186752319336,"300":7.128641128540039,"301":-6.55155086517334,"302":9.30742359161377,"303":-1.4198802709579468,"304":2.551201105117798,"305":1.9269142150878906,"306":6.800951957702637,"307":6.4015069007873535,"308":-5.028212547302246,"309":0.333225816488266,"310":0.8551881313323975,"311":-4.177587509155273,"312":7.819849967956543,"313":10.23606014251709,"314":0.26772090792655945,"315":0.4859296381473541,"316":-3.525491714477539,"317":2.8396146297454834,"318":-9.738353729248047,"319":0.9845551252365112,"320":0.09390581399202347,"321":2.062911033630371,"322":-3.7321481704711914,"323":-1.7151321172714233,"324":2.112342357635498,"325":2.1412527561187744,"326":4.241419792175293,"327":-0.9470975995063782,"328":-5.6494646072387695,"329":8.940167427062988,"330":-2.5165135860443115,"331":10.377326965332031,"332":0.716816246509552,"333":1.3908747434616089,"334":3.4846749305725098,"335":-4.929526329040527,"336":-4.295179843902588,"337":-0.824249804019928,"338":-2.665219783782959,"339":-1.040113925933838,"340":-2.0778989791870117,"341":-0.666558027267456,"342":4.052604675292969,"343":-0.6052137017250061,"344":6.380936145782471,"345":1.821530818939209,"346":3.440053939819336,"347":1.610652208328247,"348":3.8682384490966797,"349":-1.3189517259597778,"350":-1.9953281879425049,"351":-0.6447188258171082,"352":-3.9752330780029297,"353":1.3691487312316895,"354":1.1082557439804077,"355":2.2809157371520996,"356":4.233222007751465,"357":5.224328517913818,"358":0.1960422694683075,"359":4.044893741607666,"360":-0.5771433711051941,"361":-2.190228223800659,"362":1.0710811614990234,"363":2.5707168579101562,"364":0.12501557171344757,"365":-2.173161506652832,"366":0.8364322781562805,"367":4.427403450012207,"368":2.19953989982605,"369":1.7156634330749512,"370":0.07251229882240295,"371":1.9066323041915894,"372":2.79634952545166,"373":-0.13143619894981384,"374":0.5978394746780396,"375":0.6262221336364746,"376":0.879308819770813,"377":-0.37961962819099426,"378":2.917649030685425,"379":1.3310086727142334,"380":2.4858558177948,"381":-5.326798439025879,"382":-0.6461108922958374,"383":2.7482311725616455,"384":0.6718589067459106,"385":-0.7875049114227295,"386":1.764674425125122,"387":5.410859107971191,"388":-2.091135025024414,"389":-0.9657871127128601,"390":-1.4215785264968872,"391":-8.135764122009277,"392":-3.785076856613159,"393":-3.8495538234710693,"394":1.2635244131088257,"395":8.678855895996094,"396":0.8292515873908997,"397":-0.06970434635877609,"398":0.8652833104133606,"399":-0.31999894976615906}},"inputBias":{"rows":20,"columns":1,"weights":{"0":2.1220505237579346,"1":0.018599046394228935,"2":-1.1965782642364502,"3":-2.1582460403442383,"4":-1.2526968717575073,"5":-2.2847719192504883,"6":-1.0199496746063232,"7":-1.2052432298660278,"8":-0.6001698970794678,"9":-0.8494147062301636,"10":-0.08268540352582932,"11":-0.6119805574417114,"12":-2.548349618911743,"13":-0.05666008219122887,"14":2.601616382598877,"15":-0.04219980537891388,"16":-0.5485624074935913,"17":-1.3009634017944336,"18":-0.9862187504768372,"19":-1.6190099716186523}},"forgetMatrix":{"rows":20,"columns":41,"weights":{"0":-2.0284409523010254,"1":-1.541293978691101,"2":-1.960169792175293,"3":-0.011235575191676617,"4":-0.11888494342565536,"5":0.018926577642560005,"6":-1.918796181678772,"7":0.5146481990814209,"8":-1.2134993076324463,"9":0.09197377413511276,"10":3.4784810543060303,"11":0.007946738973259926,"12":-0.6700981855392456,"13":0.4026281535625458,"14":1.5606513023376465,"15":-0.8331667184829712,"16":-0.21389620006084442,"17":2.0071306228637695,"18":0.4725554287433624,"19":-1.6631067991256714,"20":0.22225505113601685,"21":-0.5914822220802307,"22":1.3250277042388916,"23":-0.04661516100168228,"24":-0.25232529640197754,"25":0.8856992721557617,"26":-2.686910629272461,"27":-0.10832478106021881,"28":0.7233144044876099,"29":-0.5931215286254883,"30":0.26573264598846436,"31":-1.2634928226470947,"32":-2.7340121269226074,"33":0.5640323162078857,"34":-0.8119922280311584,"35":1.2085551023483276,"36":-4.162920951843262,"37":0.501106321811676,"38":1.8174408674240112,"39":-0.5382618308067322,"40":1.3242508172988892,"41":0.706821084022522,"42":-1.8539470434188843,"43":-2.043715000152588,"44":-2.0817103385925293,"45":-2.92673659324646,"46":0.9477945566177368,"47":2.1889543533325195,"48":4.871901512145996,"49":0.25699543952941895,"50":-2.6675500869750977,"51":-1.1501374244689941,"52":0.1521913707256317,"53":0.7633509039878845,"54":-2.4771695137023926,"55":0.1163572147488594,"56":-2.0452158451080322,"57":-2.864522695541382,"58":3.1498360633850098,"59":-3.0361924171447754,"60":-1.5618714094161987,"61":-0.00403668824583292,"62":0.8216759562492371,"63":-0.02467203512787819,"64":-3.8295464515686035,"65":-0.4401375353336334,"66":-0.40897664427757263,"67":-0.06932374835014343,"68":4.88217830657959,"69":3.503852128982544,"70":0.525948703289032,"71":-1.8321912288665771,"72":0.3826994001865387,"73":-3.5942912101745605,"74":-0.5565630197525024,"75":3.276441812515259,"76":0.5879039168357849,"77":1.5260202884674072,"78":-1.975693702697754,"79":-0.341770201921463,"80":0.8576669692993164,"81":0.5424087643623352,"82":-1.0896565914154053,"83":-2.099043846130371,"84":-1.3425883054733276,"85":-1.5437039136886597,"86":-1.1714434623718262,"87":0.23625847697257996,"88":-0.9109107255935669,"89":0.8910504579544067,"90":-0.6527760028839111,"91":-0.4218709170818329,"92":-0.6318368911743164,"93":2.370474100112915,"94":-3.3463239669799805,"95":1.1886718273162842,"96":-0.18740975856781006,"97":0.14486652612686157,"98":1.0157115459442139,"99":-0.047850582748651505,"100":-1.9049904346466064,"101":0.6231616735458374,"102":0.3275795578956604,"103":-1.9902608394622803,"104":3.5400333404541016,"105":0.8176126480102539,"106":-1.8853704929351807,"107":3.2478413581848145,"108":1.591773509979248,"109":-1.3986684083938599,"110":-0.14643393456935883,"111":-0.3130994737148285,"112":-2.696598529815674,"113":2.5174334049224854,"114":-0.510755181312561,"115":0.011958787217736244,"116":-1.7271647453308105,"117":-2.4836533069610596,"118":-0.7331088781356812,"119":0.8797757625579834,"120":3.6470556259155273,"121":1.41014564037323,"122":3.6826329231262207,"123":-2.2090559005737305,"124":-1.7195724248886108,"125":-1.6735621690750122,"126":-0.35852041840553284,"127":2.0036721229553223,"128":-1.3025928735733032,"129":-3.2392280101776123,"130":4.207918643951416,"131":-0.7644944190979004,"132":-0.3453879654407501,"133":1.8517802953720093,"134":1.1114559173583984,"135":-1.2675637006759644,"136":3.9315853118896484,"137":2.4682846069335938,"138":0.3341180980205536,"139":0.18233628571033478,"140":0.3265026807785034,"141":1.9293378591537476,"142":1.7477587461471558,"143":1.7194643020629883,"144":-0.1948770433664322,"145":0.9348517656326294,"146":1.7206928730010986,"147":-0.9773859977722168,"148":1.3502864837646484,"149":-0.8560720682144165,"150":0.06561680883169174,"151":0.4391726851463318,"152":-1.7144849300384521,"153":-0.3756910562515259,"154":-0.15976396203041077,"155":-2.8335673809051514,"156":-0.9082514047622681,"157":-1.552735686302185,"158":1.8455967903137207,"159":-3.023052930831909,"160":2.3031370639801025,"161":1.40937340259552,"162":-0.7226783037185669,"163":0.32318517565727234,"164":-5.653748989105225,"165":-3.328615427017212,"166":-3.1872072219848633,"167":-0.058911047875881195,"168":3.0366952419281006,"169":0.8720789551734924,"170":1.4569517374038696,"171":1.511465311050415,"172":0.9002071619033813,"173":-2.309941530227661,"174":-1.870688796043396,"175":2.719867706298828,"176":-0.07843535393476486,"177":1.002082109451294,"178":-1.5373663902282715,"179":-0.6209666728973389,"180":-4.18756628036499,"181":-0.4250629246234894,"182":1.7286654710769653,"183":2.455620527267456,"184":1.4251165390014648,"185":-0.054521460086107254,"186":-0.8925608992576599,"187":1.1508409976959229,"188":0.1943991631269455,"189":1.9005241394042969,"190":-0.3620149791240692,"191":0.29999008774757385,"192":4.429411888122559,"193":-2.4122560024261475,"194":-1.7790977954864502,"195":2.6766674518585205,"196":0.9550520181655884,"197":1.5866416692733765,"198":0.552100658416748,"199":1.124985694885254,"200":-1.2985124588012695,"201":1.7452771663665771,"202":2.1700196266174316,"203":-1.4826602935791016,"204":0.10959937423467636,"205":1.709043264389038,"206":1.1639759540557861,"207":-0.29025590419769287,"208":-0.5602384805679321,"209":-1.4584378004074097,"210":0.7392085194587708,"211":1.0139846801757812,"212":-2.3063669204711914,"213":3.206511974334717,"214":3.8752171993255615,"215":0.8563383221626282,"216":-0.5719231963157654,"217":1.1137068271636963,"218":-0.64301997423172,"219":1.3221111297607422,"220":-0.3663577139377594,"221":-0.4126656949520111,"222":2.9110872745513916,"223":-0.592006504535675,"224":-0.931907057762146,"225":-1.0454951524734497,"226":-1.603887677192688,"227":-1.6666213274002075,"228":3.7729692459106445,"229":0.5324620604515076,"230":-1.5687721967697144,"231":-2.552701234817505,"232":0.27792832255363464,"233":3.2082016468048096,"234":-1.5881506204605103,"235":0.732164204120636,"236":-0.8368180990219116,"237":-0.6356593370437622,"238":-0.7183894515037537,"239":-0.1617060899734497,"240":2.277928590774536,"241":2.056478261947632,"242":-2.2506346702575684,"243":-1.208861231803894,"244":0.3467940390110016,"245":1.0763829946517944,"246":-0.2579289376735687,"247":-2.0980231761932373,"248":-0.890738844871521,"249":2.110686779022217,"250":2.1529061794281006,"251":0.151333749294281,"252":0.3689923584461212,"253":5.572954177856445,"254":-1.1320650577545166,"255":-1.876476764678955,"256":-1.3103256225585938,"257":-1.5381646156311035,"258":0.5348768830299377,"259":0.18347914516925812,"260":-0.32754334807395935,"261":2.9655163288116455,"262":-2.2498981952667236,"263":3.1566977500915527,"264":-3.3154845237731934,"265":-2.0285184383392334,"266":1.8780360221862793,"267":-0.5216898918151855,"268":1.997531533241272,"269":1.5064934492111206,"270":-2.405972719192505,"271":0.785358726978302,"272":2.195591449737549,"273":2.279876470565796,"274":0.08133063465356827,"275":-0.38644149899482727,"276":-0.6935202479362488,"277":-0.4975329339504242,"278":1.3420469760894775,"279":-1.2463970184326172,"280":-0.49192771315574646,"281":0.11175909638404846,"282":-1.5529695749282837,"283":1.4600801467895508,"284":-0.8236181139945984,"285":1.4865456819534302,"286":-1.1673071384429932,"287":-0.7432619333267212,"288":0.6012194752693176,"289":-3.1195616722106934,"290":-1.0147229433059692,"291":0.07745354622602463,"292":-0.3866865336894989,"293":2.595604181289673,"294":0.16218875348567963,"295":0.4459775686264038,"296":-0.26980721950531006,"297":2.448641538619995,"298":-1.172713279724121,"299":-1.8707671165466309,"300":-2.5002801418304443,"301":-1.0905869007110596,"302":-2.8787167072296143,"303":-1.0599106550216675,"304":-2.0683326721191406,"305":0.8295959830284119,"306":-0.38666224479675293,"307":-0.699296236038208,"308":-0.8446760773658752,"309":-3.0924973487854004,"310":-1.1280227899551392,"311":-1.5173001289367676,"312":1.5700676441192627,"313":-1.3344240188598633,"314":2.1283600330352783,"315":2.188295602798462,"316":-3.5945472717285156,"317":0.2504827380180359,"318":-1.6997078657150269,"319":-0.298777312040329,"320":0.04463886097073555,"321":-0.816573441028595,"322":0.2729780673980713,"323":-1.855948805809021,"324":2.669334650039673,"325":-1.8907164335250854,"326":-1.6793904304504395,"327":1.9312660694122314,"328":-1.767798662185669,"329":1.780889868736267,"330":-0.9757706522941589,"331":-1.6164222955703735,"332":-0.20187869668006897,"333":0.4626803994178772,"334":0.06125018000602722,"335":0.06280899792909622,"336":2.2065722942352295,"337":0.13318556547164917,"338":2.3787994384765625,"339":-0.9706538319587708,"340":-0.16180072724819183,"341":0.16488155722618103,"342":-1.5830124616622925,"343":1.013724446296692,"344":0.4564942419528961,"345":-0.1373790204524994,"346":-2.080671787261963,"347":1.561980128288269,"348":1.1236733198165894,"349":0.05440201237797737,"350":-0.5468466281890869,"351":-1.55380117893219,"352":-1.958742618560791,"353":1.3769726753234863,"354":1.119704246520996,"355":1.0561155080795288,"356":1.054685115814209,"357":-3.593918561935425,"358":-0.6422883868217468,"359":-3.707148313522339,"360":0.7650323510169983,"361":-2.6422793865203857,"362":-0.8918350338935852,"363":-1.4332544803619385,"364":0.22708946466445923,"365":-1.4688836336135864,"366":-3.7003753185272217,"367":-3.771559715270996,"368":1.2109805345535278,"369":0.24135248363018036,"370":1.2925652265548706,"371":-0.12267930060625076,"372":2.814493179321289,"373":2.4152910709381104,"374":3.2474472522735596,"375":-2.10792875289917,"376":-3.350074291229248,"377":0.06608202308416367,"378":-0.7452884316444397,"379":2.588827610015869,"380":0.6044414639472961,"381":1.0734047889709473,"382":1.6740940809249878,"383":-0.0981374979019165,"384":1.3210495710372925,"385":2.687243938446045,"386":-2.6606297492980957,"387":2.3227040767669678,"388":1.4614355564117432,"389":1.2193353176116943,"390":-0.12077362090349197,"391":-2.040083885192871,"392":0.15843351185321808,"393":2.0844764709472656,"394":0.8932178616523743,"395":1.051194667816162,"396":-1.9548406600952148,"397":-1.0601893663406372,"398":-0.7775928974151611,"399":3.720022439956665,"400":1.2680097818374634,"401":0.46626511216163635,"402":-0.06366216391324997,"403":-1.891137957572937,"404":-3.170595645904541,"405":-1.2480136156082153,"406":1.7972526550292969,"407":-0.5873042941093445,"408":-2.3935749530792236,"409":-0.9330787658691406,"410":-0.46429407596588135,"411":0.3697080910205841,"412":-2.072023868560791,"413":-1.9649877548217773,"414":1.121509075164795,"415":0.8474928736686707,"416":-1.806729793548584,"417":-0.9305379390716553,"418":-0.8868950009346008,"419":-0.8365738987922668,"420":0.9795758128166199,"421":0.589082658290863,"422":-0.9129917025566101,"423":0.48435527086257935,"424":-1.5231842994689941,"425":1.8668574094772339,"426":1.0806390047073364,"427":-0.18611830472946167,"428":3.117252826690674,"429":-0.2312789410352707,"430":0.6737719774246216,"431":-1.1923692226409912,"432":0.033162809908390045,"433":-0.005224098451435566,"434":-0.510349690914154,"435":0.7203735709190369,"436":0.06970050185918808,"437":-1.0018516778945923,"438":-0.7541242837905884,"439":0.3074743449687958,"440":-1.1773020029067993,"441":0.11870989203453064,"442":1.2763452529907227,"443":1.6812548637390137,"444":-0.9808811545372009,"445":-1.9523969888687134,"446":0.1551474928855896,"447":1.1883699893951416,"448":3.4237005710601807,"449":-0.03306373953819275,"450":2.884711503982544,"451":1.006052017211914,"452":2.346238374710083,"453":-1.1011430025100708,"454":-2.2251412868499756,"455":2.4538216590881348,"456":0.7195507884025574,"457":1.8369181156158447,"458":0.2653554677963257,"459":-0.6129497289657593,"460":0.22771736979484558,"461":-1.462976336479187,"462":-1.4139339923858643,"463":-2.422386407852173,"464":-1.8359081745147705,"465":-1.6102672815322876,"466":-1.6795554161071777,"467":2.103165864944458,"468":-0.9042521715164185,"469":1.8033549785614014,"470":-4.561263084411621,"471":-5.408096790313721,"472":0.01277239341288805,"473":-2.286590099334717,"474":1.673671841621399,"475":-2.4482815265655518,"476":-2.5911593437194824,"477":-3.368710994720459,"478":0.38617658615112305,"479":-1.087093472480774,"480":-0.20609888434410095,"481":2.2918827533721924,"482":-0.035531122237443924,"483":-0.796630859375,"484":0.39006584882736206,"485":0.5916275382041931,"486":-0.2664838135242462,"487":0.8520471453666687,"488":1.1519562005996704,"489":0.30859729647636414,"490":3.1900928020477295,"491":-1.1414275169372559,"492":-0.22991631925106049,"493":0.6162198185920715,"494":-0.29308757185935974,"495":0.20297028124332428,"496":2.622101306915283,"497":0.3479977548122406,"498":3.0726895332336426,"499":-1.2994221448898315,"500":3.1197187900543213,"501":0.4291159212589264,"502":0.04759028181433678,"503":-1.7846453189849854,"504":0.1498717963695526,"505":-0.16601917147636414,"506":1.6495909690856934,"507":-2.3547449111938477,"508":-0.5344640016555786,"509":0.26062649488449097,"510":-2.629610776901245,"511":0.4137994349002838,"512":1.0746064186096191,"513":-0.533916711807251,"514":-3.271378517150879,"515":1.6143633127212524,"516":1.477933645248413,"517":-1.6256849765777588,"518":-0.3081151843070984,"519":0.12402285635471344,"520":1.8187036514282227,"521":-0.8517603874206543,"522":0.17056156694889069,"523":0.6657319068908691,"524":-3.591212749481201,"525":0.28443989157676697,"526":-1.2747687101364136,"527":0.793350100517273,"528":2.187385082244873,"529":-0.8970304131507874,"530":-2.6618704795837402,"531":-1.3475544452667236,"532":-3.4179270267486572,"533":-1.3841572999954224,"534":2.093724012374878,"535":1.3126027584075928,"536":1.2496399879455566,"537":0.7369773983955383,"538":0.7971532940864563,"539":-3.365603446960449,"540":1.4754188060760498,"541":-1.7887096405029297,"542":-2.1790385246276855,"543":-0.9443179368972778,"544":0.0184959527105093,"545":-0.38640040159225464,"546":1.3602221012115479,"547":0.8995140194892883,"548":-0.07780385762453079,"549":1.2015271186828613,"550":0.3314107358455658,"551":2.389918804168701,"552":0.6701407432556152,"553":2.0517189502716064,"554":-0.43392693996429443,"555":3.453453540802002,"556":0.14585848152637482,"557":0.01292773149907589,"558":1.1044743061065674,"559":1.2168996334075928,"560":1.159506916999817,"561":-0.8220999240875244,"562":0.024466507136821747,"563":-2.222750663757324,"564":-0.07189035415649414,"565":-0.15992587804794312,"566":-0.5339017510414124,"567":0.8829137086868286,"568":1.6091228723526,"569":-3.3406388759613037,"570":4.678502082824707,"571":-0.4222097098827362,"572":1.6722946166992188,"573":0.9376022815704346,"574":-0.9308156967163086,"575":-4.0591044425964355,"576":-0.8491548299789429,"577":-0.9540238380432129,"578":1.0220541954040527,"579":-0.9745789766311646,"580":-0.10483665764331818,"581":4.719738006591797,"582":-0.11379017680883408,"583":-4.21999454498291,"584":-1.9756447076797485,"585":3.7186338901519775,"586":-1.058815598487854,"587":-3.226423978805542,"588":4.467512130737305,"589":-1.8926684856414795,"590":0.9210819602012634,"591":1.1415492296218872,"592":3.797255754470825,"593":-1.3680744171142578,"594":0.06805051118135452,"595":-2.8376572132110596,"596":2.7841997146606445,"597":-2.9765758514404297,"598":-1.7275292873382568,"599":1.9592136144638062,"600":-0.4400732219219208,"601":0.8487771153450012,"602":2.617063045501709,"603":-2.407510280609131,"604":-0.823868453502655,"605":2.8201801776885986,"606":0.009995575062930584,"607":2.494816541671753,"608":-1.0350421667099,"609":0.7048715353012085,"610":-1.4364880323410034,"611":3.2714340686798096,"612":2.700838327407837,"613":3.1414875984191895,"614":-0.2025473713874817,"615":-1.662665843963623,"616":-0.4193601906299591,"617":-1.5429245233535767,"618":1.1681982278823853,"619":2.5495407581329346,"620":2.2609047889709473,"621":-0.004375393968075514,"622":-1.456213355064392,"623":1.3979249000549316,"624":-0.1498580425977707,"625":0.86248779296875,"626":-0.3322843909263611,"627":-2.163982391357422,"628":0.8232619762420654,"629":-0.6025642156600952,"630":-2.5231142044067383,"631":2.1187703609466553,"632":-2.778681516647339,"633":-0.5897057056427002,"634":-0.0699278935790062,"635":0.17337161302566528,"636":0.390785276889801,"637":1.0366488695144653,"638":0.6033028960227966,"639":0.637924075126648,"640":2.1495485305786133,"641":0.9565702080726624,"642":-0.8495041131973267,"643":-0.5272567868232727,"644":-1.23625910282135,"645":1.2754617929458618,"646":-1.3706765174865723,"647":-0.0002495927328709513,"648":1.8632702827453613,"649":-1.9826916456222534,"650":-2.4158177375793457,"651":-3.646028995513916,"652":0.5569809079170227,"653":-0.14360156655311584,"654":-2.0950660705566406,"655":0.7096649408340454,"656":1.7101095914840698,"657":0.36525824666023254,"658":-0.8847321271896362,"659":-1.987086534500122,"660":-2.1447975635528564,"661":-1.928749918937683,"662":-1.4814883470535278,"663":-5.07078218460083,"664":-1.1846044063568115,"665":0.8832248449325562,"666":2.166422128677368,"667":-0.4559379816055298,"668":0.6285131573677063,"669":-1.8417099714279175,"670":-3.2965164184570312,"671":-1.5276072025299072,"672":-2.5471017360687256,"673":-0.91178959608078,"674":2.765928268432617,"675":-1.728373408317566,"676":1.1970950365066528,"677":-2.682652711868286,"678":-3.766193389892578,"679":-0.11163686215877533,"680":0.3146035969257355,"681":0.06461869925260544,"682":-1.7258952856063843,"683":6.099942684173584,"684":0.8793777227401733,"685":-2.187073230743408,"686":2.16793155670166,"687":-3.949279308319092,"688":1.9751619100570679,"689":0.4944172501564026,"690":0.8514220118522644,"691":-0.36646199226379395,"692":0.6935243606567383,"693":3.2501392364501953,"694":-0.6731703281402588,"695":-2.365602731704712,"696":-0.13743853569030762,"697":1.671924352645874,"698":2.5560243129730225,"699":0.6035592555999756,"700":1.3822492361068726,"701":2.3084757328033447,"702":3.924132823944092,"703":1.1677203178405762,"704":1.7589632272720337,"705":4.458489894866943,"706":1.3350642919540405,"707":-3.5577845573425293,"708":-0.733521044254303,"709":-0.6916484236717224,"710":-2.6199920177459717,"711":-3.9537675380706787,"712":0.5517227053642273,"713":0.4236088693141937,"714":0.7739244103431702,"715":-1.0411487817764282,"716":1.6653718948364258,"717":-2.232255697250366,"718":-1.3449089527130127,"719":-0.46457093954086304,"720":0.4639919400215149,"721":1.0048635005950928,"722":2.887789487838745,"723":1.6839375495910645,"724":-2.049427032470703,"725":-2.016063690185547,"726":-2.8528265953063965,"727":-1.5191004276275635,"728":0.6878566145896912,"729":1.2646100521087646,"730":-2.3788681030273438,"731":-2.5582337379455566,"732":-1.6814247369766235,"733":2.6237428188323975,"734":-1.3781490325927734,"735":-2.076242446899414,"736":1.272657871246338,"737":3.681671142578125,"738":1.9929691553115845,"739":1.63628351688385,"740":-1.7393412590026855,"741":2.019028663635254,"742":2.5792171955108643,"743":-2.1705081462860107,"744":0.5064194798469543,"745":3.4184491634368896,"746":-0.555648922920227,"747":-1.479842185974121,"748":-1.7556164264678955,"749":-2.7064318656921387,"750":0.20791329443454742,"751":-1.5431320667266846,"752":-1.2279553413391113,"753":-0.3216336667537689,"754":1.872334599494934,"755":0.5373916029930115,"756":0.5143164396286011,"757":0.8273850679397583,"758":-2.015001058578491,"759":-1.3169424533843994,"760":-1.2532531023025513,"761":-1.603531837463379,"762":-0.6047032475471497,"763":-1.6705111265182495,"764":1.9262521266937256,"765":-2.7937896251678467,"766":-3.544757127761841,"767":-1.9027835130691528,"768":1.6331093311309814,"769":5.3105878829956055,"770":1.852312445640564,"771":-3.76595401763916,"772":-3.5249006748199463,"773":-0.013517932966351509,"774":2.8504977226257324,"775":-0.974972128868103,"776":-2.481335163116455,"777":-1.6870434284210205,"778":0.39458033442497253,"779":-0.05319809913635254,"780":0.6372944712638855,"781":0.987649142742157,"782":-0.555804967880249,"783":2.4568066596984863,"784":-2.9243080615997314,"785":0.4928935170173645,"786":2.0885567665100098,"787":-3.3188788890838623,"788":-5.470924377441406,"789":2.2215230464935303,"790":4.949870586395264,"791":-1.0163227319717407,"792":3.5992627143859863,"793":-0.7752774357795715,"794":0.5598734021186829,"795":-1.4596307277679443,"796":-2.029198169708252,"797":2.0397348403930664,"798":-2.1391701698303223,"799":0.7909477353096008,"800":3.8203110694885254,"801":2.461042642593384,"802":-0.835112452507019,"803":-2.1200520992279053,"804":-0.30461952090263367,"805":-1.723909616470337,"806":-2.127894401550293,"807":-2.4252665042877197,"808":1.1814697980880737,"809":-0.5343361496925354,"810":1.4146616458892822,"811":1.601913571357727,"812":1.9563764333724976,"813":1.3632539510726929,"814":0.6606411933898926,"815":-1.5725798606872559,"816":0.34129151701927185,"817":4.6038055419921875,"818":3.1789324283599854,"819":-1.8733769655227661}},"forgetHidden":{"rows":20,"columns":20,"weights":{"0":1.719504714012146,"1":-0.7430152893066406,"2":0.0830809473991394,"3":0.4839736819267273,"4":-1.457202672958374,"5":0.402347594499588,"6":-0.3765535056591034,"7":2.486386299133301,"8":-0.9528601169586182,"9":0.8364028930664062,"10":0.023459631949663162,"11":-0.48639827966690063,"12":0.07368598878383636,"13":-1.4467920064926147,"14":1.3837456703186035,"15":0.02128959260880947,"16":0.6130601763725281,"17":-0.41037365794181824,"18":-0.7275516986846924,"19":-2.2080447673797607,"20":1.737346887588501,"21":1.9695621728897095,"22":2.9505484104156494,"23":-0.9173651933670044,"24":-0.07061482965946198,"25":2.465965986251831,"26":0.0673203244805336,"27":0.7460569143295288,"28":0.9753525853157043,"29":-0.4591197967529297,"30":1.9783481359481812,"31":-2.1023640632629395,"32":-0.7762958407402039,"33":3.224069595336914,"34":-1.8239758014678955,"35":-0.4224284887313843,"36":0.05380147695541382,"37":-1.6119070053100586,"38":0.6492751240730286,"39":-1.305517315864563,"40":2.506826877593994,"41":1.8995983600616455,"42":-1.8138388395309448,"43":2.9823930263519287,"44":-5.503096103668213,"45":-3.7441000938415527,"46":-0.6840113401412964,"47":-0.808761715888977,"48":0.355032742023468,"49":-0.6187630295753479,"50":-3.3126742839813232,"51":-0.6557020545005798,"52":0.8472580313682556,"53":-0.15195032954216003,"54":-1.5618181228637695,"55":-1.667943000793457,"56":-0.8143836259841919,"57":0.8372970223426819,"58":2.110888719558716,"59":-5.943978786468506,"60":2.591712474822998,"61":-0.5225107073783875,"62":-3.475290536880493,"63":-2.9231932163238525,"64":2.9653079509735107,"65":1.564289927482605,"66":1.4147878885269165,"67":-1.1117905378341675,"68":0.5571849346160889,"69":2.981062889099121,"70":-1.8027828931808472,"71":1.092968463897705,"72":0.14846652746200562,"73":-0.9467384815216064,"74":-2.832094669342041,"75":-1.1443326473236084,"76":-1.5199257135391235,"77":0.9247274994850159,"78":-2.7064168453216553,"79":-0.6464361548423767,"80":2.19173526763916,"81":-0.36792874336242676,"82":-2.5223073959350586,"83":3.112473249435425,"84":0.4439743459224701,"85":1.9461100101470947,"86":-2.299865245819092,"87":1.2389839887619019,"88":1.8145381212234497,